<?xml version="1.0"?>
<opencv_storage>
<cascade>
  <stageType>BOOST</stageType>
  <featureType>LBP</featureType>
  <height>48</height>
  <width>48</width>
  <stageParams>
    <boostType>GAB</boostType>
    <minHitRate>9.9500000476837158e-01</minHitRate>
    <maxFalseAlarm>5.0000000000000000e-01</maxFalseAlarm>
    <weightTrimRate>9.4999999999999996e-01</weightTrimRate>
    <maxDepth>1</maxDepth>
    <maxWeakCount>100</maxWeakCount></stageParams>
  <featureParams>
    <maxCatCount>256</maxCatCount>
    <featSize>1</featSize></featureParams>
  <stageNum>15</stageNum>
  <stages>
    <!-- stage 0 -->
    <_>
      <maxWeakCount>6</maxWeakCount>
      <stageThreshold>-2.0864465236663818e+00</stageThreshold>
      <weakClassifiers>
        <_>
          <internalNodes>
            0 -1 216 1362482111 286326801 185417663 858980631 66817983
            1006580415 1340063743 -1140913153</internalNodes>
          <leafValues>
            -7.2673785686492920e-01 3.5694283246994019e-01</leafValues></_>
        <_>
          <internalNodes>
            0 -1 20 -235679523 -747568944 1897959837 1438580817
            319461562 0 166843 18022443</internalNodes>
          <leafValues>
            -7.0230412483215332e-01 2.5879508256912231e-01</leafValues></_>
        <_>
          <internalNodes>
            0 -1 402 -1071592286 0 -1382669184 32 1222869241 71857
            788334319 -2145189333</internalNodes>
          <leafValues>
            -5.6002402305603027e-01 3.3224257826805115e-01</leafValues></_>
        <_>
          <internalNodes>
            0 -1 117 -97522801 1498929936 -1369116723 1038199872
            -1976204120 9437984 -1998247800 -2126446592</internalNodes>
          <leafValues>
            -4.1426768898963928e-01 3.9293390512466431e-01</leafValues></_>
        <_>
          <internalNodes>
            0 -1 133 -1107089366 -1560065856 630186850 1366246801
            -1316285855 226615296 -1289555098 -1082158687</internalNodes>
          <leafValues>
            -3.7831035256385803e-01 3.6438053846359253e-01</leafValues></_>
        <_>
          <internalNodes>
            0 -1 39 -1009716016 1393621918 537201665 -1120798973
            1080099024 890323925 1075904512 -1586011837</internalNodes>
          <leafValues>
            -3.8848316669464111e-01 3.1826812028884888e-01</leafValues></_></weakClassifiers></_>
    <!-- stage 1 -->
    <_>
      <maxWeakCount>12</maxWeakCount>
      <stageThreshold>-1.9945632219314575e+00</stageThreshold>
      <weakClassifiers>
        <_>
          <internalNodes>
            0 -1 20 -201329153 -134229025 -203696641 -28193 -72615173
            295370906 -71631873 872354811</internalNodes>
          <leafValues>
            -8.0225014686584473e-01 1.4239552617073059e-01</leafValues></_>
        <_>
          <internalNodes>
            0 -1 52 -182980097 1398800315 2098679559 -4762849 1359282351
            926356927 2142177979 -2161909</internalNodes>
          <leafValues>
            -3.9553469419479370e-01 3.9536213874816895e-01</leafValues></_>
        <_>
          <internalNodes>
            0 -1 234 -45811508 -719019004 -1515683788 -1860165628
            -1062432520 319568 1753516266 2555915</internalNodes>
          <leafValues>
            -5.5471491813659668e-01 2.3215740919113159e-01</leafValues></_>
        <_>
          <internalNodes>
            0 -1 487 -1280249112 -2112943960 994042706 1116717217
            -1287986773 -1895069560 -1558515213 -548682252</internalNodes>
          <leafValues>
            -3.4858313202857971e-01 3.1920969486236572e-01</leafValues></_>
        <_>
          <internalNodes>
            0 -1 513 1029394683 -2098784143 -121900830 -790669841
            -154527734 -45595638 1520626687 -635782145</internalNodes>
          <leafValues>
            -2.6547679305076599e-01 3.7258869409561157e-01</leafValues></_>
        <_>
          <internalNodes>
            0 -1 169 -47862113 -552489182 -9335027 -1087034494
            -905868114 -1661909867 -309261110 -2126430206</internalNodes>
          <leafValues>
            -2.7657267451286316e-01 3.5768517851829529e-01</leafValues></_>
        <_>
          <internalNodes>
            0 -1 289 -783955459 319916197 -1918136357 -1074978549
            184131309 280364197 713161615 -1885104209</internalNodes>
          <leafValues>
            -2.3806995153427124e-01 3.9691814780235291e-01</leafValues></_>
        <_>
          <internalNodes>
            0 -1 76 865676216 -1542913824 -1289128078 2136822145
            -1104998062 -2062571256 -1760319659 -1086859819</internalNodes>
          <leafValues>
            -3.3403575420379639e-01 2.5165727734565735e-01</leafValues></_>
        <_>
          <internalNodes>
            0 -1 7 -228202861 -246074570 -720220205 1431426591
            1081124276 7759619 68158696 1547121183</internalNodes>
          <leafValues>
            -3.1606292724609375e-01 2.6166850328445435e-01</leafValues></_>
        <_>
          <internalNodes>
            0 -1 313 -264267131 -1438235208 2126851095 -1594095430
            -1602739679 1028451280 -1883936556 -927955788</internalNodes>
          <leafValues>
            -3.6099672317504883e-01 2.2759428620338440e-01</leafValues></_>
        <_>
          <internalNodes>
            0 -1 44 -2136733056 -697245918 1633705248 -39791838
            269684864 544224181 1145547658 -245287149</internalNodes>
          <leafValues>
            -3.5792610049247742e-01 2.0802091062068939e-01</leafValues></_>
        <_>
          <internalNodes>
            0 -1 365 1902180275 1494254770 1878883125 226527843
            1086215389 540126577 -187318017 -2048005153</internalNodes>
          <leafValues>
            -2.2448171675205231e-01 3.1810167431831360e-01</leafValues></_></weakClassifiers></_>
    <!-- stage 2 -->
    <_>
      <maxWeakCount>17</maxWeakCount>
      <stageThreshold>-2.0062675476074219e+00</stageThreshold>
      <weakClassifiers>
        <_>
          <internalNodes>
            0 -1 27 -134218753 -31777 -1280059905 -11297 -609484865
            1000013979 -71566337 1006334975</internalNodes>
          <leafValues>
            -7.5481677055358887e-01 -1.4781965874135494e-03</leafValues></_>
        <_>
          <internalNodes>
            0 -1 180 5739193 286327315 17501451 321987073 40929466
            500830905 804068527 733948587</internalNodes>
          <leafValues>
            -5.2294635772705078e-01 1.2505565583705902e-01</leafValues></_>
        <_>
          <internalNodes>
            0 -1 15 -1767121921 -105814126 -1242476611 1033922474
            -253786627 -188392457 -1310643764 -2123280286</internalNodes>
          <leafValues>
            -2.8550884127616882e-01 3.4264263510704041e-01</leafValues></_>
        <_>
          <internalNodes>
            0 -1 81 -1212417797 -1895333752 -1276644541 1466432849
            -1146093574 -1886664566 -1220824109 -8661627</internalNodes>
          <leafValues>
            -2.3749828338623047e-01 4.0405842661857605e-01</leafValues></_>
        <_>
          <internalNodes>
            0 -1 367 -705694209 271624242 795450239 926006067 1257623039
            16588281 -85459458 -2080901825</internalNodes>
          <leafValues>
            -2.2276222705841064e-01 3.8684606552124023e-01</leafValues></_>
        <_>
          <internalNodes>
            0 -1 486 -136883989 -1543543557 1996284139 -220261121
            -81113074 -565289401 356174475 -627412993</internalNodes>
          <leafValues>
            -2.1368402242660522e-01 3.7302696704864502e-01</leafValues></_>
        <_>
          <internalNodes>
            0 -1 4 -581573129 1920072475 -8918308 1964367635 1946269901
            -1314687149 1478870088 -212372733</internalNodes>
          <leafValues>
            -2.3085656762123108e-01 3.5844153165817261e-01</leafValues></_>
        <_>
          <internalNodes>
            0 -1 212 1611959300 475184000 -1398241488 -1780840575
            4197262 -1701707631 1154230458 -1933114877</internalNodes>
          <leafValues>
            -2.9685947299003601e-01 2.5361427664756775e-01</leafValues></_>
        <_>
          <internalNodes>
            0 -1 509 367286522 -2099310402 1888415916 -755034881
            -8908800 -983148479 174608383 -1710576485</internalNodes>
          <leafValues>
            -3.1204268336296082e-01 2.1701872348785400e-01</leafValues></_>
        <_>
          <internalNodes>
            0 -1 247 168242955 -1361102230 -731126651 -1957780648
            1681795933 370682019 -764677566 -143680721</internalNodes>
          <leafValues>
            -2.9547083377838135e-01 2.2964957356452942e-01</leafValues></_>
        <_>
          <internalNodes>
            0 -1 288 -572522699 1905166080 401086639 361037845
            -603132753 -265212038 -87740785 10691147</internalNodes>
          <leafValues>
            -2.8935229778289795e-01 2.4519009888172150e-01</leafValues></_>
        <_>
          <internalNodes>
            0 -1 490 -1156451589 -1400280672 1110291424 1717036529
            -1444151342 -2003830112 -1212946445 -1073883663</internalNodes>
          <leafValues>
            -2.5361078977584839e-01 2.7923297882080078e-01</leafValues></_>
        <_>
          <internalNodes>
            0 -1 141 -432074697 -1092815368 602218389 -1209150584
            -1276048608 -1005428267 460896304 -1164543724</internalNodes>
          <leafValues>
            -3.0834355950355530e-01 2.1613106131553650e-01</leafValues></_>
        <_>
          <internalNodes>
            0 -1 49 1948248963 1510262391 -821280992 -39815374
            1343694008 2032338318 1896035215 1830494987</internalNodes>
          <leafValues>
            -3.0713522434234619e-01 2.1331603825092316e-01</leafValues></_>
        <_>
          <internalNodes>
            0 -1 21 -571715329 -536933698 -221547915 -758166539
            -1734737406 -33417118 2061162431 -1683292674</internalNodes>
          <leafValues>
            -1.9606250524520874e-01 3.3334314823150635e-01</leafValues></_>
        <_>
          <internalNodes>
            0 -1 343 1157224070 1435533376 -879390384 153724767
            1560062960 274744817 1643299032 160770731</internalNodes>
          <leafValues>
            -3.7200665473937988e-01 1.8046435713768005e-01</leafValues></_>
        <_>
          <internalNodes>
            0 -1 375 149825291 616921240 -288574972 586066933 1935156259
            1766744076 -187751557 -424703946</internalNodes>
          <leafValues>
            -3.6973661184310913e-01 1.8360912799835205e-01</leafValues></_></weakClassifiers></_>
    <!-- stage 3 -->
    <_>
      <maxWeakCount>21</maxWeakCount>
      <stageThreshold>-1.7390004396438599e+00</stageThreshold>
      <weakClassifiers>
        <_>
          <internalNodes>
            0 -1 19 -262691 -8225 -524801 -3977 -91229189 -254799728
            -89456645 1945612991</internalNodes>
          <leafValues>
            -7.1149474382400513e-01 -1.5087254345417023e-01</leafValues></_>
        <_>
          <internalNodes>
            0 -1 67 1394212949 2132095286 1475808847 488317523 37749951
            1068901823 145107567 -1073799873</internalNodes>
          <leafValues>
            -3.7877282500267029e-01 2.0326212048530579e-01</leafValues></_>
        <_>
          <internalNodes>
            0 -1 379 -262864933 1884356595 -839197377 -914311658
            -934417921 -499425433 -989865793 -2136481041</internalNodes>
          <leafValues>
            -2.4424982070922852e-01 3.1686821579933167e-01</leafValues></_>
        <_>
          <internalNodes>
            0 -1 102 -33730309 -68335397 -788577074 -790671653
            -1086715382 -263428096 1526396623 -895828038</internalNodes>
          <leafValues>
            -2.1729418635368347e-01 3.3026230335235596e-01</leafValues></_>
        <_>
          <internalNodes>
            0 -1 8 -698875938 -143331289 2064715150 2008151863
            1365435530 11928420 270991387 1360737071</internalNodes>
          <leafValues>
            -3.2801222801208496e-01 2.2113402187824249e-01</leafValues></_>
        <_>
          <internalNodes>
            0 -1 300 -88949078 -1851736073 -1759596756 -1786598878
            -1475507032 -1259324992 -858108916 -2147481598</internalNodes>
          <leafValues>
            -2.9118028283119202e-01 2.4657212197780609e-01</leafValues></_>
        <_>
          <internalNodes>
            0 -1 79 -1145332741 -1415083832 595523569 -12588011
            -1245987077 -946869559 -1212499981 -73427468</internalNodes>
          <leafValues>
            -1.8629845976829529e-01 3.6764687299728394e-01</leafValues></_>
        <_>
          <internalNodes>
            0 -1 468 -1298993688 -1901602624 1397212067 1112093109
            -1700226416 -2004121382 -1220561901 -30485036</internalNodes>
          <leafValues>
            -2.9802942276000977e-01 2.1521532535552979e-01</leafValues></_>
        <_>
          <internalNodes>
            0 -1 282 -774386213 288467135 679644650 -1108487030
            -1744963651 820189423 -1931219782 -1342708598</internalNodes>
          <leafValues>
            -1.9694957137107849e-01 3.3252781629562378e-01</leafValues></_>
        <_>
          <internalNodes>
            0 -1 146 -785328944 -265955288 556084564 -2009023440
            -331022144 558040337 -920302582 -2143280574</internalNodes>
          <leafValues>
            -2.9158177971839905e-01 2.2234384715557098e-01</leafValues></_>
        <_>
          <internalNodes>
            0 -1 455 -1488252789 -1890763524 987164910 -1023452802
            -955248630 -234018281 202042127 -759500037</internalNodes>
          <leafValues>
            -2.8860473632812500e-01 2.0576260983943939e-01</leafValues></_>
        <_>
          <internalNodes>
            0 -1 12 -84505695 -1237009465 2114290313 2000156433
            -292163896 -441245392 -867170102 22348803</internalNodes>
          <leafValues>
            -3.3909615874290466e-01 1.7301258444786072e-01</leafValues></_>
        <_>
          <internalNodes>
            0 -1 249 -713577324 867408611 -1415369075 -1390204918
            -1761753860 2129301439 -863719924 -1446157822</internalNodes>
          <leafValues>
            -2.1751767396926880e-01 2.6091825962066650e-01</leafValues></_>
        <_>
          <internalNodes>
            0 -1 152 -1150207413 -2061303136 -1623465053 789966880
            -1313121673 25342025 -1286347997 -79707711</internalNodes>
          <leafValues>
            -2.7320387959480286e-01 1.9842091202735901e-01</leafValues></_>
        <_>
          <internalNodes>
            0 -1 501 684985749 -1429516105 -1400052259 -827062314
            -1436249865 -268893177 690682862 -1130351364</internalNodes>
          <leafValues>
            -2.9115143418312073e-01 1.8520918488502502e-01</leafValues></_>
        <_>
          <internalNodes>
            0 -1 109 79105077 -2097403241 -1852932167 1801500136
            -600606412 -1166632364 -44493472 -1918867100</internalNodes>
          <leafValues>
            -3.7864550948143005e-01 1.4480328559875488e-01</leafValues></_>
        <_>
          <internalNodes>
            0 -1 110 1436808213 1980806931 1867988767 762636080
            1358238864 1045504885 -370185653 1156005714</internalNodes>
          <leafValues>
            -2.7888154983520508e-01 1.8269047141075134e-01</leafValues></_>
        <_>
          <internalNodes>
            0 -1 219 1758700977 297346738 593079853 462911268 33916148
            967051998 -121169780 204383031</internalNodes>
          <leafValues>
            -2.8156021237373352e-01 1.7931476235389709e-01</leafValues></_>
        <_>
          <internalNodes>
            0 -1 514 -33794827 -844229190 312472270 -218152741
            -124202930 -632797671 843638479 -720699394</internalNodes>
          <leafValues>
            -2.0391777157783508e-01 2.5575047731399536e-01</leafValues></_>
        <_>
          <internalNodes>
            0 -1 36 1767953410 1922619360 -811901436 -168824653
            1409352933 201241621 1395087432 1159028775</internalNodes>
          <leafValues>
            -2.9226168990135193e-01 1.7457222938537598e-01</leafValues></_>
        <_>
          <internalNodes>
            0 -1 487 -1223101717 -1362122720 1931950466 1247793325
            -1307851845 -1936741447 -1239710989 -1220045344</internalNodes>
          <leafValues>
            -2.3865333199501038e-01 2.0959016680717468e-01</leafValues></_></weakClassifiers></_>
    <!-- stage 4 -->
    <_>
      <maxWeakCount>26</maxWeakCount>
      <stageThreshold>-1.7656934261322021e+00</stageThreshold>
      <weakClassifiers>
        <_>
          <internalNodes>
            0 -1 280 -67108865 -72652585 -100667973 -1086095181
            -1026229009 -1868896526 -84951329 200273919</internalNodes>
          <leafValues>
            -7.0778942108154297e-01 -2.1197056770324707e-01</leafValues></_>
        <_>
          <internalNodes>
            0 -1 47 1426116707 -147065069 1395873118 -583817453
            807666091 867633075 2000622495 2080320411</internalNodes>
          <leafValues>
            -4.4331011176109314e-01 1.3218057155609131e-01</leafValues></_>
        <_>
          <internalNodes>
            0 -1 155 -115095109 -83646197 2146130287 -1123981541
            -851604323 -1467673114 -859485042 21072015</internalNodes>
          <leafValues>
            -2.8053462505340576e-01 2.2095035016536713e-01</leafValues></_>
        <_>
          <internalNodes>
            0 -1 25 -604221186 -33614698 1119187102 1347354879
            -549844982 2065316968 1109051027 -625284417</internalNodes>
          <leafValues>
            -2.4323110282421112e-01 2.6651608943939209e-01</leafValues></_>
        <_>
          <internalNodes>
            0 -1 45 -854989037 1353842640 -268439237 1031775498
            368960161 2028682747 1748450836 -681089502</internalNodes>
          <leafValues>
            -1.6965709626674652e-01 2.9551124572753906e-01</leafValues></_>
        <_>
          <internalNodes>
            0 -1 472 -537063189 -1183491905 -218247441 -757119249
            -567885302 -183608246 -2002592769 -625287441</internalNodes>
          <leafValues>
            -1.9021268188953400e-01 2.9048907756805420e-01</leafValues></_>
        <_>
          <internalNodes>
            0 -1 349 -1007158309 289059991 -1448093809 -1109412818
            643164397 552968110 150193182 563418398</internalNodes>
          <leafValues>
            -2.1487480401992798e-01 2.4480532109737396e-01</leafValues></_>
        <_>
          <internalNodes>
            0 -1 489 -1147602197 -1347729248 -217802846 2134886365
            -1148982597 -846995519 -1220810829 -8398383</internalNodes>
          <leafValues>
            -1.8818661570549011e-01 2.8415456414222717e-01</leafValues></_>
        <_>
          <internalNodes>
            0 -1 195 -1766680833 388300714 1066051917 -1381389334
            -853275412 468992505 955516104 -2133507072</internalNodes>
          <leafValues>
            -2.6147508621215820e-01 1.9311983883380890e-01</leafValues></_>
        <_>
          <internalNodes>
            0 -1 113 -1088483221 -2020800056 1367790946 2143933605
            -1178640269 160244160 -1223691453 -148908555</internalNodes>
          <leafValues>
            -2.4537295103073120e-01 2.0293901860713959e-01</leafValues></_>
        <_>
          <internalNodes>
            0 -1 403 1148058199 1343257360 -872014049 18916046
            -461536066 1635593655 1841778303 -2139233685</internalNodes>
          <leafValues>
            -2.2756369411945343e-01 2.2112359106540680e-01</leafValues></_>
        <_>
          <internalNodes>
            0 -1 256 1113236243 269645619 1000211813 924400484 723750317
            1072252112 -208713158 -1980541398</internalNodes>
          <leafValues>
            -2.2367927432060242e-01 2.1744012832641602e-01</leafValues></_>
        <_>
          <internalNodes>
            0 -1 325 -365450789 -1466030453 2062266208 -495564586
            -7027151 19229717 1856376068 -237187672</internalNodes>
          <leafValues>
            -2.6640969514846802e-01 1.7511801421642303e-01</leafValues></_>
        <_>
          <internalNodes>
            0 -1 397 710878723 -2147012719 -765631410 -889558274
            2071976005 -465774013 -1849507229 -1164972914</internalNodes>
          <leafValues>
            -2.6496958732604980e-01 1.7090876400470734e-01</leafValues></_>
        <_>
          <internalNodes>
            0 -1 29 1835119600 1478090851 1877368700 167111510
            -867897184 1059145681 81879180 283583315</internalNodes>
          <leafValues>
            -2.8252074122428894e-01 1.6089010238647461e-01</leafValues></_>
        <_>
          <internalNodes>
            0 -1 2 -180397828 -574943173 1147925646 -260083369
            -1270953978 -1222359009 1581815729 -1154810950</internalNodes>
          <leafValues>
            -2.1941719949245453e-01 1.9977144896984100e-01</leafValues></_>
        <_>
          <internalNodes>
            0 -1 105 -52113006 991012722 1954784192 1688007968
            -858947444 -1258290237 2106207115 991051419</internalNodes>
          <leafValues>
            -2.9494264721870422e-01 1.5488775074481964e-01</leafValues></_>
        <_>
          <internalNodes>
            0 -1 505 625475833 -1404559273 -790945349 1119695087
            -1188900323 -28163983 1312357038 -1692898889</internalNodes>
          <leafValues>
            -2.7533519268035889e-01 1.6754336655139923e-01</leafValues></_>
        <_>
          <internalNodes>
            0 -1 361 -245399281 1890884039 1600932893 -1618723302
            -115786819 2127936437 -168453112 -2143251758</internalNodes>
          <leafValues>
            -2.2892260551452637e-01 2.0206473767757416e-01</leafValues></_>
        <_>
          <internalNodes>
            0 -1 144 146669568 145122814 -220824044 -2100785744
            1970406996 -2013380510 2000881412 -186644368</internalNodes>
          <leafValues>
            -4.6146395802497864e-01 1.0298254340887070e-01</leafValues></_>
        <_>
          <internalNodes>
            0 -1 363 -647500256 1367354468 1739800207 152047686
            1150584004 7882568 -1061828869 191835050</internalNodes>
          <leafValues>
            -3.1173536181449890e-01 1.2993797659873962e-01</leafValues></_>
        <_>
          <internalNodes>
            0 -1 124 -769524158 379844443 -1081648383 258781511
            1748422784 1693582322 -511767795 -1571555510</internalNodes>
          <leafValues>
            -2.1215480566024780e-01 1.9825410842895508e-01</leafValues></_>
        <_>
          <internalNodes>
            0 -1 514 367526080 -1923214856 8737486 1626161403 1016088650
            1528449544 1141558127 2637531</internalNodes>
          <leafValues>
            -4.3774345517158508e-01 1.0314989089965820e-01</leafValues></_>
        <_>
          <internalNodes>
            0 -1 452 771752453 214218417 549610998 -1906427278
            -1685767114 1214804560 993656960 -2076118876</internalNodes>
          <leafValues>
            -4.3017205595970154e-01 9.5744967460632324e-02</leafValues></_>
        <_>
          <internalNodes>
            0 -1 80 840559069 -1543661432 -728640782 420857189
            -1165332997 -818896768 -1156844750 -547367468</internalNodes>
          <leafValues>
            -2.1447505056858063e-01 2.0292127132415771e-01</leafValues></_>
        <_>
          <internalNodes>
            0 -1 63 1962112147 1362166450 562121518 86112712 1089643703
            1815668170 -1428882550 1271867914</internalNodes>
          <leafValues>
            -2.6495307683944702e-01 1.6724903881549835e-01</leafValues></_></weakClassifiers></_>
    <!-- stage 5 -->
    <_>
      <maxWeakCount>30</maxWeakCount>
      <stageThreshold>-1.6184087991714478e+00</stageThreshold>
      <weakClassifiers>
        <_>
          <internalNodes>
            0 -1 18 -42402383 -38406727 -677922819 -172527957 -240648705
            -122667591 -1939879745 1363403003</internalNodes>
          <leafValues>
            -6.9954550266265869e-01 -2.8161269426345825e-01</leafValues></_>
        <_>
          <internalNodes>
            0 -1 264 -748434481 320309801 -1608979253 1073709263
            -490211329 314483102 -1432356389 1072688639</internalNodes>
          <leafValues>
            -3.4448689222335815e-01 1.3479983806610107e-01</leafValues></_>
        <_>
          <internalNodes>
            0 -1 512 -438023 -67151649 1929330943 -757115907 -5744630
            -159426998 1519971279 -626336001</internalNodes>
          <leafValues>
            -1.8985545635223389e-01 2.9345795512199402e-01</leafValues></_>
        <_>
          <internalNodes>
            0 -1 42 1547549471 531674643 523050301 1542236675 1077219607
            1966281111 157749274 1970743087</internalNodes>
          <leafValues>
            -3.2464295625686646e-01 1.6591317951679230e-01</leafValues></_>
        <_>
          <internalNodes>
            0 -1 467 -1147604232 -1540519776 -1321340510 1247252945
            -1145332246 -2004453184 -1221920781 -27275055</internalNodes>
          <leafValues>
            -1.8882140517234802e-01 2.4915200471878052e-01</leafValues></_>
        <_>
          <internalNodes>
            0 -1 214 -1979314155 -295769911 -1674797611 -111910086
            -574432512 -1913958276 -582681136 -33823832</internalNodes>
          <leafValues>
            -1.6880235075950623e-01 2.5925022363662720e-01</leafValues></_>
        <_>
          <internalNodes>
            0 -1 208 -201131988 -712557550 -460302180 -578435928
            -800274244 -1331290048 1312972031 546285759</internalNodes>
          <leafValues>
            -3.1725013256072998e-01 1.3728556036949158e-01</leafValues></_>
        <_>
          <internalNodes>
            0 -1 100 -1279657489 -2029039200 -1275923501 2145366097
            -1078199301 -1012416824 -1212435741 -2125615</internalNodes>
          <leafValues>
            -1.5500642359256744e-01 2.7369496226310730e-01</leafValues></_>
        <_>
          <internalNodes>
            0 -1 131 1220799799 1899234581 -1153070803 533801217
            -1937265923 714740354 1686538286 189662233</internalNodes>
          <leafValues>
            -2.3365987837314606e-01 1.8282067775726318e-01</leafValues></_>
        <_>
          <internalNodes>
            0 -1 485 -1612098311 -1544727329 -1067845974 -535476515
            -201270777 -1138808482 1244840959 -610616625</internalNodes>
          <leafValues>
            -2.0436136424541473e-01 2.0050467550754547e-01</leafValues></_>
        <_>
          <internalNodes>
            0 -1 241 -554831905 -88159234 -37787873 -276110842
            1308325109 -120357413 -1740809016 -1062910974</internalNodes>
          <leafValues>
            -1.8309867382049561e-01 2.2863081097602844e-01</leafValues></_>
        <_>
          <internalNodes>
            0 -1 294 1282196480 1897210176 -261974508 -37117904
            209191648 -1111798871 -904767270 -126390742</internalNodes>
          <leafValues>
            -1.9613321125507355e-01 2.1943779289722443e-01</leafValues></_>
        <_>
          <internalNodes>
            0 -1 0 -67806979 -4755205 -262706014 1895774287 -210183678
            -45458853 242354001 -627393538</internalNodes>
          <leafValues>
            -1.9800730049610138e-01 2.0561015605926514e-01</leafValues></_>
        <_>
          <internalNodes>
            0 -1 142 -266614079 -151472558 -1268613759 -810428621
            1146552473 -121494875 1262951690 -93900025</internalNodes>
          <leafValues>
            -1.8619155883789062e-01 2.2509348392486572e-01</leafValues></_>
        <_>
          <internalNodes>
            0 -1 68 1458086743 2134447983 -964096723 -338551284
            157577976 1935820842 264912287 74147590</internalNodes>
          <leafValues>
            -2.3520427942276001e-01 1.7596617341041565e-01</leafValues></_>
        <_>
          <internalNodes>
            0 -1 470 2101181 -1426977160 -690737477 80492799 -471285298
            -1999208789 -393675045 -1103436548</internalNodes>
          <leafValues>
            -2.4943765997886658e-01 1.6009785234928131e-01</leafValues></_>
        <_>
          <internalNodes>
            0 -1 301 -2098059229 -2024535049 -1101595038 -360424840
            736059680 -2063900627 -1135204303 -1534033600</internalNodes>
          <leafValues>
            -3.5425946116447449e-01 1.0737731307744980e-01</leafValues></_>
        <_>
          <internalNodes>
            0 -1 183 -1432681877 -2080257440 -530943712 1137042817
            -94667000 -2097125238 -1208356046 -212892319</internalNodes>
          <leafValues>
            -2.4017220735549927e-01 1.6393812000751495e-01</leafValues></_>
        <_>
          <internalNodes>
            0 -1 370 -186326082 -670003437 -200516020 568376358
            1280722048 1882614200 -56549718 2173478</internalNodes>
          <leafValues>
            -2.8659150004386902e-01 1.3667729496955872e-01</leafValues></_>
        <_>
          <internalNodes>
            0 -1 497 531155185 -1406496128 -838940685 2126398401
            -1219971624 -876985888 -1175850001 -90680876</internalNodes>
          <leafValues>
            -2.1584485471248627e-01 1.8574848771095276e-01</leafValues></_>
        <_>
          <internalNodes>
            0 -1 83 -663442444 226355184 -921950087 -1348879069
            736163002 78837141 108281225 836833795</internalNodes>
          <leafValues>
            -2.6891177892684937e-01 1.4298446476459503e-01</leafValues></_>
        <_>
          <internalNodes>
            0 -1 445 -1147413831 -1953555808 2054025987 1794072977
            -1508320261 487393416 -1290676361 -98789892</internalNodes>
          <leafValues>
            -2.1906711161136627e-01 1.7878177762031555e-01</leafValues></_>
        <_>
          <internalNodes>
            0 -1 345 -202852541 -1784499190 -534358769 -1621000125
            1818008828 -1700690260 239295950 -589450408</internalNodes>
          <leafValues>
            -1.5713067352771759e-01 2.5843495130538940e-01</leafValues></_>
        <_>
          <internalNodes>
            0 -1 170 -168822869 -606609973 -1996765842 -757337090
            -924158206 291973764 920321457 -138192906</internalNodes>
          <leafValues>
            -2.0748393237590790e-01 1.9269847869873047e-01</leafValues></_>
        <_>
          <internalNodes>
            0 -1 339 82526059 -1998509398 -221048160 682489548
            -416600814 139909456 -1816210926 -201624370</internalNodes>
          <leafValues>
            -2.6065495610237122e-01 1.4580422639846802e-01</leafValues></_>
        <_>
          <internalNodes>
            0 -1 341 -194516589 -754965062 1489276650 -1321172367
            -2075883356 574141153 -1577135134 124242746</internalNodes>
          <leafValues>
            -2.5871437788009644e-01 1.5261927247047424e-01</leafValues></_>
        <_>
          <internalNodes>
            0 -1 114 -677423940 -577298970 1626292972 -763373318
            -608826870 1306052636 1479597789 -895832163</internalNodes>
          <leafValues>
            -2.0177119970321655e-01 1.8965189158916473e-01</leafValues></_>
        <_>
          <internalNodes>
            0 -1 245 1360189947 1426235962 -1221788769 1028423686
            -846157116 -1197014537 -1174438440 -1196486841</internalNodes>
          <leafValues>
            -1.4431571960449219e-01 2.7603808045387268e-01</leafValues></_>
        <_>
          <internalNodes>
            0 -1 38 1158020544 1813834592 1339026816 -1926248012
            1080316565 -1666232335 -1206560756 301195298</internalNodes>
          <leafValues>
            -2.5147145986557007e-01 1.5526376664638519e-01</leafValues></_>
        <_>
          <internalNodes>
            0 -1 123 328729890 753317665 -511025834 -1773765392
            461000804 -1335151853 -240752096 -2138684400</internalNodes>
          <leafValues>
            -3.8413530588150024e-01 1.0519722849130630e-01</leafValues></_></weakClassifiers></_>
    <!-- stage 6 -->
    <_>
      <maxWeakCount>36</maxWeakCount>
      <stageThreshold>-1.5356469154357910e+00</stageThreshold>
      <weakClassifiers>
        <_>
          <internalNodes>
            0 -1 24 -237240323 -67127299 1301990861 -13271821 -19923973
            -252402816 -1474109461 1946135227</internalNodes>
          <leafValues>
            -6.5259188413619995e-01 -3.0304476618766785e-01</leafValues></_>
        <_>
          <internalNodes>
            0 -1 487 -1148062981 -1498972000 1933522755 1109115301
            -1291082757 -2024807544 857461203 2067743185</internalNodes>
          <leafValues>
            -3.3814293146133423e-01 1.0253580659627914e-01</leafValues></_>
        <_>
          <internalNodes>
            0 -1 55 -183832141 1996871675 1801061142 -73173189
            2039808174 392892671 2076049803 2009016219</internalNodes>
          <leafValues>
            -2.7886289358139038e-01 1.5166412293910980e-01</leafValues></_>
        <_>
          <internalNodes>
            0 -1 510 -168406805 -403762693 -254848802 -756082457
            -821012406 -11837951 1479076799 -625280017</internalNodes>
          <leafValues>
            -1.5053461492061615e-01 2.6408395171165466e-01</leafValues></_>
        <_>
          <internalNodes>
            0 -1 259 -180888013 -170359599 1233130933 494940011
            -1873826113 -98417158 -932314449 10592827</internalNodes>
          <leafValues>
            -2.3299324512481689e-01 1.6988898813724518e-01</leafValues></_>
        <_>
          <internalNodes>
            0 -1 75 632830841 60891304 826012129 1560670676 -1160038081
            -1903959103 -1827932489 -8806991</internalNodes>
          <leafValues>
            -2.1652506291866302e-01 1.8491126596927643e-01</leafValues></_>
        <_>
          <internalNodes>
            0 -1 441 -425332753 418416376 -815029333 -1578586886
            -37378633 -100766209 -335819297 -2131756385</internalNodes>
          <leafValues>
            -1.6330745816230774e-01 2.3834747076034546e-01</leafValues></_>
        <_>
          <internalNodes>
            0 -1 226 -1939505009 -196954376 1530676189 1311277361
            -990412629 -1271753432 -278811989 -76929142</internalNodes>
          <leafValues>
            -1.4954964816570282e-01 2.4682746827602386e-01</leafValues></_>
        <_>
          <internalNodes>
            0 -1 21 -571125249 -570467651 -238116254 1358909943
            -868722678 -14022562 1526388463 -541410049</internalNodes>
          <leafValues>
            -1.5321958065032959e-01 2.4269178509712219e-01</leafValues></_>
        <_>
          <internalNodes>
            0 -1 14 580588536 -243242597 -1893929703 763405736
            -425131603 -861713931 965936204 1394607904</internalNodes>
          <leafValues>
            -2.7784353494644165e-01 1.3451725244522095e-01</leafValues></_>
        <_>
          <internalNodes>
            0 -1 323 541239220 970188154 999106323 -1611667613 13963674
            452295477 1768128571 -806667693</internalNodes>
          <leafValues>
            -2.1142794191837311e-01 1.7554774880409241e-01</leafValues></_>
        <_>
          <internalNodes>
            0 -1 490 -1111955717 -309639008 -1574571229 2006964193
            -1079247374 -1886389632 -1263274061 -272907</internalNodes>
          <leafValues>
            -1.5045709908008575e-01 2.4230995774269104e-01</leafValues></_>
        <_>
          <internalNodes>
            0 -1 5 -33234428 -955153873 -241744136 1466405931 1543628209
            1883324419 1232543776 2083336291</internalNodes>
          <leafValues>
            -3.0968409776687622e-01 1.1850621551275253e-01</leafValues></_>
        <_>
          <internalNodes>
            0 -1 308 -1592127456 -2139092792 -1799308400 272974968
            -1306508534 -2130697664 369759988 -1743125387</internalNodes>
          <leafValues>
            -2.8185433149337769e-01 1.3590525090694427e-01</leafValues></_>
        <_>
          <internalNodes>
            0 -1 91 1883351845 970601567 -1344553721 -1927625982
            1366630321 1010045907 -72516214 1840592595</internalNodes>
          <leafValues>
            -1.9307626783847809e-01 1.7725858092308044e-01</leafValues></_>
        <_>
          <internalNodes>
            0 -1 428 -876103998 53147076 -120988150 -768652185
            -1085345011 654938126 2092168171 -1294476577</internalNodes>
          <leafValues>
            -2.5358524918556213e-01 1.3533364236354828e-01</leafValues></_>
        <_>
          <internalNodes>
            0 -1 406 -6296213 -825524061 1209180162 -956889545
            -1597456476 -2004862784 -441452976 -31919604</internalNodes>
          <leafValues>
            -2.0356668531894684e-01 1.7358149588108063e-01</leafValues></_>
        <_>
          <internalNodes>
            0 -1 382 1952704714 1554053392 747425366 159948818
            1155288338 947943339 -502341366 7283234</internalNodes>
          <leafValues>
            -2.8574725985527039e-01 1.2462344765663147e-01</leafValues></_>
        <_>
          <internalNodes>
            0 -1 165 1844291088 -751338061 -1347753363 1068033696
            1390638980 2025589418 1289049710 -1352153530</internalNodes>
          <leafValues>
            -2.0119701325893402e-01 1.7385125160217285e-01</leafValues></_>
        <_>
          <internalNodes>
            0 -1 41 1906071711 -33719236 -1493176875 2004439766
            -1614097327 -440119206 -1126537739 -1699178512</internalNodes>
          <leafValues>
            -1.9966667890548706e-01 1.7998579144477844e-01</leafValues></_>
        <_>
          <internalNodes>
            0 -1 451 35852037 -1976166198 -904465643 -2106671190
            -776259312 -1497356762 -1172964878 -1192067260</internalNodes>
          <leafValues>
            -2.8971332311630249e-01 1.2305172532796860e-01</leafValues></_>
        <_>
          <internalNodes>
            0 -1 228 -1631895699 -1955938044 1960818433 -286440475
            -173452796 -2107962710 -139282570 -673459037</internalNodes>
          <leafValues>
            -2.0917809009552002e-01 1.6413836181163788e-01</leafValues></_>
        <_>
          <internalNodes>
            0 -1 184 -805318005 -92452356 -401968500 47969267
            -1831124986 -15970201 1794832613 -619793196</internalNodes>
          <leafValues>
            -1.9025659561157227e-01 1.7967505753040314e-01</leafValues></_>
        <_>
          <internalNodes>
            0 -1 159 769432514 307553233 1870919713 233286291 -248179531
            212934864 1278548072 80155491</internalNodes>
          <leafValues>
            -2.4190109968185425e-01 1.4142785966396332e-01</leafValues></_>
        <_>
          <internalNodes>
            0 -1 409 1144496816 -1674009098 -41813711 1071939714
            1459241438 -1817338121 1779501115 810933890</internalNodes>
          <leafValues>
            -2.1068236231803894e-01 1.6260047256946564e-01</leafValues></_>
        <_>
          <internalNodes>
            0 -1 237 777782832 480025264 -900036648 357819424 1743533290
            693125360 -1640735078 -2062217693</internalNodes>
          <leafValues>
            -2.3738333582878113e-01 1.3837280869483948e-01</leafValues></_>
        <_>
          <internalNodes>
            0 -1 81 -1146045970 -2096299895 323736419 1600509393
            -74728710 -2043967326 -1214516474 2069470653</internalNodes>
          <leafValues>
            -2.0292858779430389e-01 1.6639852523803711e-01</leafValues></_>
        <_>
          <internalNodes>
            0 -1 62 -185486335 910102275 -2016283299 -988727215
            1078361412 431239947 -431745014 -100178273</internalNodes>
          <leafValues>
            -2.0339104533195496e-01 1.7092961072921753e-01</leafValues></_>
        <_>
          <internalNodes>
            0 -1 412 -126573472 -1618310211 -2029052850 1027095298
            1214629332 2080230699 -815075797 548491874</internalNodes>
          <leafValues>
            -2.3751503229141235e-01 1.4628042280673981e-01</leafValues></_>
        <_>
          <internalNodes>
            0 -1 164 -237140976 823158547 -526121618 -813006073
            -652263207 -1145655875 -289306534 1287487338</internalNodes>
          <leafValues>
            -1.8800231814384460e-01 1.8402415513992310e-01</leafValues></_>
        <_>
          <internalNodes>
            0 -1 471 -1947002632 -1367456524 -1060245268 -758178309
            -712349688 -1105307574 1384312729 1378415595</internalNodes>
          <leafValues>
            -2.7166038751602173e-01 1.2685036659240723e-01</leafValues></_>
        <_>
          <internalNodes>
            0 -1 223 -116544880 -1185628368 1872919300 -1414421888
            1357338540 1945575815 1503971400 -2052757998</internalNodes>
          <leafValues>
            -2.1258649230003357e-01 1.6538532078266144e-01</leafValues></_>
        <_>
          <internalNodes>
            0 -1 276 -28768140 -1700854646 843768439 -238301783
            -1718860799 1494560768 319031520 -671386886</internalNodes>
          <leafValues>
            -1.7960450053215027e-01 1.9396211206912994e-01</leafValues></_>
        <_>
          <internalNodes>
            0 -1 92 971507813 -625666840 1992118259 1567854581
            -1330696651 1857824896 -1418633883 -1147612971</internalNodes>
          <leafValues>
            -2.3662211000919342e-01 1.4238499104976654e-01</leafValues></_>
        <_>
          <internalNodes>
            0 -1 422 -1072831324 945615862 -1454461893 252620041
            1885685759 1760971491 1215383435 -2115549645</internalNodes>
          <leafValues>
            -1.8667477369308472e-01 1.8369922041893005e-01</leafValues></_>
        <_>
          <internalNodes>
            0 -1 232 676463632 1111097202 -69840346 -1180637297
            1977572420 1950024494 -84132496 -630655680</internalNodes>
          <leafValues>
            -3.1081643700599670e-01 1.0722091794013977e-01</leafValues></_></weakClassifiers></_>
    <!-- stage 7 -->
    <_>
      <maxWeakCount>41</maxWeakCount>
      <stageThreshold>-1.6818617582321167e+00</stageThreshold>
      <weakClassifiers>
        <_>
          <internalNodes>
            0 -1 13 -139994155 -210771025 -151823500 -12593177
            -1164097890 -740747886 -1986995397 2080076795</internalNodes>
          <leafValues>
            -6.6494756937026978e-01 -3.4481644630432129e-01</leafValues></_>
        <_>
          <internalNodes>
            0 -1 494 -1282147597 -1440247576 2105930675 1516197137
            -1212160070 -1904096832 588965847 -10530315</internalNodes>
          <leafValues>
            -2.5067079067230225e-01 1.6499403119087219e-01</leafValues></_>
        <_>
          <internalNodes>
            0 -1 384 -891159137 3190522 797751797 -2081315321 167060974
            76549117 1912065933 14104071</internalNodes>
          <leafValues>
            -2.6576331257820129e-01 1.3809187710285187e-01</leafValues></_>
        <_>
          <internalNodes>
            0 -1 133 -1146545430 -1591263104 -1157107357 1596965253
            -1245758642 265202626 -1223493902 -11823951</internalNodes>
          <leafValues>
            -1.7863796651363373e-01 2.1610441803932190e-01</leafValues></_>
        <_>
          <internalNodes>
            0 -1 207 1577751707 -107440693 -538165347 -1113052853
            -544764675 -119138119 1607977102 16324747</internalNodes>
          <leafValues>
            -2.1346083283424377e-01 1.6627149283885956e-01</leafValues></_>
        <_>
          <internalNodes>
            0 -1 486 -5153557 -1073806455 1351991498 -1059106322
            -786279862 -99739122 576245451 1522192127</internalNodes>
          <leafValues>
            -2.2711437940597534e-01 1.6586905717849731e-01</leafValues></_>
        <_>
          <internalNodes>
            0 -1 61 1898173136 -181302381 856803021 287441314 660636349
            1468368825 726599087 1987813067</internalNodes>
          <leafValues>
            -2.5999647378921509e-01 1.4538063108921051e-01</leafValues></_>
        <_>
          <internalNodes>
            0 -1 173 -835227873 -867328939 -56343243 -580321570
            -615146984 -1955972806 -1159640416 -268698930</internalNodes>
          <leafValues>
            -1.3301546871662140e-01 2.5171774625778198e-01</leafValues></_>
        <_>
          <internalNodes>
            0 -1 437 -1068572689 339391797 -403850129 627608254
            1511197943 -1233633673 -934965570 -2132298090</internalNodes>
          <leafValues>
            -1.6882054507732391e-01 1.9441027939319611e-01</leafValues></_>
        <_>
          <internalNodes>
            0 -1 9 -1369450529 1235567553 1539384651 1239889786
            -1292726018 -2040445055 -1510818429 1532453659</internalNodes>
          <leafValues>
            -2.0663969218730927e-01 1.6645975410938263e-01</leafValues></_>
        <_>
          <internalNodes>
            0 -1 507 152049916 -1895884587 -799414563 -218140419
            -1156560870 -346809326 1511573950 -82248546</internalNodes>
          <leafValues>
            -2.0703616738319397e-01 1.5401142835617065e-01</leafValues></_>
        <_>
          <internalNodes>
            0 -1 201 -655635250 -598624359 1223164272 218413470
            -429195134 -53128110 1281960616 -365490214</internalNodes>
          <leafValues>
            -1.6218946874141693e-01 1.9274941086769104e-01</leafValues></_>
        <_>
          <internalNodes>
            0 -1 457 -1632504341 -2119198016 -1151192638 1696585153
            -1456283653 -2037715904 -1215629497 -13643391</internalNodes>
          <leafValues>
            -1.6049616038799286e-01 1.9682632386684418e-01</leafValues></_>
        <_>
          <internalNodes>
            0 -1 3 -336201948 2139551151 490106654 -45291646 -618147140
            -121824031 -655283140 -1514724238</internalNodes>
          <leafValues>
            -1.6958862543106079e-01 1.8257015943527222e-01</leafValues></_>
        <_>
          <internalNodes>
            0 -1 386 677216947 533832563 1561409960 1034282888
            1899463445 1001274365 -2014510056 541408586</internalNodes>
          <leafValues>
            -2.3590716719627380e-01 1.3331213593482971e-01</leafValues></_>
        <_>
          <internalNodes>
            0 -1 26 -35829507 -67348235 1789885151 -756196169
            -1172829686 -1088732668 1788788631 -627524150</internalNodes>
          <leafValues>
            -1.7216299474239349e-01 1.8830901384353638e-01</leafValues></_>
        <_>
          <internalNodes>
            0 -1 50 -261884141 1919977451 -1342951561 -134481389
            750249349 -50858303 -857224004 -907182554</internalNodes>
          <leafValues>
            -1.4183269441127777e-01 2.2836144268512726e-01</leafValues></_>
        <_>
          <internalNodes>
            0 -1 478 664290007 -1062818653 -1448247297 -219381420
            826489509 -1360531406 -71911494 -1225879064</internalNodes>
          <leafValues>
            -1.8433167040348053e-01 1.6422244906425476e-01</leafValues></_>
        <_>
          <internalNodes>
            0 -1 130 -747172553 -1739821418 -1688734785 -1747652586
            -1258988176 -357678275 -1107981852 -688238468</internalNodes>
          <leafValues>
            -1.9228255748748779e-01 1.5919931232929230e-01</leafValues></_>
        <_>
          <internalNodes>
            0 -1 281 -626863997 824902283 1310216238 356625511
            -655335668 -789778526 -866730815 560431351</internalNodes>
          <leafValues>
            -2.5438606739044189e-01 1.2357117980718613e-01</leafValues></_>
        <_>
          <internalNodes>
            0 -1 217 -788211233 -687736781 -501037315 -1984946157
            -1721988648 -224687477 -850507077 -84555902</internalNodes>
          <leafValues>
            -1.0364948958158493e-01 3.2076379656791687e-01</leafValues></_>
        <_>
          <internalNodes>
            0 -1 112 -1130628613 -818952032 -206832734 1602207765
            -1087131457 -880024959 -1220480005 -216015415</internalNodes>
          <leafValues>
            -1.1085242778062820e-01 2.7636539936065674e-01</leafValues></_>
        <_>
          <internalNodes>
            0 -1 192 -554499741 -1528041334 -1019347998 -976366299
            -1673823526 -1899528303 -1284508889 -146817570</internalNodes>
          <leafValues>
            -1.5375792980194092e-01 2.0336346328258514e-01</leafValues></_>
        <_>
          <internalNodes>
            0 -1 23 56093315 2002124678 -1715947587 801083072 -536875789
            833646514 1845854605 217924899</internalNodes>
          <leafValues>
            -1.8172328174114227e-01 1.7258316278457642e-01</leafValues></_>
        <_>
          <internalNodes>
            0 -1 269 -124120064 479082648 47480448 4557984 622441568
            1207725093 2136285632 -2147208192</internalNodes>
          <leafValues>
            -2.9527753591537476e-01 1.0427799075841904e-01</leafValues></_>
        <_>
          <internalNodes>
            0 -1 465 -1479065370 -2069922610 -621940146 -521326482
            -1204791808 991889413 1110100558 1478155006</internalNodes>
          <leafValues>
            -2.9575186967849731e-01 1.0577563941478729e-01</leafValues></_>
        <_>
          <internalNodes>
            0 -1 231 1897924116 900856073 241831463 -343130310 42540716
            2012290346 -371192728 2016228362</internalNodes>
          <leafValues>
            -2.4210821092128754e-01 1.3137380778789520e-01</leafValues></_>
        <_>
          <internalNodes>
            0 -1 333 -220346538 419478533 751587992 429398306 -727040378
            2122692528 -664461736 809855522</internalNodes>
          <leafValues>
            -2.3019513487815857e-01 1.3234657049179077e-01</leafValues></_>
        <_>
          <internalNodes>
            0 -1 372 -1752792936 7176764 845466328 1349376308
            -1420916014 -2115955088 2050682811 -951369478</internalNodes>
          <leafValues>
            -1.5535888075828552e-01 1.9660820066928864e-01</leafValues></_>
        <_>
          <internalNodes>
            0 -1 59 -313007614 497075923 -1122955476 -105712863
            1146112944 1051817606 -28114359 543293199</internalNodes>
          <leafValues>
            -2.1178881824016571e-01 1.4474931359291077e-01</leafValues></_>
        <_>
          <internalNodes>
            0 -1 408 -895243589 -1864187652 195610845 467763392
            -1783286536 698926712 138938732 -1057000666</internalNodes>
          <leafValues>
            -1.5785178542137146e-01 1.9479727745056152e-01</leafValues></_>
        <_>
          <internalNodes>
            0 -1 57 620234869 -558073099 -1301907458 -1108818696
            1904094068 49845247 -213200064 -1164428528</internalNodes>
          <leafValues>
            -2.6601207256317139e-01 1.1634707450866699e-01</leafValues></_>
        <_>
          <internalNodes>
            0 -1 513 793772217 -1569384240 -25666458 1121939691
            505825802 -10616794 420541407 1376803127</internalNodes>
          <leafValues>
            -3.3590558171272278e-01 9.2495389282703400e-02</leafValues></_>
        <_>
          <internalNodes>
            0 -1 220 1513399808 439416712 1615407291 -1994331613
            1448698084 936391155 1831283432 648374582</internalNodes>
          <leafValues>
            -2.5585553050041199e-01 1.2143013626337051e-01</leafValues></_>
        <_>
          <internalNodes>
            0 -1 475 998821329 -288925492 -812497767 -896216648
            -1727306552 -1897162502 582120354 -562678563</internalNodes>
          <leafValues>
            -2.3186957836151123e-01 1.3156184554100037e-01</leafValues></_>
        <_>
          <internalNodes>
            0 -1 118 -694200146 -1654696722 1020293416 -1836098305
            -124069886 1547717198 1915532023 -620591704</internalNodes>
          <leafValues>
            -1.8608279526233673e-01 1.6509358584880829e-01</leafValues></_>
        <_>
          <internalNodes>
            0 -1 331 1086891302 349764757 130258847 1342036072
            2021556476 790330361 -857285861 950220522</internalNodes>
          <leafValues>
            -2.0292854309082031e-01 1.5750554203987122e-01</leafValues></_>
        <_>
          <internalNodes>
            0 -1 222 -891032201 1398068631 1296535334 -1377393450
            -437255519 -944432225 1672815052 1080521250</internalNodes>
          <leafValues>
            -1.9907608628273010e-01 1.6077554225921631e-01</leafValues></_>
        <_>
          <internalNodes>
            0 -1 203 -263854064 -1155484936 1466295649 1598523447
            1971290273 -1162831915 -72023160 -1326324273</internalNodes>
          <leafValues>
            -1.4537560939788818e-01 2.2107850015163422e-01</leafValues></_>
        <_>
          <internalNodes>
            0 -1 426 -397743264 2006849851 1036959404 791703472
            -555702352 -39325562 -376001633 682670858</internalNodes>
          <leafValues>
            -2.3793457448482513e-01 1.3195835053920746e-01</leafValues></_>
        <_>
          <internalNodes>
            0 -1 417 36700709 241991592 -810981289 150484588 717111812
            52754602 -1413082334 -1261952144</internalNodes>
          <leafValues>
            -3.6600062251091003e-01 8.5164926946163177e-02</leafValues></_></weakClassifiers></_>
    <!-- stage 8 -->
    <_>
      <maxWeakCount>44</maxWeakCount>
      <stageThreshold>-1.5299218893051147e+00</stageThreshold>
      <weakClassifiers>
        <_>
          <internalNodes>
            0 -1 77 -1145438469 -1483759384 -1852050445 1595380069
            -1146359046 -1887182144 -1282935109 -75788067</internalNodes>
          <leafValues>
            -5.9644323587417603e-01 -2.3791821300983429e-01</leafValues></_>
        <_>
          <internalNodes>
            0 -1 215 -767304999 318964527 167836634 -1413821534
            -421588481 870307319 -369109765 1065323775</internalNodes>
          <leafValues>
            -3.2041397690773010e-01 8.4323741495609283e-02</leafValues></_>
        <_>
          <internalNodes>
            0 -1 82 -706914072 -12630834 1622352077 -220261217
            -877995510 -1068625918 1082819583 414850487</internalNodes>
          <leafValues>
            -2.1584422886371613e-01 1.6035819053649902e-01</leafValues></_>
        <_>
          <internalNodes>
            0 -1 17 134693171 -1256125291 -1353495195 1434532641
            -645561859 -1256934407 1549797404 1363247304</internalNodes>
          <leafValues>
            -2.8214979171752930e-01 1.2244644016027451e-01</leafValues></_>
        <_>
          <internalNodes>
            0 -1 198 -5272699 -288410979 -20677252 -734047528 -537176491
            -1887305460 -1124444424 -70610481</internalNodes>
          <leafValues>
            -7.9531542956829071e-02 3.0549430847167969e-01</leafValues></_>
        <_>
          <internalNodes>
            0 -1 484 -538685187 -1543564837 1956245742 -757116676
            -636958134 -619754922 1118346959 -626329105</internalNodes>
          <leafValues>
            -1.7891579866409302e-01 1.7700459063053131e-01</leafValues></_>
        <_>
          <internalNodes>
            0 -1 11 -478482487 -842531760 -1034789111 1836128160
            -1837909298 -1241120797 -1054813478 937652755</internalNodes>
          <leafValues>
            -2.3246593773365021e-01 1.4180278778076172e-01</leafValues></_>
        <_>
          <internalNodes>
            0 -1 296 -651521856 -90039800 38917714 423915936 796708998
            -58125782 301996016 -1769579472</internalNodes>
          <leafValues>
            -1.8860524892807007e-01 1.7327323555946350e-01</leafValues></_>
        <_>
          <internalNodes>
            0 -1 458 -1650787608 -360191608 -242495038 1694007364
            -1984449542 246077512 918974530 1382010996</internalNodes>
          <leafValues>
            -3.3874443173408508e-01 9.4327270984649658e-02</leafValues></_>
        <_>
          <internalNodes>
            0 -1 149 1886893831 521161077 -880706465 -40849966
            1343553744 -78414541 2036562522 -198102222</internalNodes>
          <leafValues>
            -1.8299318850040436e-01 1.7833746969699860e-01</leafValues></_>
        <_>
          <internalNodes>
            0 -1 95 346634609 -139884367 -1275660301 2131090896
            -1156966605 -1523068172 -1279264837 -618953599</internalNodes>
          <leafValues>
            -1.6586524248123169e-01 1.9443869590759277e-01</leafValues></_>
        <_>
          <internalNodes>
            0 -1 440 -956306022 888467281 -1980768392 762640279
            1181444020 -52150339 -17313349 -1527288901</internalNodes>
          <leafValues>
            -1.6818292438983917e-01 1.8251322209835052e-01</leafValues></_>
        <_>
          <internalNodes>
            0 -1 101 -1256981784 -303594452 315920896 1136595973
            -1198736109 195721745 -1509826041 1469940781</internalNodes>
          <leafValues>
            -2.6057893037796021e-01 1.1343602836132050e-01</leafValues></_>
        <_>
          <internalNodes>
            0 -1 354 -1211388937 -324636829 172198786 -1496527528
            -38908143 1319188550 -1290960876 -25945388</internalNodes>
          <leafValues>
            -2.4646425247192383e-01 1.1820624768733978e-01</leafValues></_>
        <_>
          <internalNodes>
            0 -1 387 107915027 316917559 -748188516 493207794 679039155
            989803503 1239877898 -1192252829</internalNodes>
          <leafValues>
            -2.0120741426944733e-01 1.5068554878234863e-01</leafValues></_>
        <_>
          <internalNodes>
            0 -1 304 -1960755333 -1356927478 1467532511 1376140877
            -1837129824 31232918 -1991788347 -1823831494</internalNodes>
          <leafValues>
            -1.7277428507804871e-01 1.6326858103275299e-01</leafValues></_>
        <_>
          <internalNodes>
            0 -1 314 2103685157 -651619730 -790745598 -150536028
            -1068704532 -2009138544 -722027378 624379071</internalNodes>
          <leafValues>
            -2.2558353841304779e-01 1.3043098151683807e-01</leafValues></_>
        <_>
          <internalNodes>
            0 -1 115 -120588158 -774169447 845635595 -220345089
            -889267638 755909238 -834998346 -578102606</internalNodes>
          <leafValues>
            -1.8186450004577637e-01 1.6023972630500793e-01</leafValues></_>
        <_>
          <internalNodes>
            0 -1 273 1965098717 856760837 -270237151 -1659026377
            1849829117 -1196296437 -1571730721 -908131797</internalNodes>
          <leafValues>
            -1.1994595080614090e-01 2.4774639308452606e-01</leafValues></_>
        <_>
          <internalNodes>
            0 -1 116 -968836329 2102711807 -315678802 732244778
            -782632771 -1661653965 1288667272 276129362</internalNodes>
          <leafValues>
            -1.8035835027694702e-01 1.5990974009037018e-01</leafValues></_>
        <_>
          <internalNodes>
            0 -1 163 -598156968 1983332146 -1588720583 -1124063567
            -600374076 -1172303581 -1200441169 543630115</internalNodes>
          <leafValues>
            -1.8391847610473633e-01 1.5741901099681854e-01</leafValues></_>
        <_>
          <internalNodes>
            0 -1 439 710812160 15469874 802573296 246214168 -1152252091
            -2068950932 -1035467068 -2138013332</internalNodes>
          <leafValues>
            -3.8190022110939026e-01 7.0922367274761200e-02</leafValues></_>
        <_>
          <internalNodes>
            0 -1 80 -1105717013 -1031309120 -205671709 2036187457
            -1415893542 -1961954680 -1279528269 1594563029</internalNodes>
          <leafValues>
            -1.9789563119411469e-01 1.4526736736297607e-01</leafValues></_>
        <_>
          <internalNodes>
            0 -1 248 1877928532 -544201096 -1079122611 765699590
            1084650741 632600546 -1830742968 633697638</internalNodes>
          <leafValues>
            -2.1276801824569702e-01 1.3341964781284332e-01</leafValues></_>
        <_>
          <internalNodes>
            0 -1 66 633411445 1919747278 -1034986059 -660939527
            -509989072 641625853 -9142412 -1344711696</internalNodes>
          <leafValues>
            -2.1842817962169647e-01 1.2934432923793793e-01</leafValues></_>
        <_>
          <internalNodes>
            0 -1 414 1356262616 1981331858 -1750719234 166869511
            1515194257 -1199681739 -1394341169 -2107170270</internalNodes>
          <leafValues>
            -1.9299159944057465e-01 1.4311602711677551e-01</leafValues></_>
        <_>
          <internalNodes>
            0 -1 454 -1482289984 -1546759527 1616172134 -1595979402
            -650489854 17171026 496112334 1343883499</internalNodes>
          <leafValues>
            -3.0013379454612732e-01 9.1675199568271637e-02</leafValues></_>
        <_>
          <internalNodes>
            0 -1 139 1700066726 943239958 1959722565 -1514164430
            1745954181 -197420623 -1300812136 80561475</internalNodes>
          <leafValues>
            -2.0966906845569611e-01 1.3759191334247589e-01</leafValues></_>
        <_>
          <internalNodes>
            0 -1 94 -522016445 1855300415 -554046198 -1720948201
            1390351522 502084554 1525107593 -301485545</internalNodes>
          <leafValues>
            -1.6318678855895996e-01 1.7720456421375275e-01</leafValues></_>
        <_>
          <internalNodes>
            0 -1 432 35990321 216294315 777370077 -1669685844 510457073
            -54812220 601649968 -1560611708</internalNodes>
          <leafValues>
            -2.5215402245521545e-01 1.1693371087312698e-01</leafValues></_>
        <_>
          <internalNodes>
            0 -1 405 1623647392 404260490 -930034322 770026176 208018312
            865423037 1093880920 80079239</internalNodes>
          <leafValues>
            -2.3736073076725006e-01 1.2689921259880066e-01</leafValues></_>
        <_>
          <internalNodes>
            0 -1 398 -11094053 -1498420469 -51954952 2100860589
            -305554739 -2059804747 -221259084 -57295118</internalNodes>
          <leafValues>
            -1.5142215788364410e-01 1.9433277845382690e-01</leafValues></_>
        <_>
          <internalNodes>
            0 -1 225 -1178666084 -2134694822 207445912 -308648248
            1036695637 -1569691305 -1766590688 -59718140</internalNodes>
          <leafValues>
            -2.3646247386932373e-01 1.1872533708810806e-01</leafValues></_>
        <_>
          <internalNodes>
            0 -1 102 -706211672 -1159132936 -1024180026 586109659
            -1156005882 -783546367 852551441 1520094128</internalNodes>
          <leafValues>
            -2.8483590483665466e-01 1.0320164263248444e-01</leafValues></_>
        <_>
          <internalNodes>
            0 -1 350 -2142057383 437037782 -714720721 -373261213
            -191515962 -1795963034 -923386802 -1053330670</internalNodes>
          <leafValues>
            -1.6534990072250366e-01 1.7711724340915680e-01</leafValues></_>
        <_>
          <internalNodes>
            0 -1 324 11474212 -1966652574 1186421755 -1141346521
            -1281526764 -1882724189 -1486871351 -1098210536</internalNodes>
          <leafValues>
            -2.2624175250530243e-01 1.2689664959907532e-01</leafValues></_>
        <_>
          <internalNodes>
            0 -1 86 880275026 35577686 -863531120 -1112804573 1800520881
            -1143487065 1987102744 182789927</internalNodes>
          <leafValues>
            -2.1094755828380585e-01 1.3964533805847168e-01</leafValues></_>
        <_>
          <internalNodes>
            0 -1 410 -1208235893 -2104673572 -1796232500 -1024469387
            -566437293 -1233363445 -401349089 -84951329</internalNodes>
          <leafValues>
            -1.4828769862651825e-01 1.9367296993732452e-01</leafValues></_>
        <_>
          <internalNodes>
            0 -1 177 -43400993 -130489405 -1356206313 -540563650
            -304282481 -1094360189 -914510113 -1362186254</internalNodes>
          <leafValues>
            -9.8847441375255585e-02 2.9099112749099731e-01</leafValues></_>
        <_>
          <internalNodes>
            0 -1 10 2013651592 123776615 -248994528 1489073677
            -1878125254 1057256723 -339406030 1789607439</internalNodes>
          <leafValues>
            -2.8093907237052917e-01 1.0450938344001770e-01</leafValues></_>
        <_>
          <internalNodes>
            0 -1 449 -1079391237 -812699928 -1855774045 -953395851
            -1220560708 -1885386048 -1281756201 -14961169</internalNodes>
          <leafValues>
            -1.2156268954277039e-01 2.4467062950134277e-01</leafValues></_>
        <_>
          <internalNodes>
            0 -1 346 -551829296 -240581428 1445598078 1509389429
            -1422341174 1161284677 923319291 -1149060421</internalNodes>
          <leafValues>
            -1.0262135416269302e-01 2.9275003075599670e-01</leafValues></_>
        <_>
          <internalNodes>
            0 -1 400 1650452293 1984185751 -1385949516 1368416153
            1989755829 -256222618 947837017 -1070552342</internalNodes>
          <leafValues>
            -1.8513841927051544e-01 1.6503228247165680e-01</leafValues></_>
        <_>
          <internalNodes>
            0 -1 355 1287707212 908524791 -1358981836 -1725793664
            1587760678 -1292078720 -1446769573 -743851622</internalNodes>
          <leafValues>
            -1.5894970297813416e-01 1.8268764019012451e-01</leafValues></_></weakClassifiers></_>
    <!-- stage 9 -->
    <_>
      <maxWeakCount>48</maxWeakCount>
      <stageThreshold>-1.6288732290267944e+00</stageThreshold>
      <weakClassifiers>
        <_>
          <internalNodes>
            0 -1 0 -570601238 -327509 1346576551 -788590243 1898469898
            1057622026 36869847 1117453307</internalNodes>
          <leafValues>
            -6.6663366556167603e-01 -3.7873443961143494e-01</leafValues></_>
        <_>
          <internalNodes>
            0 -1 473 -1291267336 -2094415864 -765751037 1112117509
            -1148603750 126322906 839104371 1442922929</internalNodes>
          <leafValues>
            -3.5939374566078186e-01 4.3494839221239090e-02</leafValues></_>
        <_>
          <internalNodes>
            0 -1 120 -260133743 -1314810470 177677849 -577302221
            -1073167620 13332 -2003597121 1158348963</internalNodes>
          <leafValues>
            -2.7719798684120178e-01 1.1275543272495270e-01</leafValues></_>
        <_>
          <internalNodes>
            0 -1 129 1368445651 1370325514 1524109751 823855938
            -2090303010 864669181 8996830 1370457822</internalNodes>
          <leafValues>
            -2.0643007755279541e-01 1.5704175829887390e-01</leafValues></_>
        <_>
          <internalNodes>
            0 -1 356 1368250119 1894847249 -1986216378 857816365
            1277232772 810837296 -993789568 521517219</internalNodes>
          <leafValues>
            -2.0957039296627045e-01 1.4880035817623138e-01</leafValues></_>
        <_>
          <internalNodes>
            0 -1 187 226988383 -858855219 -1540870859 -633540692
            -1141711009 -1898989058 -807751784 -340006229</internalNodes>
          <leafValues>
            -1.1757098883390427e-01 2.6038792729377747e-01</leafValues></_>
        <_>
          <internalNodes>
            0 -1 509 -672114183 -471900929 -791154489 -234922497
            -46606326 -213690291 1518530303 -608506165</internalNodes>
          <leafValues>
            -1.1619938910007477e-01 2.4515287578105927e-01</leafValues></_>
        <_>
          <internalNodes>
            0 -1 111 -1129287525 193929416 -1284248959 1600115701
            -1196739989 -1597070968 -1284312094 -648309291</internalNodes>
          <leafValues>
            -1.8370635807514191e-01 1.5655334293842316e-01</leafValues></_>
        <_>
          <internalNodes>
            0 -1 359 -1060722256 467183107 -1421162225 228037390 6272764
            954788284 1136737292 81070695</internalNodes>
          <leafValues>
            -2.0461520552635193e-01 1.3228894770145416e-01</leafValues></_>
        <_>
          <internalNodes>
            0 -1 209 -995967090 -1627279990 -1986293973 -304168022
            -1158952739 1572319667 -318797364 23459554</internalNodes>
          <leafValues>
            -1.8084070086479187e-01 1.5136986970901489e-01</leafValues></_>
        <_>
          <internalNodes>
            0 -1 499 667957471 1315861370 -1745955369 -1531024409
            -1084043805 -1749351962 -1163340041 -1091565402</internalNodes>
          <leafValues>
            -1.9999621808528900e-01 1.3392193615436554e-01</leafValues></_>
        <_>
          <internalNodes>
            0 -1 257 -402702749 -913795989 -1858612800 2141188067
            -172297726 -1928823158 -268701565 -3410209</internalNodes>
          <leafValues>
            -1.2709586322307587e-01 2.1053719520568848e-01</leafValues></_>
        <_>
          <internalNodes>
            0 -1 487 330353663 -148137815 2080372675 1499140197
            -1288766789 392163233 -1222904841 -8419879</internalNodes>
          <leafValues>
            -1.1885510385036469e-01 2.3111329972743988e-01</leafValues></_>
        <_>
          <internalNodes>
            0 -1 285 -4606157 -295502974 -1587563802 -2130904692
            -360774877 -1153606363 -1416442052 -290689068</internalNodes>
          <leafValues>
            -2.0021976530551910e-01 1.4149010181427002e-01</leafValues></_>
        <_>
          <internalNodes>
            0 -1 366 1503956144 970242958 1763974556 891062818
            1358171284 855909276 2093222923 4272130</internalNodes>
          <leafValues>
            -2.4113376438617706e-01 1.1284364014863968e-01</leafValues></_>
        <_>
          <internalNodes>
            0 -1 358 -1718958965 -1555561272 1350251062 2079292837
            -1841496358 -1947592114 -1754084929 -1155835921</internalNodes>
          <leafValues>
            -1.1117053776979446e-01 2.5002825260162354e-01</leafValues></_>
        <_>
          <internalNodes>
            0 -1 303 -1682220909 -647274336 1390894197 1497002960
            -1117020008 47167808 503108724 -702916216</internalNodes>
          <leafValues>
            -1.7138248682022095e-01 1.5072913467884064e-01</leafValues></_>
        <_>
          <internalNodes>
            0 -1 464 -473556800 -1337238426 1349841612 -533253207
            -552535479 -1168169364 -953486419 1463328499</internalNodes>
          <leafValues>
            -2.0843619108200073e-01 1.2806098163127899e-01</leafValues></_>
        <_>
          <internalNodes>
            0 -1 145 1701443586 817032434 -946841845 758326277
            1685127556 1975005554 2057506059 552326706</internalNodes>
          <leafValues>
            -2.1155673265457153e-01 1.2503775954246521e-01</leafValues></_>
        <_>
          <internalNodes>
            0 -1 181 1349355012 403420010 -1085862609 -1531432704
            1039467664 1982673024 15720062 553460594</internalNodes>
          <leafValues>
            -2.4490213394165039e-01 1.0991303622722626e-01</leafValues></_>
        <_>
          <internalNodes>
            0 -1 293 776266080 -636475624 1875824604 1034172970
            548325768 2025709838 -336720888 882180</internalNodes>
          <leafValues>
            -2.6654785871505737e-01 1.0130660980939865e-01</leafValues></_>
        <_>
          <internalNodes>
            0 -1 160 -2041616845 -2007996504 -857761451 -907751692
            1358181685 -1436985815 443500113 -427793852</internalNodes>
          <leafValues>
            -2.7217003703117371e-01 9.6650719642639160e-02</leafValues></_>
        <_>
          <internalNodes>
            0 -1 433 -2121332605 -1566679842 -426954014 -1062250835
            1024622600 -368293309 -757925207 -633619537</internalNodes>
          <leafValues>
            -1.8773625791072845e-01 1.4401593804359436e-01</leafValues></_>
        <_>
          <internalNodes>
            0 -1 435 -1287916982 -1903788024 -1573158398 1109819905
            -1995647777 -1744175104 -1305364638 1516913796</internalNodes>
          <leafValues>
            -2.5778207182884216e-01 1.0160691291093826e-01</leafValues></_>
        <_>
          <internalNodes>
            0 -1 389 -878801207 4080192 3313840 273578013 -1402965358
            103813268 -224334118 -1674602410</internalNodes>
          <leafValues>
            -1.6060478985309601e-01 1.6613811254501343e-01</leafValues></_>
        <_>
          <internalNodes>
            0 -1 79 993049193 -1985642264 -405089343 1040147617
            -1514415528 -818975159 655467347 1931579829</internalNodes>
          <leafValues>
            -2.3686744272708893e-01 1.1245632171630859e-01</leafValues></_>
        <_>
          <internalNodes>
            0 -1 442 1757196086 947170037 -545094721 -1476601136
            1560647154 -1532812804 -861442944 16642987</internalNodes>
          <leafValues>
            -2.0293103158473969e-01 1.3315485417842865e-01</leafValues></_>
        <_>
          <internalNodes>
            0 -1 378 575880707 150974912 -1903173949 -387449295
            -711733241 -378130353 236685942 -208733450</internalNodes>
          <leafValues>
            -2.1405068039894104e-01 1.2675903737545013e-01</leafValues></_>
        <_>
          <internalNodes>
            0 -1 335 -6579989 -15902392 1882513904 -738226979
            -1320242278 -1382654708 -1363486769 -618986529</internalNodes>
          <leafValues>
            -7.7426791191101074e-02 3.4976151585578918e-01</leafValues></_>
        <_>
          <internalNodes>
            0 -1 107 -116215557 -1471804042 -1278581760 -2112334985
            902628495 2000376560 1854751851 1976502603</internalNodes>
          <leafValues>
            -2.5406169891357422e-01 1.1209058761596680e-01</leafValues></_>
        <_>
          <internalNodes>
            0 -1 178 -78258977 -79955717 -1322006535 -1247214212
            -315177745 -114227978 -387466002 -17838148</internalNodes>
          <leafValues>
            -8.1744857132434845e-02 3.6905035376548767e-01</leafValues></_>
        <_>
          <internalNodes>
            0 -1 85 -785024769 -607171168 -219392257 -219196953
            -1196236862 -339023786 1394277051 -627378253</internalNodes>
          <leafValues>
            -1.1418680101633072e-01 2.4385505914688110e-01</leafValues></_>
        <_>
          <internalNodes>
            0 -1 37 1172092816 2097477234 -1114788084 -1116762137
            342168496 1220097520 2057662696 1685410626</internalNodes>
          <leafValues>
            -2.0659753680229187e-01 1.3837140798568726e-01</leafValues></_>
        <_>
          <internalNodes>
            0 -1 396 1819575364 988967718 1994829172 -1109284288
            1242026659 60903995 -990930497 672753256</internalNodes>
          <leafValues>
            -2.1269151568412781e-01 1.2967367470264435e-01</leafValues></_>
        <_>
          <internalNodes>
            0 -1 244 -1649400747 -203612298 -925267203 -814968865
            -484763577 -215851203 3014853 -1675295766</internalNodes>
          <leafValues>
            -1.6780509054660797e-01 1.6366866230964661e-01</leafValues></_>
        <_>
          <internalNodes>
            0 -1 211 -260637309 -546961578 -1182640943 -1142360874
            -726072541 -1008174489 1867303713 -477873148</internalNodes>
          <leafValues>
            -1.9577835500240326e-01 1.3850949704647064e-01</leafValues></_>
        <_>
          <internalNodes>
            0 -1 444 -573443845 -1678410017 2062140667 -88080533
            -203259121 -313748211 249601007 -1156844289</internalNodes>
          <leafValues>
            -1.1146603524684906e-01 2.4791082739830017e-01</leafValues></_>
        <_>
          <internalNodes>
            0 -1 126 -2141180667 -626986116 -674431521 -877528998
            -392528624 -1297192967 808147965 -1392562896</internalNodes>
          <leafValues>
            -2.2009840607643127e-01 1.2347627431154251e-01</leafValues></_>
        <_>
          <internalNodes>
            0 -1 461 -1901951941 649605136 39417247 -1971784987
            -240648206 1260405031 -1198922448 -1971410780</internalNodes>
          <leafValues>
            -2.4893942475318909e-01 1.1214751750230789e-01</leafValues></_>
        <_>
          <internalNodes>
            0 -1 362 1402305794 -50167809 787259053 492987970
            -1084715591 -1170694874 -85123554 978674527</internalNodes>
          <leafValues>
            -1.4941865205764771e-01 1.7993225157260895e-01</leafValues></_>
        <_>
          <internalNodes>
            0 -1 306 -171814718 -826064024 304965984 -750972812
            -1489883008 187389519 859488658 -1790310723</internalNodes>
          <leafValues>
            -1.5948440134525299e-01 1.7158308625221252e-01</leafValues></_>
        <_>
          <internalNodes>
            0 -1 278 1803265583 353999282 -360009824 -440767706 73688548
            2143097160 257890606 -338208153</internalNodes>
          <leafValues>
            -1.6980837285518646e-01 1.6439954936504364e-01</leafValues></_>
        <_>
          <internalNodes>
            0 -1 71 959986553 -1984051046 -998514273 523760624
            -1210185966 -1576308870 -1539725417 -14756443</internalNodes>
          <leafValues>
            -1.8398705124855042e-01 1.4462095499038696e-01</leafValues></_>
        <_>
          <internalNodes>
            0 -1 65 -974157024 613446555 -190872882 -1343216342
            1633777632 905931885 -705861846 301216603</internalNodes>
          <leafValues>
            -2.2983160614967346e-01 1.2086070328950882e-01</leafValues></_>
        <_>
          <internalNodes>
            0 -1 113 -1785077779 -426933815 289267008 1733275877
            -1707361542 -922113510 -1215331629 1864339805</internalNodes>
          <leafValues>
            -1.6496886312961578e-01 1.6753661632537842e-01</leafValues></_>
        <_>
          <internalNodes>
            0 -1 89 1960193028 256399492 -1108570204 418679303
            2084921037 483481301 -305451832 1479896859</internalNodes>
          <leafValues>
            -2.4071677029132843e-01 1.1561150848865509e-01</leafValues></_>
        <_>
          <internalNodes>
            0 -1 6 -1593915899 2110906366 1337642246 623999976
            -585857551 944727482 412075321 1328922983</internalNodes>
          <leafValues>
            -1.8500493466854095e-01 1.5736019611358643e-01</leafValues></_>
        <_>
          <internalNodes>
            0 -1 399 -128458616 -889457350 -759468940 853535739
            -521008185 1079077180 611901360 -797067281</internalNodes>
          <leafValues>
            -2.3104506731033325e-01 1.2134755402803421e-01</leafValues></_></weakClassifiers></_>
    <!-- stage 10 -->
    <_>
      <maxWeakCount>50</maxWeakCount>
      <stageThreshold>-1.6096955537796021e+00</stageThreshold>
      <weakClassifiers>
        <_>
          <internalNodes>
            0 -1 28 -2139909 -69789442 -794570561 -738250563 -76883302
            -754447830 1402663679 -610616833</internalNodes>
          <leafValues>
            -5.7048517465591431e-01 -2.1576850116252899e-01</leafValues></_>
        <_>
          <internalNodes>
            0 -1 495 -1281820423 247038152 1397281779 1384090101
            -1081546000 -2046213695 857990131 -8547887</internalNodes>
          <leafValues>
            -2.3228220641613007e-01 1.1358695477247238e-01</leafValues></_>
        <_>
          <internalNodes>
            0 -1 16 -169099779 -144734304 -630528587 -1121987567
            2045684638 -1580985851 -1071973125 1944392563</internalNodes>
          <leafValues>
            -2.5716274976730347e-01 1.1604000627994537e-01</leafValues></_>
        <_>
          <internalNodes>
            0 -1 242 101142128 -957416617 -1978655139 -301665281
            -1553993900 -117672136 -284623088 -4271172</internalNodes>
          <leafValues>
            -1.7180462181568146e-01 1.7956788837909698e-01</leafValues></_>
        <_>
          <internalNodes>
            0 -1 514 -707178254 -1349036838 545092290 -788709122
            -660979698 -1035065782 269124175 1376403179</internalNodes>
          <leafValues>
            -2.0006234943866730e-01 1.7280413210391998e-01</leafValues></_>
        <_>
          <internalNodes>
            0 -1 270 2863539 288364341 -745591283 233276807 -2038101250
            -1075105097 586549838 145007612</internalNodes>
          <leafValues>
            -2.0596906542778015e-01 1.3187947869300842e-01</leafValues></_>
        <_>
          <internalNodes>
            0 -1 385 1668543383 1039526900 -8720657 -531810 -109742150
            -1275748425 -844653109 2011649423</internalNodes>
          <leafValues>
            -1.2065861374139786e-01 2.1427689492702484e-01</leafValues></_>
        <_>
          <internalNodes>
            0 -1 153 -603981569 -172010025 -903388465 -788586033
            -13723634 -1620387249 1116399547 -71581957</internalNodes>
          <leafValues>
            -8.7053559720516205e-02 3.1481859087944031e-01</leafValues></_>
        <_>
          <internalNodes>
            0 -1 504 -4957967 -558143235 1944892157 -572568337
            -1254558978 -64322354 1947794891 -606420305</internalNodes>
          <leafValues>
            -8.8028773665428162e-02 2.9984810948371887e-01</leafValues></_>
        <_>
          <internalNodes>
            0 -1 235 -616380181 -1618622973 -1063773996 -1511806845
            -985252129 -1314834906 -1728786753 142591147</internalNodes>
          <leafValues>
            -2.5275385379791260e-01 1.0416182875633240e-01</leafValues></_>
        <_>
          <internalNodes>
            0 -1 347 -100740390 -607170168 845247217 -748692227
            -1430326549 -1966501566 -2094345025 -73682021</internalNodes>
          <leafValues>
            -6.9404937326908112e-02 3.9912971854209900e-01</leafValues></_>
        <_>
          <internalNodes>
            0 -1 489 -1684408087 1336396224 -1325080190 1109378069
            -1154356550 -1985290871 -1305824269 1981219293</internalNodes>
          <leafValues>
            -2.0591796934604645e-01 1.2883223593235016e-01</leafValues></_>
        <_>
          <internalNodes>
            0 -1 261 2092286892 330381028 1843142031 -2088228505
            2057916392 469520310 -935065522 755321418</internalNodes>
          <leafValues>
            -1.8854834139347076e-01 1.4244502782821655e-01</leafValues></_>
        <_>
          <internalNodes>
            0 -1 122 1086781147 396096182 -1386837103 756528594
            1911717541 -375663369 1907445065 -807933105</internalNodes>
          <leafValues>
            -1.3162527978420258e-01 2.0043912529945374e-01</leafValues></_>
        <_>
          <internalNodes>
            0 -1 229 963348722 2040141534 251927901 -1347353622
            1123029740 2024156153 413598922 1101346832</internalNodes>
          <leafValues>
            -2.1706999838352203e-01 1.1822428554296494e-01</leafValues></_>
        <_>
          <internalNodes>
            0 -1 81 856381672 184877192 306565954 189106305 -1148485774
            -1893119615 914618195 320458977</internalNodes>
          <leafValues>
            -3.1399729847908020e-01 8.0841004848480225e-02</leafValues></_>
        <_>
          <internalNodes>
            0 -1 443 -1320693581 -220771220 1883200225 -788842874
            -174403578 -972037618 1983575771 -627336449</internalNodes>
          <leafValues>
            -1.1990692466497421e-01 2.1644370257854462e-01</leafValues></_>
        <_>
          <internalNodes>
            0 -1 240 -1032905685 -276519957 -349871293 -942730778
            -797022607 -2142790094 -470047981 -210767773</internalNodes>
          <leafValues>
            -1.5946818888187408e-01 1.6405327618122101e-01</leafValues></_>
        <_>
          <internalNodes>
            0 -1 420 -856824910 11839461 1826405816 -1913326516
            1148693157 385182833 -922842095 12974090</internalNodes>
          <leafValues>
            -2.3564125597476959e-01 1.1066660284996033e-01</leafValues></_>
        <_>
          <internalNodes>
            0 -1 127 -395838379 1516105508 -373394004 -1614973134
            83890597 519584179 1819346044 -88639629</internalNodes>
          <leafValues>
            -1.5082621574401855e-01 1.7157375812530518e-01</leafValues></_>
        <_>
          <internalNodes>
            0 -1 162 -781715973 -645559249 -1140935299 -30115850
            -1324326 -70262855 -67379235 -116681126</internalNodes>
          <leafValues>
            -6.8901233375072479e-02 3.7588489055633545e-01</leafValues></_>
        <_>
          <internalNodes>
            0 -1 468 -1333159736 128551432 -1834490974 1443430421
            -1149205536 -2138208056 594604147 2048546244</internalNodes>
          <leafValues>
            -2.5272655487060547e-01 1.0483453422784805e-01</leafValues></_>
        <_>
          <internalNodes>
            0 -1 395 -935286014 305302450 -1413207506 222809763
            -1938831642 -1461204829 -2140864129 -1881316397</internalNodes>
          <leafValues>
            -1.6608731448650360e-01 1.5207250416278839e-01</leafValues></_>
        <_>
          <internalNodes>
            0 -1 430 1658406252 940745264 1526878668 -1459574142
            -870576656 -1183953470 -287757712 742912578</internalNodes>
          <leafValues>
            -2.0886904001235962e-01 1.2079271674156189e-01</leafValues></_>
        <_>
          <internalNodes>
            0 -1 332 -421086959 341834570 1292178447 -1644453617
            -1432957011 702507225 -526560884 1487910703</internalNodes>
          <leafValues>
            -1.5011852979660034e-01 1.7005544900894165e-01</leafValues></_>
        <_>
          <internalNodes>
            0 -1 319 -141506360 -540586776 -1695951801 -205559555
            -1104226678 -1374919356 -770526725 -606121831</internalNodes>
          <leafValues>
            -8.7538823485374451e-02 2.8789895772933960e-01</leafValues></_>
        <_>
          <internalNodes>
            0 -1 106 -305821910 -797692104 404041615 1092267335 23572785
            665069314 -452913936 741552970</internalNodes>
          <leafValues>
            -2.7001428604125977e-01 9.3733616173267365e-02</leafValues></_>
        <_>
          <internalNodes>
            0 -1 230 1373607735 -1175860062 393474305 1595853623
            -675036573 -282795748 1668268777 -71354597</internalNodes>
          <leafValues>
            -1.0780477523803711e-01 2.3373074829578400e-01</leafValues></_>
        <_>
          <internalNodes>
            0 -1 32 1564861237 -1126978129 -1917256257 -34014405
            686005985 -6862865 -831574952 2020625942</internalNodes>
          <leafValues>
            -1.6564904153347015e-01 1.5436528623104095e-01</leafValues></_>
        <_>
          <internalNodes>
            0 -1 392 1553121810 1345511572 1981992616 -1342913894
            1090412468 1253197735 -286856437 44429922</internalNodes>
          <leafValues>
            -2.0269370079040527e-01 1.2388150393962860e-01</leafValues></_>
        <_>
          <internalNodes>
            0 -1 99 -1281762208 571017312 596719601 354636141
            -1197737752 151980704 -1224019821 458954225</internalNodes>
          <leafValues>
            -2.0991641283035278e-01 1.2340235710144043e-01</leafValues></_>
        <_>
          <internalNodes>
            0 -1 132 -705239179 -13553775 -1376863345 871348026
            1905479158 1946111973 -415405569 -67435902</internalNodes>
          <leafValues>
            -1.1332797259092331e-01 2.3072101175785065e-01</leafValues></_>
        <_>
          <internalNodes>
            0 -1 316 1198994299 -1255603482 -272880051 1273385449
            855645417 2147368067 -1551885634 -725632465</internalNodes>
          <leafValues>
            -1.1852346360683441e-01 2.1935236454010010e-01</leafValues></_>
        <_>
          <internalNodes>
            0 -1 194 -847310908 -1651472134 -1907774367 535477889
            -1447813955 -336723221 1827139260 31549190</internalNodes>
          <leafValues>
            -1.9610561430454254e-01 1.2982289493083954e-01</leafValues></_>
        <_>
          <internalNodes>
            0 -1 383 -129348404 -833876896 71368448 304694268 1814325508
            716071740 1413513884 -2013110050</internalNodes>
          <leafValues>
            -1.9176228344440460e-01 1.3348208367824554e-01</leafValues></_>
        <_>
          <internalNodes>
            0 -1 480 -1929768909 -1429723073 -909818535 -1426711960
            -135260016 -961789377 1553918703 -610235172</internalNodes>
          <leafValues>
            -2.1659144759178162e-01 1.2094672769308090e-01</leafValues></_>
        <_>
          <internalNodes>
            0 -1 84 -177399640 -289322855 273764590 -490777377
            2118154314 189668370 279460612 1353354740</internalNodes>
          <leafValues>
            -2.8542134165763855e-01 9.1239959001541138e-02</leafValues></_>
        <_>
          <internalNodes>
            0 -1 275 -1578100273 1182568029 1393016283 1158583509
            2112648258 -959581407 1185619793 1125667636</internalNodes>
          <leafValues>
            -2.4241508543491364e-01 1.0617795586585999e-01</leafValues></_>
        <_>
          <internalNodes>
            0 -1 391 -1071517776 -202201421 -1216511977 1040039851
            267751313 1609428991 -318849990 931639874</internalNodes>
          <leafValues>
            -1.3870975375175476e-01 1.8956929445266724e-01</leafValues></_>
        <_>
          <internalNodes>
            0 -1 221 -536886325 -67939682 -1042306424 -889250125
            -1073838521 583891522 184261581 -744505099</internalNodes>
          <leafValues>
            -1.2077309936285019e-01 2.0906451344490051e-01</leafValues></_>
        <_>
          <internalNodes>
            0 -1 413 1288276552 2052623890 -455798804 182612133
            1325161824 -189715853 -389430745 711864710</internalNodes>
          <leafValues>
            -2.6175540685653687e-01 9.5363117754459381e-02</leafValues></_>
        <_>
          <internalNodes>
            0 -1 348 -610088742 -1111832 -1023430025 -741386855
            -67437398 -2129848454 178451451 -620035841</internalNodes>
          <leafValues>
            -8.0151304602622986e-02 3.2050675153732300e-01</leafValues></_>
        <_>
          <internalNodes>
            0 -1 271 1881179185 320764994 1971396399 932653359
            1339392511 485228287 309708027 775546387</internalNodes>
          <leafValues>
            -1.7587642371654510e-01 1.4389066398143768e-01</leafValues></_>
        <_>
          <internalNodes>
            0 -1 274 -1585047518 -1903647360 -850581644 -1597225256
            441459477 816602004 656110064 -2145115708</internalNodes>
          <leafValues>
            -3.2892021536827087e-01 7.5184158980846405e-02</leafValues></_>
        <_>
          <internalNodes>
            0 -1 121 1749913917 -1663118667 1405433076 -585717265
            1834115127 1436068017 1982149585 -1118798320</internalNodes>
          <leafValues>
            -2.0071965456008911e-01 1.2478046864271164e-01</leafValues></_>
        <_>
          <internalNodes>
            0 -1 204 -925957773 1691041786 -113546858 764285996
            417994935 1407650843 -500154892 -977964206</internalNodes>
          <leafValues>
            -1.8138991296291351e-01 1.3878671824932098e-01</leafValues></_>
        <_>
          <internalNodes>
            0 -1 334 -113583936 -265414576 -129190703 1610603469
            -1422068602 -909228518 -1184851985 -73409029</internalNodes>
          <leafValues>
            -8.1186234951019287e-02 3.1461206078529358e-01</leafValues></_>
        <_>
          <internalNodes>
            0 -1 510 569643232 -1531694606 -2138304401 -2000738066
            792205384 -249949616 1526778539 268973029</internalNodes>
          <leafValues>
            -3.5710543394088745e-01 7.4016578495502472e-02</leafValues></_>
        <_>
          <internalNodes>
            0 -1 254 -123482171 2076552174 741535719 -1617250322
            -961552009 984088026 -1881271586 -1653095119</internalNodes>
          <leafValues>
            -1.2894628942012787e-01 2.0184880495071411e-01</leafValues></_>
        <_>
          <internalNodes>
            0 -1 321 1079347999 915539225 -437776605 1066401316
            419629488 956433200 1640200988 1089956071</internalNodes>
          <leafValues>
            -1.9205671548843384e-01 1.3709419965744019e-01</leafValues></_></weakClassifiers></_>
    <!-- stage 11 -->
    <_>
      <maxWeakCount>54</maxWeakCount>
      <stageThreshold>-1.6235508918762207e+00</stageThreshold>
      <weakClassifiers>
        <_>
          <internalNodes>
            0 -1 76 -1148125221 -1526398584 -1820985901 2002081057
            -1095107845 -2071227510 -1279526913 -10497571</internalNodes>
          <leafValues>
            -5.8495771884918213e-01 -2.7644121646881104e-01</leafValues></_>
        <_>
          <internalNodes>
            0 -1 22 -181516104 -1707912585 415679165 1928548445
            -1221672438 -49745081 840494847 523960306</internalNodes>
          <leafValues>
            -2.5345820188522339e-01 9.3152575194835663e-02</leafValues></_>
        <_>
          <internalNodes>
            0 -1 33 1877991375 -140390281 -528829099 -170400935
            -1080042021 331956639 -1143286273 -205930002</internalNodes>
          <leafValues>
            -1.2074787169694901e-01 2.2889618575572968e-01</leafValues></_>
        <_>
          <internalNodes>
            0 -1 136 -595331090 -730823406 -259153112 -504219389
            -2129669701 -1988950395 -750681957 993726379</internalNodes>
          <leafValues>
            -2.1986402571201324e-01 1.2801295518875122e-01</leafValues></_>
        <_>
          <internalNodes>
            0 -1 167 -1329899254 -1425682424 269853504 1192218912
            -1171763598 176941634 906752002 2114687061</internalNodes>
          <leafValues>
            -2.3107349872589111e-01 1.4955002069473267e-01</leafValues></_>
        <_>
          <internalNodes>
            0 -1 312 -169745009 -107751759 283462465 428541032
            -728961500 -768577297 -220234865 265266447</internalNodes>
          <leafValues>
            -2.1389888226985931e-01 1.2427021563053131e-01</leafValues></_>
        <_>
          <internalNodes>
            0 -1 490 -1115554952 -1409197856 36167986 1859077393
            -1247024784 37743264 -1221478541 990467509</internalNodes>
          <leafValues>
            -2.5999116897583008e-01 1.0274274647235870e-01</leafValues></_>
        <_>
          <internalNodes>
            0 -1 188 -183772705 -575762722 -546906817 -543238278
            -1684304997 -75573283 -1436568658 -628435278</internalNodes>
          <leafValues>
            -7.4943467974662781e-02 3.4238851070404053e-01</leafValues></_>
        <_>
          <internalNodes>
            0 -1 53 -214706092 -180375728 -112454482 -703363813 -342531
            2059244658 -1882013234 2047973599</internalNodes>
          <leafValues>
            -1.8115547299385071e-01 1.4914327859878540e-01</leafValues></_>
        <_>
          <internalNodes>
            0 -1 472 -271757073 -1142089477 -1292017946 -1025543009
            -1106114550 -1119217590 143318591 1379589855</internalNodes>
          <leafValues>
            -1.9893501698970795e-01 1.2955704331398010e-01</leafValues></_>
        <_>
          <internalNodes>
            0 -1 340 -169693030 -53467597 74990894 1333801484 500800188
            -1330495010 -620949682 540282370</internalNodes>
          <leafValues>
            -2.3220135271549225e-01 1.0343410074710846e-01</leafValues></_>
        <_>
          <internalNodes>
            0 -1 481 -1657007888 -1464401718 1399676667 -203469390
            -215430462 -82874344 1478033391 -611654945</internalNodes>
          <leafValues>
            -1.3517120480537415e-01 1.7327184975147247e-01</leafValues></_>
        <_>
          <internalNodes>
            0 -1 419 -833436796 -1231778553 -1680127094 762613522
            1398392229 2067373461 -355656273 137560631</internalNodes>
          <leafValues>
            -1.8376432359218597e-01 1.2972381711006165e-01</leafValues></_>
        <_>
          <internalNodes>
            0 -1 73 -1816531335 1971687464 1494692755 1953449457
            -1163167998 -1948254493 -1216683133 -14688779</internalNodes>
          <leafValues>
            -1.3957400619983673e-01 1.6848801076412201e-01</leafValues></_>
        <_>
          <internalNodes>
            0 -1 344 -82380583 -538767735 1455323863 1398504861
            -1252597554 -1412809371 915968763 -743767813</internalNodes>
          <leafValues>
            -7.4754878878593445e-02 3.0690270662307739e-01</leafValues></_>
        <_>
          <internalNodes>
            0 -1 158 622702512 433896609 -858428019 -1886523507
            1347506420 1019935412 1008020872 259351298</internalNodes>
          <leafValues>
            -1.8108339607715607e-01 1.2606151401996613e-01</leafValues></_>
        <_>
          <internalNodes>
            0 -1 299 -785671197 -359814934 866448910 -496102020
            1585084423 148780829 -704775312 -323216240</internalNodes>
          <leafValues>
            -2.1064445376396179e-01 1.1024925112724304e-01</leafValues></_>
        <_>
          <internalNodes>
            0 -1 311 669135107 -1431346842 -3263990 1784078919
            -141688732 381001346 -1278241790 -91553733</internalNodes>
          <leafValues>
            -2.1040055155754089e-01 1.0905699431896210e-01</leafValues></_>
        <_>
          <internalNodes>
            0 -1 30 1657554113 -134414121 -688414641 -256032385
            1569210890 -1888587754 403359507 439942580</internalNodes>
          <leafValues>
            -2.3109231889247894e-01 9.9773228168487549e-02</leafValues></_>
        <_>
          <internalNodes>
            0 -1 227 -674127868 -250212945 -1635653719 1872984057
            206749864 2008793219 -1970788200 1815564635</internalNodes>
          <leafValues>
            -1.4578318595886230e-01 1.6324518620967865e-01</leafValues></_>
        <_>
          <internalNodes>
            0 -1 404 585280008 -1921994956 -1806862738 -1513848276
            115090177 342301218 64060720 281101875</internalNodes>
          <leafValues>
            -3.0244174599647522e-01 7.6827295124530792e-02</leafValues></_>
        <_>
          <internalNodes>
            0 -1 511 -93496834 -9864961 1893453399 -698411554 -175572914
            -44146165 1093204127 -652709993</internalNodes>
          <leafValues>
            -1.4311221241950989e-01 1.6206601262092590e-01</leafValues></_>
        <_>
          <internalNodes>
            0 -1 197 -2140852555 -1258163178 -176413567 -1518896591
            -1021573430 1082218241 553289803 1161879661</internalNodes>
          <leafValues>
            -2.2600391507148743e-01 1.0400198400020599e-01</leafValues></_>
        <_>
          <internalNodes>
            0 -1 243 -209809247 268676640 580456929 1048894173 59281078
            -271733795 -782500639 -1590702940</internalNodes>
          <leafValues>
            -1.5435929596424103e-01 1.5431359410285950e-01</leafValues></_>
        <_>
          <internalNodes>
            0 -1 438 -2139772961 469929907 668163356 771006435
            1358368436 1567783475 -658949445 83189235</internalNodes>
          <leafValues>
            -1.7094866931438446e-01 1.3676868379116058e-01</leafValues></_>
        <_>
          <internalNodes>
