<?xml version="1.0"?>
<opencv_storage>
<cascade>
  <stageType>BOOST</stageType>
  <featureType>LBP</featureType>
  <height>24</height>
  <width>24</width>
  <stageParams>
    <boostType>GAB</boostType>
    <minHitRate>9.9500000476837158e-01</minHitRate>
    <maxFalseAlarm>5.0000000000000000e-01</maxFalseAlarm>
    <weightTrimRate>9.4999999999999996e-01</weightTrimRate>
    <maxDepth>1</maxDepth>
    <maxWeakCount>100</maxWeakCount></stageParams>
  <featureParams>
    <maxCatCount>256</maxCatCount>
    <featSize>1</featSize></featureParams>
  <stageNum>20</stageNum>
  <stages>
    <!-- stage 0 -->
    <_>
      <maxWeakCount>14</maxWeakCount>
      <stageThreshold>-1.7119460105895996e+00</stageThreshold>
      <weakClassifiers>
        <_>
          <internalNodes>
            0 -1 27 -772738840 319922688 -1759534968 400752675
            1082392746 262545 2296491 2556419</internalNodes>
          <leafValues>
            -8.0773574113845825e-01 -2.0791538059711456e-02</leafValues></_>
        <_>
          <internalNodes>
            0 -1 319 -266289024 1895859200 -536818652 -150921184 32904
            269484464 -1071642070 -1582890485</internalNodes>
          <leafValues>
            -4.9422222375869751e-01 2.4969713389873505e-01</leafValues></_>
        <_>
          <internalNodes>
            0 -1 503 -804994431 -786397264 -1432993278 -1493073888
            1350647947 269484304 -1998288758 -1583398749</internalNodes>
          <leafValues>
            -3.1412726640701294e-01 2.8823912143707275e-01</leafValues></_>
        <_>
          <internalNodes>
            0 -1 0 -6465348 -4254675 -85428625 -766541841 -1086826432
            -14988462 -1038156034 -89473346</internalNodes>
          <leafValues>
            -2.4056105315685272e-01 3.5135319828987122e-01</leafValues></_>
        <_>
          <internalNodes>
            0 -1 32 -956959819 -8296687 637183988 1426435330 1103430069
            -1266105322 1289027592 -2132738032</internalNodes>
          <leafValues>
            -2.4020659923553467e-01 3.2387879490852356e-01</leafValues></_>
        <_>
          <internalNodes>
            0 -1 161 -1717857351 -1895057208 1501549473 2079846885
            -1079512879 -1882330136 -1284001065 -6319651</internalNodes>
          <leafValues>
            -1.9764992594718933e-01 3.8896963000297546e-01</leafValues></_>
        <_>
          <internalNodes>
            0 -1 711 -666044625 1476396988 1178078671 -1994094496
            1432743642 1348492668 -391570902 -2142952350</internalNodes>
          <leafValues>
            -2.6812836527824402e-01 2.8040084242820740e-01</leafValues></_>
        <_>
          <internalNodes>
            0 -1 877 1074048679 808498099 -377180530 630824746 6523051
            84786 -860546675 -2143866933</internalNodes>
          <leafValues>
            -2.8173801302909851e-01 2.6110604405403137e-01</leafValues></_>
        <_>
          <internalNodes>
            0 -1 18 -135858289 -149846635 2097819264 -743463343
            -54181680 562312597 1254425274 1404903947</internalNodes>
          <leafValues>
            -2.2390148043632507e-01 2.9119163751602173e-01</leafValues></_>
        <_>
          <internalNodes>
            0 -1 759 2037902849 816876050 947424557 -1121898966
            -1066930011 946634676 -88171269 -522853298</internalNodes>
          <leafValues>
            -2.2264474630355835e-01 2.9093858599662781e-01</leafValues></_>
        <_>
          <internalNodes>
            0 -1 511 -796621063 1377838008 -1974342880 428572809
            -735803223 943244847 -933821477 1357710299</internalNodes>
          <leafValues>
            -2.5382435321807861e-01 2.4655815958976746e-01</leafValues></_>
        <_>
          <internalNodes>
            0 -1 129 1464139671 844925970 2146960447 -1256014029
            1159932288 854660471 -9676741 -1250860237</internalNodes>
          <leafValues>
            -2.3324981331825256e-01 2.9540932178497314e-01</leafValues></_>
        <_>
          <internalNodes>
            0 -1 1016 -1904718713 -1996546446 1256947391 -758511617
            -1616321010 -246711978 -76880177 -90505473</internalNodes>
          <leafValues>
            -2.3554129898548126e-01 2.7535730600357056e-01</leafValues></_>
        <_>
          <internalNodes>
            0 -1 999 -1078274055 -488323888 1474709155 -553709060
            -1275940979 -1884843103 -1819413357 -16156</internalNodes>
          <leafValues>
            -1.7909893393516541e-01 3.3212718367576599e-01</leafValues></_></weakClassifiers></_>
    <!-- stage 1 -->
    <_>
      <maxWeakCount>23</maxWeakCount>
      <stageThreshold>-1.5404821634292603e+00</stageThreshold>
      <weakClassifiers>
        <_>
          <internalNodes>
            0 -1 86 1349711504 288596753 45385256 386335265 282853535
            277873844 537888911 868156367</internalNodes>
          <leafValues>
            -6.5098977088928223e-01 -7.7774479985237122e-02</leafValues></_>
        <_>
          <internalNodes>
            0 -1 997 -1212482821 -475281240 -205544605 -10530059
            -1179975681 -1959018838 -1817708553 -67136007</internalNodes>
          <leafValues>
            -2.3851490020751953e-01 4.1058897972106934e-01</leafValues></_>
        <_>
          <internalNodes>
            0 -1 25 -786370099 -654265440 -1224667713 -5955583
            -933901112 810552324 -1471821174 198794</internalNodes>
          <leafValues>
            -2.9190775752067566e-01 2.4872489273548126e-01</leafValues></_>
        <_>
          <internalNodes>
            0 -1 1017 -1090647829 -831835973 1525179134 -797112065
            -169321970 -696362426 -1833267473 -627377665</internalNodes>
          <leafValues>
            -2.3366375267505646e-01 2.7555519342422485e-01</leafValues></_>
        <_>
          <internalNodes>
            0 -1 453 -751647291 -13587451 -1431797616 -47872511
            -858749811 -88603251 -390361461 -2104613</internalNodes>
          <leafValues>
            -1.3597823679447174e-01 3.9746630191802979e-01</leafValues></_>
        <_>
          <internalNodes>
            0 -1 228 -1414299358 -2084453504 -2030845853 -673327643
            -1278077078 250317881 -1500071945 -337656579</internalNodes>
          <leafValues>
            -2.2975434362888336e-01 2.4839130043983459e-01</leafValues></_>
        <_>
          <internalNodes>
            0 -1 835 2353849 386835229 1170419035 489146039 108468893
            698616254 16063628 141501211</internalNodes>
          <leafValues>
            -2.5178822875022888e-01 2.1782593429088593e-01</leafValues></_>
        <_>
          <internalNodes>
            0 -1 17 -249367821 -687740256 18103468 -47717776 -789446408
            437584116 -1461171512 829771779</internalNodes>
          <leafValues>
            -2.6177838444709778e-01 2.0693074166774750e-01</leafValues></_>
        <_>
          <internalNodes>
            0 -1 0 -539011849 2141932605 -1561697546 1894726653
            -1078273526 -1189385398 2023550975 -71630913</internalNodes>
          <leafValues>
            -1.7688722908496857e-01 3.2062634825706482e-01</leafValues></_>
        <_>
          <internalNodes>
            0 -1 212 1463938967 951355222 850419057 807464704 1478530249
            1009642965 -495161681 -265869565</internalNodes>
          <leafValues>
            -1.8973006308078766e-01 2.8035822510719299e-01</leafValues></_>
        <_>
          <internalNodes>
            0 -1 489 -774257044 1895926324 -135868756 151593520
            1347751307 404750815 582191035 553062955</internalNodes>
          <leafValues>
            -2.9584142565727234e-01 1.6159294545650482e-01</leafValues></_>
        <_>
          <internalNodes>
            0 -1 361 -203710462 422769683 -1261436618 84150290
            1703110079 999385460 -270589398 565586434</internalNodes>
          <leafValues>
            -2.8439038991928101e-01 1.6706912219524384e-01</leafValues></_>
        <_>
          <internalNodes>
            0 -1 829 -2109865420 650152275 -1830642736 -1746126136
            1626408768 1844864801 264398928 -2132476844</internalNodes>
          <leafValues>
            -3.5997018218040466e-01 1.3496273756027222e-01</leafValues></_>
        <_>
          <internalNodes>
            0 -1 6 -956370047 1536291856 -2117809424 562115072 14770613
            1889620912 -1325988728 6624256</internalNodes>
          <leafValues>
            -2.7919444441795349e-01 1.6291812062263489e-01</leafValues></_>
        <_>
          <internalNodes>
            0 -1 996 -18659149 1073228338 -1036389291 -788586269
            -39921078 -179365282 -541140753 -609539649</internalNodes>
          <leafValues>
            -1.7002414166927338e-01 2.8958848118782043e-01</leafValues></_>
        <_>
          <internalNodes>
            0 -1 751 2035678806 492873731 -989835491 -1356552158
            1224309855 430980587 1751113919 541454878</internalNodes>
          <leafValues>
            -2.3488920927047729e-01 2.0139238238334656e-01</leafValues></_>
        <_>
          <internalNodes>
            0 -1 160 -1373373663 -976517088 -1640497455 -638192255
            -1979880781 -1918243189 -1284070446 -1147282991</internalNodes>
          <leafValues>
            -1.8038973212242126e-01 2.5693663954734802e-01</leafValues></_>
        <_>
          <internalNodes>
            0 -1 220 1953989636 838042661 1701555934 991998722
            1114702034 870781168 -85504466 1163330071</internalNodes>
          <leafValues>
            -2.6784968376159668e-01 1.6478945314884186e-01</leafValues></_>
        <_>
          <internalNodes>
            0 -1 807 237634560 134531527 1587057847 -2066989336
            519511892 946158390 2052990048 -1194320411</internalNodes>
          <leafValues>
            -3.9233484864234924e-01 1.2352611124515533e-01</leafValues></_>
        <_>
          <internalNodes>
            0 -1 435 1970458783 1931601911 -1246768319 -117364704
            -860011265 680625584 -526087046 -10022</internalNodes>
          <leafValues>
            -1.5251059830188751e-01 3.1884258985519409e-01</leafValues></_>
        <_>
          <internalNodes>
            0 -1 1002 -1902447182 1772126640 -889736877 -768992770
            -2018916710 224845774 -1724919574 -542158376</internalNodes>
          <leafValues>
            -1.7237848043441772e-01 2.5840356945991516e-01</leafValues></_>
        <_>
          <internalNodes>
            0 -1 782 -1047600757 302162818 -1578988226 700556403
            148610505 678507409 -717942536 6667803</internalNodes>
          <leafValues>
            -2.4047236144542694e-01 1.8358144164085388e-01</leafValues></_>
        <_>
          <internalNodes>
            0 -1 185 1980012417 -1834884077 338120252 693560339
            -2062647151 1068011793 135662346 733546531</internalNodes>
          <leafValues>
            -2.6988491415977478e-01 1.6382996737957001e-01</leafValues></_></weakClassifiers></_>
    <!-- stage 2 -->
    <_>
      <maxWeakCount>31</maxWeakCount>
      <stageThreshold>-1.4729961156845093e+00</stageThreshold>
      <weakClassifiers>
        <_>
          <internalNodes>
            0 -1 161 -1078722565 -812666488 -10488861 -8940811
            -1146356805 -1953662504 -1216613897 -10755</internalNodes>
          <leafValues>
            -4.6232208609580994e-01 4.7234043478965759e-02</leafValues></_>
        <_>
          <internalNodes>
            0 -1 254 -774507043 -206458989 1744160699 -34144255
            -1064532833 -1733295693 -84939861 -67124293</internalNodes>
          <leafValues>
            -1.5191082656383514e-01 4.0318486094474792e-01</leafValues></_>
        <_>
          <internalNodes>
            0 -1 35 1074266039 1348926919 145848689 -12191357 1141195168
            344220065 -926859240 1617262371</internalNodes>
          <leafValues>
            -2.4201621115207672e-01 1.9738888740539551e-01</leafValues></_>
        <_>
          <internalNodes>
            0 -1 1017 -138979073 -202436485 -755371281 -226531121
            -408397238 -12692914 -1696944129 -205848577</internalNodes>
          <leafValues>
            -1.5168206393718719e-01 3.1080150604248047e-01</leafValues></_>
        <_>
          <internalNodes>
            0 -1 21 1996542336 387131297 891317800 938935331 1124205774
            462492085 1075839662 538386947</internalNodes>
          <leafValues>
            -3.8385373353958130e-01 1.1807862669229507e-01</leafValues></_>
        <_>
          <internalNodes>
            0 -1 850 1892019326 1897985811 561514382 -1120893438
            677228730 447796958 -994063698 -1594678749</internalNodes>
          <leafValues>
            -1.5571418404579163e-01 2.7018967270851135e-01</leafValues></_>
        <_>
          <internalNodes>
            0 -1 981 -1088161301 -270016904 599220640 -146802828
            -1208225862 260717512 -1313671181 -68168212</internalNodes>
          <leafValues>
            -1.4857789874076843e-01 2.9957860708236694e-01</leafValues></_>
        <_>
          <internalNodes>
            0 -1 204 1762124688 68019875 578964994 -2109147610
            1162020280 -1950556507 -624944486 -528089262</internalNodes>
          <leafValues>
            -2.5175938010215759e-01 1.6783994436264038e-01</leafValues></_>
        <_>
          <internalNodes>
            0 -1 519 1081901769 1367974165 -1853847656 469185337
            1352273403 984092669 -893844017 61821423</internalNodes>
          <leafValues>
            -2.2237379848957062e-01 2.0090316236019135e-01</leafValues></_>
        <_>
          <internalNodes>
            0 -1 164 -272672615 -837057 146798286 821707930 -293023230
            -816685558 2106253247 -1173692750</internalNodes>
          <leafValues>
            -1.7868125438690186e-01 2.4051119387149811e-01</leafValues></_>
        <_>
          <internalNodes>
            0 -1 834 1103684060 286899002 -1445851146 -1112561757
            1521829332 1022431541 1223114912 -2134523433</internalNodes>
          <leafValues>
            -2.2945456206798553e-01 1.9016090035438538e-01</leafValues></_>
        <_>
          <internalNodes>
            0 -1 139 -571009023 -1203163887 -535814870 -1323289813
            1618411680 2066819302 1281890312 -1761258217</internalNodes>
          <leafValues>
            -2.2418032586574554e-01 1.8626290559768677e-01</leafValues></_>
        <_>
          <internalNodes>
            0 -1 22 -383278719 280486795 428870029 218460972 -119275875
            -131059132 -1996149496 19375182</internalNodes>
          <leafValues>
            -2.0955498516559601e-01 1.9525580108165741e-01</leafValues></_>
        <_>
          <internalNodes>
            0 -1 1013 -1531706193 585242770 -1373021328 -794558240
            94523503 -1929561546 -90383425 -659368293</internalNodes>
          <leafValues>
            -2.3933263123035431e-01 1.6983592510223389e-01</leafValues></_>
        <_>
          <internalNodes>
            0 -1 289 1381410343 288064307 -403365827 -2096975310
            1942823323 854474743 -455146742 -437889526</internalNodes>
          <leafValues>
            -1.9214150309562683e-01 2.0639039576053619e-01</leafValues></_>
        <_>
          <internalNodes>
            0 -1 487 -264972335 -265247110 -33264004 -176054256
            -589198949 412620055 -1194542997 25643651</internalNodes>
          <leafValues>
            -2.1357698738574982e-01 1.7473483085632324e-01</leafValues></_>
        <_>
          <internalNodes>
            0 -1 999 -2019504391 -963918648 -1333870191 1394088821
            984772522 531568616 -1255420425 -67401548</internalNodes>
          <leafValues>
            -1.6745065152645111e-01 2.3303957283496857e-01</leafValues></_>
        <_>
          <internalNodes>
            0 -1 304 1668058778 901033899 -474174823 -10059638 613578685
            1841984925 1290224908 -966449877</internalNodes>
          <leafValues>
            -1.8003262579441071e-01 2.1089883148670197e-01</leafValues></_>
        <_>
          <internalNodes>
            0 -1 575 -125378873 -117328961 -1454511184 -6307167
            -253211257 -1162312295 -1443406181 -90703205</internalNodes>
          <leafValues>
            -1.3741052150726318e-01 2.9891270399093628e-01</leafValues></_>
        <_>
          <internalNodes>
            0 -1 1 -109095340 1469661491 1652264574 293756180 2042011844
            1073233424 1048229036 -289483402</internalNodes>
          <leafValues>
            -1.8221338093280792e-01 2.0821531116962433e-01</leafValues></_>
        <_>
          <internalNodes>
            0 -1 368 1073971968 884966978 201916944 -1423293534
            1920213379 352301784 1717963370 667133474</internalNodes>
          <leafValues>
            -2.9291510581970215e-01 1.3077689707279205e-01</leafValues></_>
        <_>
          <internalNodes>
            0 -1 893 -360256685 959233666 -1376568006 -1886935791
            81855156 -1208821061 -1916989748 -1604876190</internalNodes>
          <leafValues>
            -1.7722922563552856e-01 2.1358914673328400e-01</leafValues></_>
        <_>
          <internalNodes>
            0 -1 711 1511862048 414192039 -299759483 224659778
            1365524362 1853118764 2123323946 6399558</internalNodes>
          <leafValues>
            -2.8114682435989380e-01 1.3354672491550446e-01</leafValues></_>
        <_>
          <internalNodes>
            0 -1 181 -794254701 486859812 759979417 -571762464
            -2045295424 79017461 -927988086 979858186</internalNodes>
          <leafValues>
            -2.3527888953685760e-01 1.5502165257930756e-01</leafValues></_>
        <_>
          <internalNodes>
            0 -1 673 -1481767928 707691945 718168276 140377714
            1391339844 1456613747 909536016 -1431304060</internalNodes>
          <leafValues>
            -3.4589058160781860e-01 1.1018852889537811e-01</leafValues></_>
        <_>
          <internalNodes>
            0 -1 937 1215089170 1885129015 148409930 95420522 1617697008
            643422176 1550347242 -2145003470</internalNodes>
          <leafValues>
            -2.2505792975425720e-01 1.6518276929855347e-01</leafValues></_>
        <_>
          <internalNodes>
            0 -1 506 -1445773483 -1959810880 -880755168 -1935633760
            -775136840 -320791131 -287287266 -58856909</internalNodes>
          <leafValues>
            -2.0061157643795013e-01 1.8306523561477661e-01</leafValues></_>
        <_>
          <internalNodes>
            0 -1 63 -651825629 402697866 2029710387 2043867970
            1517527056 -1808618410 -720021190 1565467139</internalNodes>
          <leafValues>
            -1.8023532629013062e-01 2.0353686809539795e-01</leafValues></_>
        <_>
          <internalNodes>
            0 -1 458 -738016127 304318124 -263860712 -14424510
            1101693064 -360661675 -98362832 -100887692</internalNodes>
          <leafValues>
            -2.0451249182224274e-01 1.8307596445083618e-01</leafValues></_>
        <_>
          <internalNodes>
            0 -1 100 -717453831 808135735 -1985722820 1196271435
            216829887 421311380 489401775 730714079</internalNodes>
          <leafValues>
            -1.8898126482963562e-01 1.9815884530544281e-01</leafValues></_>
        <_>
          <internalNodes>
            0 -1 576 110824288 741014370 1331842963 -1562719612
            723230980 93137185 1573409808 -960071856</internalNodes>
          <leafValues>
            -3.3277779817581177e-01 1.1463805288076401e-01</leafValues></_></weakClassifiers></_>
    <!-- stage 3 -->
    <_>
      <maxWeakCount>40</maxWeakCount>
      <stageThreshold>-1.4313341379165649e+00</stageThreshold>
      <weakClassifiers>
        <_>
          <internalNodes>
            0 -1 1016 -765729 -2140429 1392072319 -220248577 -369176561
            -76855010 -218432513 -73728005</internalNodes>
          <leafValues>
            -4.4569513201713562e-01 6.2567424029111862e-03</leafValues></_>
        <_>
          <internalNodes>
            0 -1 997 -1086596631 -475021144 -234964110 -10495975
            -1413758982 -1947485462 866646007 -10497803</internalNodes>
          <leafValues>
            -1.8084445595741272e-01 2.3202989995479584e-01</leafValues></_>
        <_>
          <internalNodes>
            0 -1 8 1151860699 1600100275 1128034577 500661175 1490859517
            502299113 -867430904 1166358339</internalNodes>
          <leafValues>
            -2.0070441067218781e-01 2.1137231588363647e-01</leafValues></_>
        <_>
          <internalNodes>
            0 -1 245 -172886049 -552749659 -798833 -541630463
            -1047538433 -1222830704 -357983573 -4197733</internalNodes>
          <leafValues>
            -9.9687092006206512e-02 3.9433914422988892e-01</leafValues></_>
        <_>
          <internalNodes>
            0 -1 645 -261763443 -790571996 -30822947 -1580528936
            -463092295 -1869080593 -412176133 568305583</internalNodes>
          <leafValues>
            -1.8452163040637970e-01 2.0693853497505188e-01</leafValues></_>
        <_>
          <internalNodes>
            0 -1 778 1375771071 269650481 1866050359 -1381008245 5381033
            806826492 1573329212 7715586</internalNodes>
          <leafValues>
            -1.8048539757728577e-01 2.1112549304962158e-01</leafValues></_>
        <_>
          <internalNodes>
            0 -1 28 -113552137 -203860225 1358606071 -788562433
            -137739686 -170915256 -85278721 -1145373697</internalNodes>
          <leafValues>
            -1.3833589851856232e-01 2.8835403919219971e-01</leafValues></_>
        <_>
          <internalNodes>
            0 -1 144 1433648151 290789937 -145363187 328239939
            1995793115 2096442853 -537978129 82273215</internalNodes>
          <leafValues>
            -1.9255459308624268e-01 1.8592359125614166e-01</leafValues></_>
        <_>
          <internalNodes>
            0 -1 161 -1380213587 61825472 -570494495 -713559691
            -1459887454 -1913659056 -1246649625 -6585987</internalNodes>
          <leafValues>
            -1.4278216660022736e-01 2.4941246211528778e-01</leafValues></_>
        <_>
          <internalNodes>
            0 -1 310 -249703094 -205813837 -899920407 1906401984
            -657701489 815546575 -1097917814 411402931</internalNodes>
          <leafValues>
            -2.4208688735961914e-01 1.4241510629653931e-01</leafValues></_>
        <_>
          <internalNodes>
            0 -1 721 201851934 924323155 -326729926 -1885017182
            1275478118 -17821868 -85174208 -1091585418</internalNodes>
          <leafValues>
            -2.2882953286170959e-01 1.5870700776576996e-01</leafValues></_>
        <_>
          <internalNodes>
            0 -1 415 1757577886 287115103 16911629 57460392 1222329592
            431572894 103484572 1668530922</internalNodes>
          <leafValues>
            -2.2530467808246613e-01 1.6065755486488342e-01</leafValues></_>
        <_>
          <internalNodes>
            0 -1 230 -138424137 1974290631 -96505174 -1964869390
            -2239424 -1991022068 -495279932 -99419504</internalNodes>
          <leafValues>
            -1.7697979509830475e-01 1.9097940623760223e-01</leafValues></_>
        <_>
          <internalNodes>
            0 -1 856 -31136416 956312577 -602924169 427879430 1347277968
            -1464732299 -120657169 745912370</internalNodes>
          <leafValues>
            -2.1792738139629364e-01 1.4571762084960938e-01</leafValues></_>
        <_>
          <internalNodes>
            0 -1 996 -1359587278 -1363932969 -225478921 1526299627
            -877766074 1848548735 1584325487 -156584769</internalNodes>
          <leafValues>
            -2.0130132138729095e-01 1.6915257275104523e-01</leafValues></_>
        <_>
          <internalNodes>
            0 -1 953 1216406504 806383205 -1559098796 229641864
            1611001781 846640 -1601939332 12022451</internalNodes>
          <leafValues>
            -2.4879162013530731e-01 1.2885735929012299e-01</leafValues></_>
        <_>
          <internalNodes>
            0 -1 129 1380384262 308192833 1053754423 405322608
            1560347848 417736080 1239750939 108388979</internalNodes>
          <leafValues>
            -2.3295074701309204e-01 1.3788206875324249e-01</leafValues></_>
        <_>
          <internalNodes>
            0 -1 297 -1095775253 -1984988477 2064602755 2104706033
            -1506559294 -2083553591 -1820420137 -1413489173</internalNodes>
          <leafValues>
            -1.2773755192756653e-01 2.6109611988067627e-01</leafValues></_>
        <_>
          <internalNodes>
            0 -1 507 -471347015 1044226737 -805376199 -550179312
            -240348007 -558567683 -810014550 -52037037</internalNodes>
          <leafValues>
            -1.4320164918899536e-01 2.3802778124809265e-01</leafValues></_>
        <_>
          <internalNodes>
            0 -1 110 1982837633 1395659392 -1809182947 870689655
            1155007651 1430140816 1928210347 665298787</internalNodes>
          <leafValues>
            -1.9892962276935577e-01 1.7150358855724335e-01</leafValues></_>
        <_>
          <internalNodes>
            0 -1 546 1313866768 265816832 -1194591241 1492707056
            815665669 2128534529 2029251124 -1400877964</internalNodes>
          <leafValues>
            -3.0906027555465698e-01 9.6172519028186798e-02</leafValues></_>
        <_>
          <internalNodes>
            0 -1 1001 -1288643621 -1349850424 -1249988197 -212099936
            -1087141702 -1550942246 -1263274001 -83964700</internalNodes>
          <leafValues>
            -1.2514762580394745e-01 2.4792028963565826e-01</leafValues></_>
        <_>
          <internalNodes>
            0 -1 771 -835040119 745379746 112038704 -1235550987
            -1880746176 -424505596 -320522749 -1195850972</internalNodes>
          <leafValues>
            -2.3238624632358551e-01 1.3403202593326569e-01</leafValues></_>
        <_>
          <internalNodes>
            0 -1 27 1406303468 439203488 370134544 96800483 1659633862
            537176849 1722498095 2097175</internalNodes>
          <leafValues>
            -3.8032990694046021e-01 9.8156489431858063e-02</leafValues></_>
        <_>
          <internalNodes>
            0 -1 828 1884088896 404754594 2114578652 524651130
            -518174942 -1697621726 -529741264 611656242</internalNodes>
          <leafValues>
            -2.7935412526130676e-01 1.1282161623239517e-01</leafValues></_>
        <_>
          <internalNodes>
            0 -1 391 176489104 206598048 739393288 -1569682288 559941048
            -1382794609 -1350300420 686034690</internalNodes>
          <leafValues>
            -3.4978947043418884e-01 9.5732472836971283e-02</leafValues></_>
        <_>
          <internalNodes>
            0 -1 814 -1089306619 -1367068912 794818468 -1235600274
            570328452 1707477169 1690722224 -259517648</internalNodes>
          <leafValues>
            -2.3814506828784943e-01 1.3475470244884491e-01</leafValues></_>
        <_>
          <internalNodes>
            0 -1 582 -758077791 -449092061 -1504923867 -1883738710
            -1047721917 804448742 -997171179 1756428662</internalNodes>
          <leafValues>
            -2.2244800627231598e-01 1.3933707773685455e-01</leafValues></_>
        <_>
          <internalNodes>
            0 -1 77 1684398144 212923494 630407330 895547537 1083193040
            -2038388090 782701376 7437090</internalNodes>
          <leafValues>
            -2.9427787661552429e-01 1.0367421805858612e-01</leafValues></_>
        <_>
          <internalNodes>
            0 -1 328 1966493 321169207 1826655981 -143646063 1356671436
            478167347 -323075125 1808779339</internalNodes>
          <leafValues>
            -1.6787217557430267e-01 1.8852543830871582e-01</leafValues></_>
        <_>
          <internalNodes>
            0 -1 716 1506122516 1342581811 -397877707 1831353058
            -397653163 -1465765256 -1641582614 1702176514</internalNodes>
          <leafValues>
            -2.1614865958690643e-01 1.4625181257724762e-01</leafValues></_>
        <_>
          <internalNodes>
            0 -1 0 -580953609 934892657 1392403660 -253281281 -172459964
            -187380792 -929385481 -90558726</internalNodes>
          <leafValues>
            -1.5543301403522491e-01 1.9800721108913422e-01</leafValues></_>
        <_>
          <internalNodes>
            0 -1 335 -796601735 840999045 -1327440080 -954924588
            -1666604615 -1162277452 -1563018065 321763315</internalNodes>
          <leafValues>
            -1.8749786913394928e-01 1.6706570982933044e-01</leafValues></_>
        <_>
          <internalNodes>
            0 -1 707 -1601664536 983461025 653698879 242269414
            -1145563148 -34888791 -37479896 -1460891796</internalNodes>
          <leafValues>
            -2.4722263216972351e-01 1.2644326686859131e-01</leafValues></_>
        <_>
          <internalNodes>
            0 -1 877 1147446146 805318737 -149699578 -1108749054
            -924678232 331010 1848182989 3369803</internalNodes>
          <leafValues>
            -2.2368772327899933e-01 1.3702347874641418e-01</leafValues></_>
        <_>
          <internalNodes>
            0 -1 228 -1143257887 -2021400391 1125765185 2010895649
            -2081600150 -1968568226 -1213189705 -1692560179</internalNodes>
          <leafValues>
            -1.7760810256004333e-01 1.7887094616889954e-01</leafValues></_>
        <_>
          <internalNodes>
            0 -1 75 -428222063 884537602 -51029451 -1212421294
            1182142633 703802001 225517704 -990415802</internalNodes>
          <leafValues>
            -1.6233748197555542e-01 1.9343861937522888e-01</leafValues></_>
        <_>
          <internalNodes>
            0 -1 653 176947232 78165610 480210324 751616024 664412960
            799277850 -1555284460 -2074077583</internalNodes>
          <leafValues>
            -4.0612441301345825e-01 7.8070908784866333e-02</leafValues></_>
        <_>
          <internalNodes>
            0 -1 490 -1986363099 207412867 -1958320618 -1090729198
            643589633 1056311649 1641604704 -463415004</internalNodes>
          <leafValues>
            -2.7772149443626404e-01 1.1049751192331314e-01</leafValues></_>
        <_>
          <internalNodes>
            0 -1 980 -202156981 -135310021 -159436185 -219199813
            -18179510 -1746938244 -631595665 -4466885</internalNodes>
          <leafValues>
            -1.0983596742153168e-01 2.8789928555488586e-01</leafValues></_></weakClassifiers></_>
    <!-- stage 4 -->
    <_>
      <maxWeakCount>46</maxWeakCount>
      <stageThreshold>-1.4770898818969727e+00</stageThreshold>
      <weakClassifiers>
        <_>
          <internalNodes>
            0 -1 971 -1171590197 -812959832 -72019024 -10496811
            -1095566597 -1970808614 912176115 -11784</internalNodes>
          <leafValues>
            -4.4273370504379272e-01 -5.9022556990385056e-02</leafValues></_>
        <_>
          <internalNodes>
            0 -1 319 -210380865 -585775227 2074594423 -10488463
            -65941346 -1650096975 -122499414 -1061</internalNodes>
          <leafValues>
            -1.1764824390411377e-01 3.2994300127029419e-01</leafValues></_>
        <_>
          <internalNodes>
            0 -1 1017 -268630833 -1348866 -2097552658 -788694822
            2117786122 -1237364218 -130357265 -633799169</internalNodes>
          <leafValues>
            -1.5785980224609375e-01 2.0229613780975342e-01</leafValues></_>
        <_>
          <internalNodes>
            0 -1 169 -1965705222 1938857058 96487792 905003284
            1140398525 784350608 147589128 1624597046</internalNodes>
          <leafValues>
            -2.2431696951389313e-01 1.4862494170665741e-01</leafValues></_>
        <_>
          <internalNodes>
            0 -1 134 1345266195 -69289453 -292942275 -138109214 38025214
            1050232720 723932938 1067399062</internalNodes>
          <leafValues>
            -1.8710598349571228e-01 1.6550786793231964e-01</leafValues></_>
        <_>
          <internalNodes>
            0 -1 160 -1195771087 -1951668056 1466430419 -537005583
            -1984975877 -1949316480 -205522953 -2108975</internalNodes>
          <leafValues>
            -1.1054758727550507e-01 2.5359541177749634e-01</leafValues></_>
        <_>
          <internalNodes>
            0 -1 486 -44164803 860945308 1504460041 266999301
            -1471299682 -1524347246 -361753458 1079881230</internalNodes>
          <leafValues>
            -1.5573824942111969e-01 1.8718266487121582e-01</leafValues></_>
        <_>
          <internalNodes>
            0 -1 40 490559645 -712829593 -662745002 1891596280 930643976
            -295760830 1996019696 -71634026</internalNodes>
          <leafValues>
            -1.6113847494125366e-01 1.8309599161148071e-01</leafValues></_>
        <_>
          <internalNodes>
            0 -1 730 1084132867 833677098 -1103316050 -845423968
            2111724547 -100713269 -1065893039 -52102541</internalNodes>
          <leafValues>
            -2.0037977397441864e-01 1.5113677084445953e-01</leafValues></_>
        <_>
          <internalNodes>
            0 -1 123 1986453268 886101505 513885276 3189618 1091699072
            1247149972 -38463909 540109634</internalNodes>
          <leafValues>
            -2.4218013882637024e-01 1.2192811816930771e-01</leafValues></_>
        <_>
          <internalNodes>
            0 -1 26 -774768689 -1155295954 -820171641 631472373
            -464764737 -650779213 -1737504069 1391968923</internalNodes>
          <leafValues>
            -1.6687496006488800e-01 1.7811775207519531e-01</leafValues></_>
        <_>
          <internalNodes>
            0 -1 539 1876394017 77708962 1824966485 -1360347164
            1273896124 1035949679 -27759864 -318964124</internalNodes>
          <leafValues>
            -2.0752499997615814e-01 1.4639049768447876e-01</leafValues></_>
        <_>
          <internalNodes>
            0 -1 997 -1079902273 -470900248 838591265 -2141719
            -1096097861 -1958741621 -1280329753 -67373844</internalNodes>
          <leafValues>
            -1.2179371714591980e-01 2.3594355583190918e-01</leafValues></_>
        <_>
          <internalNodes>
            0 -1 869 1078584807 826395450 1953362639 -1913795906
            1095173265 850469051 1523924636 560301031</internalNodes>
          <leafValues>
            -1.8445049226284027e-01 1.5781463682651520e-01</leafValues></_>
        <_>
          <internalNodes>
            0 -1 970 -742386 523776514 -1809279258 -258473049 -459249
            1849633099 -2144837905 -989911121</internalNodes>
          <leafValues>
            -1.6982631385326385e-01 1.6879449784755707e-01</leafValues></_>
        <_>
          <internalNodes>
            0 -1 628 1099534329 892976920 730113025 -1415466382
            1435521208 984169403 -922926644 574571012</internalNodes>
          <leafValues>
            -1.9547501206398010e-01 1.4479039609432220e-01</leafValues></_>
        <_>
          <internalNodes>
            0 -1 891 -1466282746 229438866 752849404 -1629560906
            -1640288923 100464503 -41996496 -1932012316</internalNodes>
          <leafValues>
            -2.2606238722801208e-01 1.3404038548469543e-01</leafValues></_>
        <_>
          <internalNodes>
            0 -1 261 -801311267 -250925411 -2106785899 -284228805
            1360826287 -918977353 589547791 -202651697</internalNodes>
          <leafValues>
            -1.1589517444372177e-01 2.5306811928749084e-01</leafValues></_>
        <_>
          <internalNodes>
            0 -1 47 -1032719230 12384105 1891550472 -875957805
            1130516128 1290304962 -2043601656 142038642</internalNodes>
          <leafValues>
            -2.3191703855991364e-01 1.3433520495891571e-01</leafValues></_>
        <_>
          <internalNodes>
            0 -1 178 -271626183 -1539368842 -1326514569 -1831372836
            -1265741312 -1638146070 1519308972 -70583410</internalNodes>
          <leafValues>
            -1.5328244864940643e-01 1.9076661765575409e-01</leafValues></_>
        <_>
          <internalNodes>
            0 -1 892 -1534746207 732331308 -1695917486 -211974
            -136430089 1314842310 -570954572 -50350634</internalNodes>
          <leafValues>
            -1.6082030534744263e-01 1.7547872662544250e-01</leafValues></_>
        <_>
          <internalNodes>
            0 -1 339 -1550852604 178959848 -2101143264 -1569494428
            392003072 -2053513985 1926705572 -453545980</internalNodes>
          <leafValues>
            -2.3636265099048615e-01 1.2215013802051544e-01</leafValues></_>
        <_>
          <internalNodes>
            0 -1 816 -756247034 -1709518550 1826624660 -2110751838
            -1607057344 890533248 1884425288 92414</internalNodes>
          <leafValues>
            -2.9669454693794250e-01 9.4645179808139801e-02</leafValues></_>
        <_>
          <internalNodes>
            0 -1 145 1898152244 1361622810 -857762757 1258734342
            2121863847 862124197 2135390749 1615241522</internalNodes>
          <leafValues>
            -2.2404536604881287e-01 1.2467886507511139e-01</leafValues></_>
        <_>
          <internalNodes>
            0 -1 1015 1811421405 -1965208661 -84423969 -122839634
            -952968694 -1489678326 -861864449 -608534149</internalNodes>
          <leafValues>
            -1.4664852619171143e-01 2.0072084665298462e-01</leafValues></_>
        <_>
          <internalNodes>
            0 -1 17 1965292011 1459741087 789970889 -168330638
            -520117000 -1634388234 -1589585190 2080227354</internalNodes>
          <leafValues>
            -1.4322538673877716e-01 2.0445418357849121e-01</leafValues></_>
        <_>
          <internalNodes>
            0 -1 753 252578312 1033731896 2140483350 -1515420132
            2087651389 886235111 -1091027331 -2143211678</internalNodes>
          <leafValues>
            -2.3194009065628052e-01 1.2209212779998779e-01</leafValues></_>
        <_>
          <internalNodes>
            0 -1 706 1792814850 973248730 -1349614839 265193196
            1812877985 982133388 -133887 -324749504</internalNodes>
          <leafValues>
            -2.2112342715263367e-01 1.2914589047431946e-01</leafValues></_>
        <_>
          <internalNodes>
            0 -1 550 -1507980511 -1545918469 1004531428 412761775
            -249871344 1127176491 1124072663 -1548568158</internalNodes>
          <leafValues>
            -2.1122190356254578e-01 1.3647463917732239e-01</leafValues></_>
        <_>
          <internalNodes>
            0 -1 962 -534517253 -1734066528 -810081055 -1745833998
            1682702775 63047031 -1059256898 -2000193309</internalNodes>
          <leafValues>
            -1.4906655251979828e-01 1.9567276537418365e-01</leafValues></_>
        <_>
          <internalNodes>
            0 -1 950 2131154754 947537422 -1386103635 124462241
            2051289556 1151693940 -1137836914 -1955511737</internalNodes>
          <leafValues>
            -1.6228717565536499e-01 1.7848674952983856e-01</leafValues></_>
        <_>
          <internalNodes>
            0 -1 564 1369809615 1351663492 -1911030912 1200558000
            -1032714831 840969180 -2124546150 156172855</internalNodes>
          <leafValues>
            -1.9138018786907196e-01 1.5193267166614532e-01</leafValues></_>
        <_>
          <internalNodes>
            0 -1 878 -967773920 857351472 -611565696 -15391488
            -726717040 1033976827 -1733325396 -1875033488</internalNodes>
          <leafValues>
            -1.9057670235633850e-01 1.5545731782913208e-01</leafValues></_>
        <_>
          <internalNodes>
            0 -1 159 -1145309455 -676466199 2018498275 -9073219
            -1141116998 -1904485912 -1280073225 -36186699</internalNodes>
          <leafValues>
            -9.9032066762447357e-02 2.7693524956703186e-01</leafValues></_>
        <_>
          <internalNodes>
            0 -1 232 -1473594462 -1151225040 -509632054 800374562
            -279620448 905243346 207734844 -1466629054</internalNodes>
          <leafValues>
            -1.9697341322898865e-01 1.5100225806236267e-01</leafValues></_>
        <_>
          <internalNodes>
            0 -1 540 -1262441973 496549122 -1158757417 -1432687119
            -849213023 -247813652 -185635135 -290925146</internalNodes>
          <leafValues>
            -1.6742554306983948e-01 1.7542059719562531e-01</leafValues></_>
        <_>
          <internalNodes>
            0 -1 127 1465039124 -261089639 -157219702 -1392234748
            1026035436 892733760 -1071829333 183843107</internalNodes>
          <leafValues>
            -2.0934233069419861e-01 1.3682557642459869e-01</leafValues></_>
        <_>
          <internalNodes>
            0 -1 769 -1459678144 975885456 -304914331 573483997
            -1875094962 -252956951 2137653105 -1100427596</internalNodes>
          <leafValues>
            -2.3198910057544708e-01 1.2211855500936508e-01</leafValues></_>
        <_>
          <internalNodes>
            0 -1 227 -1316273623 -813573688 -2072468333 -848107984
            -1409476301 -1506867456 -1220808253 -1150626881</internalNodes>
          <leafValues>
            -1.6430132091045380e-01 1.7500592768192291e-01</leafValues></_>
        <_>
          <internalNodes>
            0 -1 45 -996806574 710188274 1628395293 364197810 1183648709
            217115093 1290276392 81083187</internalNodes>
          <leafValues>
            -2.2211244702339172e-01 1.2766662240028381e-01</leafValues></_>
        <_>
          <internalNodes>
            0 -1 2 -76293693 2100445477 -430006738 -791134269 -831477184
            528440576 -425085464 829344226</internalNodes>
          <leafValues>
            -1.9402928650379181e-01 1.4932787418365479e-01</leafValues></_>
        <_>
          <internalNodes>
            0 -1 359 1994654720 -1844312993 1507335724 806914069
            2129921617 998471341 1872629327 -367755706</internalNodes>
          <leafValues>
            -2.4599258601665497e-01 1.1835329979658127e-01</leafValues></_>
        <_>
          <internalNodes>
            0 -1 921 43650656 782962008 -625843872 -1697729035
            1118851093 1013133126 132663392 -2001970764</internalNodes>
          <leafValues>
            -3.2283103466033936e-01 8.2621075212955475e-02</leafValues></_>
        <_>
          <internalNodes>
            0 -1 999 -1297948678 -1433713408 -1493290352 1650905588
            47933596 170331116 581690102 -92781088</internalNodes>
          <leafValues>
            -2.2102960944175720e-01 1.3226231932640076e-01</leafValues></_>
        <_>
          <internalNodes>
            0 -1 764 1142875718 2270354 -850998204 -1532020761
            1380386215 -227098716 -775662471 549879431</internalNodes>
          <leafValues>
            -2.4314084649085999e-01 1.2085126340389252e-01</leafValues></_>
        <_>
          <internalNodes>
            0 -1 395 -176240295 1967252857 -194064268 -349800939
            -2027219571 -174500012 -2084926437 -1360845998</internalNodes>
          <leafValues>
            -1.5481761097908020e-01 1.9040553271770477e-01</leafValues></_></weakClassifiers></_>
    <!-- stage 5 -->
    <_>
      <maxWeakCount>52</maxWeakCount>
      <stageThreshold>-1.3241903781890869e+00</stageThreshold>
      <weakClassifiers>
        <_>
          <internalNodes>
            0 -1 503 -239216673 -83245135 -1097089077 -4881307
            -592127797 -99578467 -105067525 -6292737</internalNodes>
          <leafValues>
            -4.0505820512771606e-01 3.3505152910947800e-02</leafValues></_>
        <_>
          <internalNodes>
            0 -1 0 -7515905 -41795 2063136975 1356812799 -46475190
            2097892186 -635765841 -608502017</internalNodes>
          <leafValues>
            -1.5246586501598358e-01 2.1203887462615967e-01</leafValues></_>
        <_>
          <internalNodes>
            0 -1 981 -1079772949 -345026840 603402658 -547625483
            -1079251045 -1884638526 866318167 -4459076</internalNodes>
          <leafValues>
            -1.2560750544071198e-01 2.0990501344203949e-01</leafValues></_>
        <_>
          <internalNodes>
            0 -1 15 -853306881 -205133258 126036315 1970119249
            -721824340 -1099451204 -1930216632 1734561828</internalNodes>
          <leafValues>
            -1.5863364934921265e-01 1.6837757825851440e-01</leafValues></_>
        <_>
          <internalNodes>
            0 -1 1016 -1892611894 -2082005390 1920553151 -767212289
            -1113014260 -899298992 1382739695 -1071972613</internalNodes>
          <leafValues>
            -1.8673734366893768e-01 1.4265240728855133e-01</leafValues></_>
        <_>
          <internalNodes>
            0 -1 341 -207104027 -140278611 -499594719 -1083739387
            -939535173 -72182099 -387395669 -6435329</internalNodes>
          <leafValues>
            -6.6198095679283142e-02 3.1164401769638062e-01</leafValues></_>
        <_>
          <internalNodes>
            0 -1 421 1098285104 289113366 1765542103 1057098258
            1669792917 1072632284 1689932296 220029114</internalNodes>
          <leafValues>
            -2.0068933069705963e-01 1.3174065947532654e-01</leafValues></_>
        <_>
          <internalNodes>
            0 -1 481 1780483332 428388225 -889158908 799444002 676727984
            1523619605 1283853864 4523587</internalNodes>
          <leafValues>
            -2.1981161832809448e-01 1.3010549545288086e-01</leafValues></_>
        <_>
          <internalNodes>
            0 -1 171 -1270564061 -1060075833 1042204139 -197253631
            1161598416 -1860033275 -998371310 867121343</internalNodes>
          <leafValues>
            -2.0670919120311737e-01 1.2047178298234940e-01</leafValues></_>
        <_>
          <internalNodes>
            0 -1 228 -1155804949 61854113 -1812216862 1325651365
            -1679126562 -1350463810 -1489177417 -872426007</internalNodes>
          <leafValues>
            -1.2448285520076752e-01 2.0053133368492126e-01</leafValues></_>
        <_>
          <internalNodes>
            0 -1 755 -631120109 472706930 1013493625 -584015806
            -294019535 -535529755 1947331582 1014354887</internalNodes>
          <leafValues>
            -1.7861609160900116e-01 1.4546796679496765e-01</leafValues></_>
        <_>
          <internalNodes>
            0 -1 867 2019926530 281853014 -919195972 -1385443178
            540042740 2145659332 -791161175 617959943</internalNodes>
          <leafValues>
            -1.9618274271488190e-01 1.3098765909671783e-01</leafValues></_>
        <_>
          <internalNodes>
            0 -1 404 1328237905 -1427507225 1569870565 -127599749
            -319813432 -809731487 -239312568 -355434688</internalNodes>
          <leafValues>
            -1.7990097403526306e-01 1.4117874205112457e-01</leafValues></_>
        <_>
          <internalNodes>
            0 -1 90 1342427136 -804219310 -415003600 1093748753
            1342180737 -1164612137 638851144 71400307</internalNodes>
          <leafValues>
            -2.1379590034484863e-01 1.2723192572593689e-01</leafValues></_>
        <_>
          <internalNodes>
            0 -1 471 -2001862139 1055965798 -1836861839 779788248
            1532970001 2126525974 1590984677 -532644256</internalNodes>
          <leafValues>
            -2.6887375116348267e-01 9.3089044094085693e-02</leafValues></_>
        <_>
          <internalNodes>
            0 -1 996 -185377553 -18146569 -498011557 -620951045
            -1084173745 -665890470 1178008431 -83317345</internalNodes>
          <leafValues>
            -1.2164707481861115e-01 2.1553401648998260e-01</leafValues></_>
        <_>
          <internalNodes>
            0 -1 52 -1860044833 530779023 -1589777963 -1114123323
            -689692419 -1076611786 -1663512897 -236999781</internalNodes>
          <leafValues>
            -1.0200729221105576e-01 2.6571977138519287e-01</leafValues></_>
        <_>
          <internalNodes>
            0 -1 813 1202112050 996379498 1073397091 -1086989329
            -2077146385 -809534532 138923144 -1589181132</internalNodes>
          <leafValues>
            -1.5650764107704163e-01 1.7070539295673370e-01</leafValues></_>
        <_>
          <internalNodes>
            0 -1 897 -544548865 -1498501976 -956664204 2040456564
            -16867895 186510793 -1241848828 -97860112</internalNodes>
          <leafValues>
            -1.4455440640449524e-01 1.7742802202701569e-01</leafValues></_>
        <_>
          <internalNodes>
            0 -1 725 78981215 1008353899 -841081416 -1913655098
            -537116592 -64789598 -960435708 546625138</internalNodes>
          <leafValues>
            -2.2962403297424316e-01 1.0766825079917908e-01</leafValues></_>
        <_>
          <internalNodes>
            0 -1 875 305792 6484976 -810951400 770227730 75571889
            272906682 -1934550440 18156288</internalNodes>
          <leafValues>
            -3.1650158762931824e-01 8.2520782947540283e-02</leafValues></_>
        <_>
          <internalNodes>
            0 -1 847 -704344060 970519586 -1999871948 -1424324856
            -1595880332 1408645970 1244030988 -1373398417</internalNodes>
          <leafValues>
            -1.7557890713214874e-01 1.4414611458778381e-01</leafValues></_>
        <_>
          <internalNodes>
            0 -1 371 -1866786750 -1884998680 1667100914 -381120061
            -236378874 -1400288645 -57625646 -1827172269</internalNodes>
          <leafValues>
            -1.7543835937976837e-01 1.4638057351112366e-01</leafValues></_>
        <_>
          <internalNodes>
            0 -1 299 -178275911 2142772432 948338790 980304821
            -1427641792 2137022978 -886442843 -378628176</internalNodes>
          <leafValues>
            -1.6346611082553864e-01 1.5731148421764374e-01</leafValues></_>
        <_>
          <internalNodes>
            0 -1 736 -959675890 3284330 -1563692133 519983753 1903706149
            1605327018 -1685378379 -2001406506</internalNodes>
          <leafValues>
            -2.2528409957885742e-01 1.1395179480314255e-01</leafValues></_>
        <_>
          <internalNodes>
            0 -1 144 1364393600 1531559474 -45955027 -1853842646
            -196811847 2003157941 -640808225 1626692459</internalNodes>
          <leafValues>
            -1.6154742240905762e-01 1.5911263227462769e-01</leafValues></_>
        <_>
          <internalNodes>
            0 -1 318 -1785407800 840239994 76139304 832906373 2121532815
            279453087 -1016897877 1377371042</internalNodes>
          <leafValues>
            -2.3945519328117371e-01 1.1103718727827072e-01</leafValues></_>
        <_>
          <internalNodes>
            0 -1 401 -802257275 -878571771 -1824888988 784274753
            283936667 -1190883660 -388004965 -1191447545</internalNodes>
          <leafValues>
            -1.4591117203235626e-01 1.7918987572193146e-01</leafValues></_>
        <_>
          <internalNodes>
            0 -1 1002 240543679 766165248 -1484804649 1899282932
            129213129 -119054602 829226710 -90189608</internalNodes>
          <leafValues>
            -1.4148035645484924e-01 1.7443196475505829e-01</leafValues></_>
        <_>
          <internalNodes>
            0 -1 853 -732207068 1898997427 641369882 -517755094
            1980226289 -229776898 1303455947 6636074</internalNodes>
          <leafValues>
            -1.8403455615043640e-01 1.3893890380859375e-01</leafValues></_>
        <_>
          <internalNodes>
            0 -1 161 1000874280 126586944 -124284127 1362481585
            -1279905182 -1882358984 388150321 60624933</internalNodes>
          <leafValues>
            -2.9391893744468689e-01 8.7029770016670227e-02</leafValues></_>
        <_>
          <internalNodes>
            0 -1 909 1791363072 547530058 1224206444 718850890
            1526356294 -1611307134 1870156084 -2065503180</internalNodes>
          <leafValues>
            -2.9281157255172729e-01 8.3437949419021606e-02</leafValues></_>
        <_>
          <internalNodes>
            0 -1 113 1478528524 1010336418 -1593799328 1965063250
            1410544772 -1813548863 1950492585 836058995</internalNodes>
          <leafValues>
            -2.1449232101440430e-01 1.1835927516222000e-01</leafValues></_>
        <_>
          <internalNodes>
            0 -1 825 382339136 199408758 -153308464 -1894650460
            1870022484 -403874333 -1177195316 -2147092955</internalNodes>
          <leafValues>
            -2.2844876348972321e-01 1.1459899693727493e-01</leafValues></_>
        <_>
          <internalNodes>
            0 -1 291 -1832439801 619646686 -1864632714 138445468
            1341999120 -1145475270 1992898540 -461672973</internalNodes>
          <leafValues>
            -1.9879730045795441e-01 1.2721437215805054e-01</leafValues></_>
        <_>
          <internalNodes>
            0 -1 600 1685423781 1348493334 908790320 573091408
            1697924917 810567551 677598154 149882057</internalNodes>
          <leafValues>
            -2.4648775160312653e-01 1.1031567305326462e-01</leafValues></_>
        <_>
          <internalNodes>
            0 -1 210 -488390650 -825821688 -874689310 -632017236
            -105494964 1437470917 -982565148 -1310733</internalNodes>
          <leafValues>
            -1.5544302761554718e-01 1.6768899559974670e-01</leafValues></_>
        <_>
          <internalNodes>
            0 -1 975 -91853553 360154908 -1141018986 -164054915
            -473973688 -1186618621 -1096390178 -57743050</internalNodes>
          <leafValues>
            -1.3355301320552826e-01 1.8918535113334656e-01</leafValues></_>
        <_>
          <internalNodes>
            0 -1 81 -1067325774 273798352 1988500652 929161077
            1080494265 -356704893 -931422678 137713939</internalNodes>
          <leafValues>
            -1.7057587206363678e-01 1.4880312979221344e-01</leafValues></_>
        <_>
          <internalNodes>
            0 -1 532 1380251615 -742869033 -1807767135 -34872423
            1145677297 -90661915 -692720933 -242255792</internalNodes>
          <leafValues>
            -9.5893099904060364e-02 2.6335406303405762e-01</leafValues></_>
        <_>
          <internalNodes>
            0 -1 28 2099859705 -33600271 1358921333 -204769813
            -1232417190 2135300941 -103088498 -609288193</internalNodes>
          <leafValues>
            -1.0668240487575531e-01 2.3678353428840637e-01</leafValues></_>
        <_>
          <internalNodes>
            0 -1 313 -563828311 -1741838538 -402819135 -1921622866
            1156308393 -185424457 -505673748 -221957817</internalNodes>
          <leafValues>
            -1.3368862867355347e-01 1.9312150776386261e-01</leafValues></_>
        <_>
          <internalNodes>
            0 -1 351 1158144647 1056829219 -339811307 -1989085598
            1456751852 -485566739 -2054167426 1928373088</internalNodes>
          <leafValues>
            -1.6841347515583038e-01 1.5588952600955963e-01</leafValues></_>
        <_>
          <internalNodes>
            0 -1 264 1202663221 -1570577055 -100573575 -517492623
            15505816 -1356077588 -131839859 754340710</internalNodes>
          <leafValues>
            -1.6826461255550385e-01 1.5168833732604980e-01</leafValues></_>
        <_>
          <internalNodes>
            0 -1 879 -1741422026 145001256 -1403004268 418817972
            713885525 -370911239 301884052 -1126933404</internalNodes>
          <leafValues>
            -2.6434656977653503e-01 1.0006529092788696e-01</leafValues></_>
        <_>
          <internalNodes>
            0 -1 151 -1329853431 -1143108111 -117466255 -1106344080
            -1097822719 1669945639 931198081 -1399569223</internalNodes>
          <leafValues>
            -2.0210294425487518e-01 1.2966494262218475e-01</leafValues></_>
        <_>
          <internalNodes>
            0 -1 881 -662388210 939569427 -205419096 17294645 381932522
            -1471041100 -2118844019 1893722382</internalNodes>
          <leafValues>
            -1.6360357403755188e-01 1.6270890831947327e-01</leafValues></_>
        <_>
          <internalNodes>
            0 -1 450 671135488 -1396527936 -101669192 -1225992342
            108538373 -1397005144 -20944562 -254544921</internalNodes>
          <leafValues>
            -2.2293637692928314e-01 1.1157201975584030e-01</leafValues></_>
        <_>
          <internalNodes>
            0 -1 563 -506747957 120110600 -1528437875 531564496
            -298579781 -1701313596 -879210910 53961562</internalNodes>
          <leafValues>
            -1.7632317543029785e-01 1.4971107244491577e-01</leafValues></_>
        <_>
          <internalNodes>
            0 -1 308 -747393515 2065726750 -977655003 -920572182
            -2131995396 -1453427136 -353018674 65240847</internalNodes>
          <leafValues>
            -1.3586838543415070e-01 1.9105717539787292e-01</leafValues></_>
        <_>
          <internalNodes>
            0 -1 660 462425345 724733136 -1958577548 -809377676
            1987332150 -152451105 1895082500 -86527049</internalNodes>
          <leafValues>
            -1.7772077023983002e-01 1.4933925867080688e-01</leafValues></_>
        <_>
          <internalNodes>
            0 -1 1017 769002948 -1998868254 -1832230166 -499299345
            -529917426 -1606461418 1513769775 2064152943</internalNodes>
          <leafValues>
            -2.5411432981491089e-01 1.0143712162971497e-01</leafValues></_></weakClassifiers></_>
    <!-- stage 6 -->
    <_>
      <maxWeakCount>54</maxWeakCount>
      <stageThreshold>-1.2760150432586670e+00</stageThreshold>
      <weakClassifiers>
        <_>
          <internalNodes>
            0 -1 509 -210643457 2076176045 -864092623 -135273403
            -944190321 -223030799 -1931806541 -33557505</internalNodes>
          <leafValues>
            -4.0504834055900574e-01 -3.4069228917360306e-02</leafValues></_>
        <_>
          <internalNodes>
            0 -1 997 -1214060037 -1423445848 -238575264 1601657301
            -1313095717 187410474 856532983 1600079089</internalNodes>
          <leafValues>
            -2.0267745852470398e-01 1.3121956586837769e-01</leafValues></_>
        <_>
          <internalNodes>
            0 -1 431 -217850483 -92248138 -75086727 -410753920
            2054208970 2026375262 -1207474102 1888184539</internalNodes>
          <leafValues>
            -1.6312418878078461e-01 1.4447833597660065e-01</leafValues></_>
        <_>
          <internalNodes>
            0 -1 637 -1743965660 1497149985 -2054414865 -2081669078
            714880418 954741233 734596650 69537283</internalNodes>
          <leafValues>
            -2.1501995623111725e-01 1.1105229705572128e-01</leafValues></_>
        <_>
          <internalNodes>
            0 -1 162 -139732501 -845031264 -1463426528 -47975647
            -1485572881 -877678837 643146135 -671090769</internalNodes>
          <leafValues>
            -9.0869799256324768e-02 2.2704502940177917e-01</leafValues></_>
        <_>
          <internalNodes>
            0 -1 130 1155601668 407931958 489071755 -1742672446 7685312
            552808804 -127923142 403011347</internalNodes>
          <leafValues>
            -2.3698368668556213e-01 1.1688107252120972e-01</leafValues></_>
        <_>
          <internalNodes>
            0 -1 948 1087825638 336603082 -1047380930 276045986
            -670799436 -1073474828 -456240667 80031487</internalNodes>
          <leafValues>
            -2.1376247704029083e-01 1.0573659092187881e-01</leafValues></_>
        <_>
          <internalNodes>
            0 -1 70 -139397316 -1459184879 1913056263 1428121103
            1076769183 420840679 1116472875 1236136471</internalNodes>
          <leafValues>
            -1.7687691748142242e-01 1.3547500967979431e-01</leafValues></_>
        <_>
          <internalNodes>
            0 -1 630 -660698279 431129785 -1148024012 57576130 524946588
            448403903 1055660956 -1472712704</internalNodes>
          <leafValues>
            -1.7926399409770966e-01 1.3058193027973175e-01</leafValues></_>
        <_>
          <internalNodes>
            0 -1 982 -1626678887 -410810784 -50334158 -763481611
            260633998 -1639437015 -1284507981 -14954052</internalNodes>
          <leafValues>
            -1.2616194784641266e-01 1.8518710136413574e-01</leafValues></_>
        <_>
          <internalNodes>
            0 -1 3 -703204287 -575134704 1024758904 2137336132 795054544
            821660145 194740744 682045474</internalNodes>
          <leafValues>
            -1.6350956261157990e-01 1.4373710751533508e-01</leafValues></_>
        <_>
          <internalNodes>
            0 -1 315 -295321681 -1194007131 -1348416333 -1384782303
            -1262513718 -1812351551 -1633448278 -1967403221</internalNodes>
          <leafValues>
            -1.1924453824758530e-01 2.0324085652828217e-01</leafValues></_>
        <_>
          <internalNodes>
            0 -1 246 -2067961471 736036112 -342009162 1343308924
            -52149760 1768868064 -864322572 -471167436</internalNodes>
          <leafValues>
            -1.8617713451385498e-01 1.2608677148818970e-01</leafValues></_>
        <_>
          <internalNodes>
            0 -1 918 780608033 -1461395588 1862391792 2046736375
            742326866 1309895947 1044277156 -321061132</internalNodes>
          <leafValues>
            -2.0784522593021393e-01 1.0590781271457672e-01</leafValues></_>
        <_>
          <internalNodes>
            0 -1 1016 -4694861 -105415977 -1703815041 1883985903
            -1916870130 -880871076 -797380865 -350556961</internalNodes>
          <leafValues>
            -1.1518184840679169e-01 1.9659018516540527e-01</leafValues></_>
        <_>
          <internalNodes>
            0 -1 208 -1327827983 1594406604 -1831159774 -5058369
            267277697 310937057 1273134337 1727517284</internalNodes>
          <leafValues>
            -1.7231251299381256e-01 1.3738609850406647e-01</leafValues></_>
        <_>
          <internalNodes>
            0 -1 703 959578125 720990099 -1226517006 1655694841
            140268068 1605851391 -27616459 -53960747</internalNodes>
          <leafValues>
            -2.1171766519546509e-01 1.0901177674531937e-01</leafValues></_>
        <_>
          <internalNodes>
            0 -1 872 1083093466 945846808 -1404902395 -1075082069
            1246168720 217944816 1641365652 138748994</internalNodes>
          <leafValues>
            -2.1734808385372162e-01 1.1039878427982330e-01</leafValues></_>
        <_>
          <internalNodes>
            0 -1 628 -1869896309 -1177309815 -1902072443 -345907166
            1386063035 1593663423 -118157939 698306312</internalNodes>
          <leafValues>
            -1.4275671541690826e-01 1.6275274753570557e-01</leafValues></_>
        <_>
          <internalNodes>
            0 -1 933 1892991492 -265778570 1277339580 420480022
            839035588 944245125 990681258 7538226</internalNodes>
          <leafValues>
            -1.9724029302597046e-01 1.1663267761468887e-01</leafValues></_>
        <_>
          <internalNodes>
            0 -1 525 630333440 -1398131936 1638585712 106887388
            1596227416 1305352309 -1984875086 -1003389856</internalNodes>
          <leafValues>
            -2.6872876286506653e-01 8.4333650767803192e-02</leafValues></_>
        <_>
          <internalNodes>
            0 -1 159 -1082613983 -1423494936 1560008545 1595755137
            -1625683102 -1891378368 -1819101262 -767699459</internalNodes>
          <leafValues>
            -1.6335923969745636e-01 1.4059156179428101e-01</leafValues></_>
        <_>
          <internalNodes>
            0 -1 367 -934879216 1010191126 -1052702437 -1482412500
            1634226831 886227612 -736941414 1677193166</internalNodes>
          <leafValues>
            -1.6707517206668854e-01 1.4095328748226166e-01</leafValues></_>
        <_>
          <internalNodes>
            0 -1 476 -1841559997 -1078837789 2088234740 -1730281351
            -1131800505 829086068 -1119686978 -27105762</internalNodes>
          <leafValues>
            -1.5525157749652863e-01 1.4898946881294250e-01</leafValues></_>
        <_>
          <internalNodes>
            0 -1 463 -2138462416 -1965429418 276926302 -424753449
            1719660468 576012537 -35774756 -401072348</internalNodes>
          <leafValues>
            -1.9832579791545868e-01 1.1679804325103760e-01</leafValues></_>
        <_>
          <internalNodes>
            0 -1 24 805343387 1889953454 391199756 -140425724 -587868712
            -1320128630 -1201779026 1085284490</internalNodes>
          <leafValues>
            -1.9383537769317627e-01 1.1763900518417358e-01</leafValues></_>
        <_>
          <internalNodes>
            0 -1 337 -1035302903 -1301355425 1048045615 -1074531808
            -9463972 -288690268 1693935658 -21088481</internalNodes>
          <leafValues>
            -1.2550571560859680e-01 1.8916256725788116e-01</leafValues></_>
        <_>
          <internalNodes>
            0 -1 277 1250887202 682278030 1937003264 1625193624
            1285751316 227359111 1200892564 -453811408</internalNodes>
          <leafValues>
            -2.4933765828609467e-01 8.9841999113559723e-02</leafValues></_>
        <_>
          <internalNodes>
            0 -1 980 -1292430965 -152633114 -83889561 -755022677
            -1234554289 -1895164067 -7151761 -208406593</internalNodes>
          <leafValues>
            -1.2386430054903030e-01 1.9037826359272003e-01</leafValues></_>
        <_>
          <internalNodes>
            0 -1 153 -419921913 -1298145016 1510571531 -1649300673
            -838499152 -159154310 -1405542418 -370821897</internalNodes>
          <leafValues>
            -1.1660308390855789e-01 1.9854243099689484e-01</leafValues></_>
        <_>
          <internalNodes>
            0 -1 432 -1548779343 1059740594 1052384478 -127482050
            -1164217536 -1105044712 1352950756 -2093604251</internalNodes>
          <leafValues>
            -1.9019126892089844e-01 1.2130005657672882e-01</leafValues></_>
        <_>
          <internalNodes>
            0 -1 48 1114678020 203878124 932376377 1474201603 1152722323
            882942690 -1865342963 -520643534</internalNodes>
          <leafValues>
            -1.7366744577884674e-01 1.3498328626155853e-01</leafValues></_>
        <_>
          <internalNodes>
            0 -1 949 -96211377 -1252354507 -1080023370 498773607
            873744326 -551487597 905231594 -1292639641</internalNodes>
          <leafValues>
            -1.2515453994274139e-01 1.9060137867927551e-01</leafValues></_>
        <_>
          <internalNodes>
            0 -1 20 -776938017 -1256872285 1070389132 -1399119119
            -346352423 1176847861 1043993 974198835</internalNodes>
          <leafValues>
            -1.6217789053916931e-01 1.4485238492488861e-01</leafValues></_>
        <_>
          <internalNodes>
            0 -1 709 -438354861 1068575807 -1036245501 -385271733
            -1714224194 -1139442058 -357221169 -834147449</internalNodes>
          <leafValues>
            -1.2427400052547455e-01 1.9891655445098877e-01</leafValues></_>
        <_>
          <internalNodes>
            0 -1 631 -1366423020 -1949030210 1792985900 -1495903489
            1012143916 -774374574 -1166377836 -1413846672</internalNodes>
          <leafValues>
            -2.0828722417354584e-01 1.2274394929409027e-01</leafValues></_>
        <_>
          <internalNodes>
            0 -1 267 -1037589022 42111703 -196715568 -1400709292
            654052802 -1396665371 -1090921624 -385797630</internalNodes>
          <leafValues>
            -1.7501521110534668e-01 1.3270242512226105e-01</leafValues></_>
        <_>
          <internalNodes>
            0 -1 2 -13242157 958854894 1348198650 -1871633598 1148888584
            864638733 720027128 -491800529</internalNodes>
          <leafValues>
            -1.3447333872318268e-01 1.7216350138187408e-01</leafValues></_>
        <_>
          <internalNodes>
            0 -1 788 706084880 104732823 1929352244 744679040
            -1665833456 -1400821096 -450163696 -2144314832</internalNodes>
          <leafValues>
            -3.3045938611030579e-01 7.0791490375995636e-02</leafValues></_>
        <_>
          <internalNodes>
            0 -1 818 -631839998 949256958 -1349513892 -2071863744
            945348946 23510242 169413770 539131234</internalNodes>
          <leafValues>
            -2.4389025568962097e-01 1.0198443382978439e-01</leafValues></_>
        <_>
          <internalNodes>
            0 -1 504 -768637691 -224064751 758433408 -952221579
            -2132488797 -394030305 -1903110709 2103964215</internalNodes>
          <leafValues>
            -1.5783616900444031e-01 1.5423253178596497e-01</leafValues></_>
        <_>
          <internalNodes>
            0 -1 737 681738820 329129870 876130317 -1560495983 -9154475
            2144750076 1609554481 -1908080940</internalNodes>
          <leafValues>
            -2.2425763309001923e-01 1.0643829405307770e-01</leafValues></_>
        <_>
          <internalNodes>
            0 -1 689 145362192 -2023713999 -150131216 -2034869334
            -751817369 -1569629330 874342708 -1543241464</internalNodes>
          <leafValues>
            -3.0905354022979736e-01 6.9107711315155029e-02</leafValues></_>
        <_>
          <internalNodes>
            0 -1 639 -880165626 307142406 -2141564372 998824708
            1819981545 268745690 415930920 103568914</internalNodes>
          <leafValues>
            -2.1465297043323517e-01 1.0480281710624695e-01</leafValues></_>
        <_>
          <internalNodes>
            0 -1 302 -418581854 1343798429 1971421656 -1211938408
            145908887 207627838 -1057125304 1119948615</internalNodes>
          <leafValues>
            -1.7601889371871948e-01 1.3497924804687500e-01</leafValues></_>
        <_>
          <internalNodes>
            0 -1 353 2087657491 963873556 -228700172 -617355707
            -851047269 1008751924 -272888036 669603542</internalNodes>
          <leafValues>
            -1.7673975229263306e-01 1.3398742675781250e-01</leafValues></_>
        <_>
          <internalNodes>
            0 -1 161 -1626098767 -1959839616 -299969696 1393005729
            501934545 -1890754284 846308118 1866436689</internalNodes>
          <leafValues>
            -1.9146110117435455e-01 1.2068925052881241e-01</leafValues></_>
        <_>
          <internalNodes>
            0 -1 158 1372254309 -1280609225 -925883834 228878770
            1484332202 661809848 1642284873 220296150</internalNodes>
          <leafValues>
            -1.6186554729938507e-01 1.5391024947166443e-01</leafValues></_>
        <_>
          <internalNodes>
            0 -1 252 1456435619 1626457135 1333668349 -1082342667
            -952384065 -1343436987 -1403659110 -1460327461</internalNodes>
          <leafValues>
            -1.1951715499162674e-01 2.0913527905941010e-01</leafValues></_>
        <_>
          <internalNodes>
            0 -1 696 322717713 -1961824351 -2091701566 -1382096819
            -130070896 -1708015172 -1653327744 -323698971</internalNodes>
          <leafValues>
            -1.9135221838951111e-01 1.2480274587869644e-01</leafValues></_>
        <_>
          <internalNodes>
            0 -1 433 144869773 961281809 -409078072 -1612926587
            718896380 -1428684319 -178362649 -1931262720</internalNodes>
          <leafValues>
            -1.7496365308761597e-01 1.3554048538208008e-01</leafValues></_>
        <_>
          <internalNodes>
            0 -1 0 1601983546 1066208512 1253695659 1347355389
            -634890176 998271818 20629235 716893144</internalNodes>
          <leafValues>
            -2.3441845178604126e-01 9.7727134823799133e-02</leafValues></_>
        <_>
          <internalNodes>
            0 -1 863 -772869954 886809805 1697444150 -1349535198
            -838869378 1941731173 -168413185 -325749894</internalNodes>
          <leafValues>
            -1.2809035181999207e-01 1.9172079861164093e-01</leafValues></_>
        <_>
          <internalNodes>
            0 -1 923 1680926427 281276674 -100664956 -614144479
            415251941 1022741703 -505977826 -1825084345</internalNodes>
          <leafValues>
            -1.3842828571796417e-01 1.7082306742668152e-01</leafValues></_></weakClassifiers></_>
    <!-- stage 7 -->
    <_>
      <maxWeakCount>60</maxWeakCount>
      <stageThreshold>-1.3147112131118774e+00</stageThreshold>
      <weakClassifiers>
        <_>
          <internalNodes>
            0 -1 493 -239871489 899806015 -1267938340 -275660576
            -100803121 2107196087 -466035046 -68162821</internalNodes>
          <leafValues>
            -4.0773999691009521e-01 -5.6979347020387650e-02</leafValues></_>
        <_>
          <internalNodes>
            0 -1 999 -1078788613 -410526616 846652387 -80776719
            -1078198389 -1917859414 587986871 -545533448</internalNodes>
          <leafValues>
            -1.4405697584152222e-01 1.8501704931259155e-01</leafValues></_>
        <_>
          <internalNodes>
            0 -1 27 -242156340 865680168 395208067 586484963 615252106
            9786821 -1339418085 2424835</internalNodes>
          <leafValues>
            -3.1838205456733704e-01 7.5561814010143280e-02</leafValues></_>
        <_>
          <internalNodes>
            0 -1 514 595660849 713080000 -331391464 -295635152
            -397934247 -118450185 -346269106 -318768269</internalNodes>
          <leafValues>
            -1.4728993177413940e-01 1.7384649813175201e-01</leafValues></_>
        <_>
          <internalNodes>
            0 -1 1017 -88846081 -32886327 1891234407 -756057905
            2145950218 -600686038 815453935 1385856767</internalNodes>
          <leafValues>
            -1.6437155008316040e-01 1.4885443449020386e-01</leafValues></_>
        <_>
          <internalNodes>
            0 -1 183 1150601115 1970011792 133277181 -638734420
            -1058697827 -121741644 210583694 -797638086</internalNodes>
          <leafValues>
            -1.2722273170948029e-01 1.6913905739784241e-01</leafValues></_>
        <_>
          <internalNodes>
            0 -1 164 -543208261 -2803457 -1866503538 1660636623
            -561364401 -331129053 2048589822 -73730369</internalNodes>
          <leafValues>
            -9.7119770944118500e-02 2.1408504247665405e-01</leafValues></_>
        <_>
          <internalNodes>
            0 -1 265 1520169201 -116480705 1352582181 -46586588
            1147963537 747488421 -393065330 1979583060</internalNodes>
          <leafValues>
            -1.5340016782283783e-01 1.3793577253818512e-01</leafValues></_>
        <_>
          <internalNodes>
            0 -1 871 424598991 277926741 1873997818 -1889682693
            1228014998 1979140486 1694058577 3638382</internalNodes>
          <leafValues>
            -1.7816184461116791e-01 1.2203211337327957e-01</leafValues></_>
        <_>
          <internalNodes>
            0 -1 765 411961423 970252178 427205177 1072625305
            -1628886987 -21025434 -392168587 -726796299</internalNodes>
          <leafValues>
            -1.6628392040729523e-01 1.2780818343162537e-01</leafValues></_>
        <_>
          <internalNodes>
            0 -1 296 -356015096 623148139 -492372228 -136100526
            1735459407 455217374 -433167625 -994589193</internalNodes>
          <leafValues>
            -1.8177020549774170e-01 1.1848727613687515e-01</leafValues></_>
        <_>
          <internalNodes>
            0 -1 377 -2071230400 503747368 483774200 -1519601776
            1308886956 -2010451276 -1670370488 752221730</internalNodes>
          <leafValues>
            -2.1446971595287323e-01 9.9715039134025574e-02</leafValues></_>
        <_>
          <internalNodes>
            0 -1 306 -489454115 -1256510408 -1958214907 -1381357528
            2044540922 955700644 -931643124 1685726216</internalNodes>
          <leafValues>
            -1.6573046147823334e-01 1.2867930531501770e-01</leafValues></_>
        <_>
          <internalNodes>
            0 -1 414 -58854949 -1254779333 1332098433 -446521487
            -3456097 1574720669 -89274226 -1079013654</internalNodes>
          <leafValues>
            -9.7775742411613464e-02 2.3336705565452576e-01</leafValues></_>
        <_>
          <internalNodes>
            0 -1 983 -2103915935 -1490366368 270807154 808462496
            34746121 -1423355688 842494127 -166017856</internalNodes>
          <leafValues>
            -1.7002670466899872e-01 1.2582485377788544e-01</leafValues></_>
        <_>
          <internalNodes>
            0 -1 649 -499808033 -620722234 -1434531268 -812562702
            1022444470 -1169082521 -1766510344 2143251199</internalNodes>
          <leafValues>
            -1.2249559909105301e-01 1.7803883552551270e-01</leafValues></_>
        <_>
          <internalNodes>
            0 -1 995 -1413611281 -1963523921 -165152521 2023033477
            -1106765112 -683847862 1635446174 -553458945</internalNodes>
          <leafValues>
            -1.4504684507846832e-01 1.4591297507286072e-01</leafValues></_>
        <_>
          <internalNodes>
            0 -1 91 -554508307 15985500 1822578061 -639374425 1839682432
            1984587670 1484208141 -1996659886</internalNodes>
          <leafValues>
            -1.3955664634704590e-01 1.5136198699474335e-01</leafValues></_>
        <_>
          <internalNodes>
            0 -1 749 -117490875 942673717 -701579835 -1923804299
            334797739 -1325854986 -13681046 -1406681558</internalNodes>
          <leafValues>
            -1.2649323046207428e-01 1.7017683386802673e-01</leafValues></_>
        <_>
          <internalNodes>
            0 -1 112 1120852104 1347781464 1360119850 -1267413226
            1590117628 2024880396 1701657855 -436917661</internalNodes>
          <leafValues>
            -1.4253336191177368e-01 1.4361530542373657e-01</leafValues></_>
        <_>
          <internalNodes>
            0 -1 958 -292901760 553299559 -91254662 -1832250564
            1626816813 208827853 -489134112 -454593321</internalNodes>
          <leafValues>
            -2.2221897542476654e-01 9.4924263656139374e-02</leafValues></_>
        <_>
          <internalNodes>
            0 -1 776 1243920276 310149281 -1902260817 -1448352543
            1495617509 280650161 1688754333 416635480</internalNodes>
          <leafValues>
            -1.8236297369003296e-01 1.1275604367256165e-01</leafValues></_>
        <_>
          <internalNodes>
            0 -1 237 -173808209 -216996683 662521596 -814255325
            -520388465 -1543731739 -744925496 464707803</internalNodes>
          <leafValues>
            -1.2929677963256836e-01 1.6612522304058075e-01</leafValues></_>
        <_>
          <internalNodes>
            0 -1 578 1886045321 1631316861 -761633568 -826547095
            209505346 -742882379 -1976154092 1685600116</internalNodes>
          <leafValues>
            -1.9865989685058594e-01 1.0816957801580429e-01</leafValues></_>
        <_>
          <internalNodes>
            0 -1 344 -776024163 -241335876 -1238413316 -683031155
            -963670178 -208910870 -1597645057 -34652199</internalNodes>
          <leafValues>
            -8.6430348455905914e-02 2.4345251917839050e-01</leafValues></_>
        <_>
          <internalNodes>
            0 -1 931 -623709605 -351940564 294720384 -71506806
            -646558759 47881741 669508592 1927280631</internalNodes>
          <leafValues>
            -1.5577787160873413e-01 1.3816189765930176e-01</leafValues></_>
        <_>
          <internalNodes>
            0 -1 148 -1086689888 -1749525824 636132214 -1354771005
            -1753048876 -578999698 -1194265895 -1926280751</internalNodes>
          <leafValues>
            -1.5944226086139679e-01 1.3279840350151062e-01</leafValues></_>
        <_>
          <internalNodes>
            0 -1 570 -1879308239 -1438500954 -1208551914 -393702479
            1469140288 -1679365583 -740892011 -999026207</internalNodes>
          <leafValues>
            -2.2336627542972565e-01 9.1728255152702332e-02</leafValues></_>
        <_>
          <internalNodes>
            0 -1 41 1839471920 -1657845712 250246495 -1153026068
            -1945727960 -1976897213 -1205123954 582109303</internalNodes>
          <leafValues>
            -1.8869984149932861e-01 1.1172109842300415e-01</leafValues></_>
        <_>
          <internalNodes>
            0 -1 373 -47186437 -1558392 -1101218294 852137392 -889522682
            440496167 -291900492 -877966284</internalNodes>
          <leafValues>
            -1.3234078884124756e-01 1.5792928636074066e-01</leafValues></_>
        <_>
          <internalNodes>
            0 -1 784 1902381058 140520880 1036039206 742711936
            1551657812 -468944352 -18337701 281148</internalNodes>
          <leafValues>
            -3.3598679304122925e-01 6.2171168625354767e-02</leafValues></_>
        <_>
          <internalNodes>
            0 -1 938 1881197152 -1306333538 -2143158314 701813610
            1147484224 -1194007612 925647435 229861866</internalNodes>
          <leafValues>
            -1.8852095305919647e-01 1.1437498033046722e-01</leafValues></_>
        <_>
          <internalNodes>
            0 -1 811 563217445 247495144 -1325652688 302020152 582503429
            665107314 -1914901131 -1930674060</internalNodes>
          <leafValues>
            -2.6055449247360229e-01 8.3713583648204803e-02</leafValues></_>
        <_>
          <internalNodes>
            0 -1 602 1619409672 386060278 -809083014 -288381243
            1115310517 1001900729 -642593906 -1602926425</internalNodes>
          <leafValues>
            -1.5392158925533295e-01 1.4147904515266418e-01</leafValues></_>
        <_>
          <internalNodes>
            0 -1 821 2089255615 1068606252 -243926622 -1088301533
            1146979977 -37363721 -258216337 -1932139657</internalNodes>
          <leafValues>
            -1.1724641174077988e-01 1.8458764255046844e-01</leafValues></_>
        <_>
          <internalNodes>
            0 -1 987 -1503172057 -2108752643 1582909720 -225020478
            -1161100268 1857497213 1025423076 -391084714</internalNodes>
          <leafValues>
            -1.7835800349712372e-01 1.2233541160821915e-01</leafValues></_>
        <_>
          <internalNodes>
            0 -1 360 -731066913 848192818 202322152 716633830 1485985582
            1046841980 -1329182 -163681193</internalNodes>
          <leafValues>
            -1.6901355981826782e-01 1.2327664345502853e-01</leafValues></_>
        <_>
          <internalNodes>
            0 -1 708 1211947286 -1314194058 766678730 -1449674529
            161945004 1001699516 1069812445 269610243</internalNodes>
          <leafValues>
            -1.6354674100875854e-01 1.3481344282627106e-01</leafValues></_>
        <_>
          <internalNodes>
            0 -1 720 178786304 619718726 -1797996474 -1394299808
            2101089860 484580183 -1129031164 2400496</internalNodes>
          <leafValues>
            -4.3162834644317627e-01 4.7011807560920715e-02</leafValues></_>
        <_>
          <internalNodes>
            0 -1 59 -593236016 -1205338960 -1376856783 -1083584992
            1074464998 989820599 560726186 -108703087</internalNodes>
          <leafValues>
            -1.4142966270446777e-01 1.5959157049655914e-01</leafValues></_>
        <_>
          <internalNodes>
            0 -1 452 -1971573927 778157027 -358921611 -1833830768
            -422684835 -1368881002 -1494886372 1840370239</internalNodes>
          <leafValues>
            -1.6436176002025604e-01 1.2901316583156586e-01</leafValues></_>
        <_>
          <internalNodes>
            0 -1 175 293745376 -744132726 -1580978248 -1760079214
            -504978252 52015412 -976483661 886098450</internalNodes>
          <leafValues>
            -2.0568405091762543e-01 1.0559865087270737e-01</leafValues></_>
        <_>
          <internalNodes>
            0 -1 554 -265297721 -102600900 1094614060 -1182792448
            950749191 1654200223 -1476040981 2034591998</internalNodes>
          <leafValues>
            -1.6072420775890350e-01 1.3358645141124725e-01</leafValues></_>
        <_>
          <internalNodes>
            0 -1 833 671479338 720951844 1566565490 1496501998
            1588292674 2125929129 2004768576 -454755914</internalNodes>
          <leafValues>
            -2.2758908569812775e-01 9.8975934088230133e-02</leafValues></_>
        <_>
          <internalNodes>
            0 -1 1015 -122141458 -287882641 -1432501671 -659661189
            -15990260 -814456831 -559490113 -770138953</internalNodes>
          <leafValues>
            -1.4648905396461487e-01 1.4721573889255524e-01</leafValues></_>
        <_>
          <internalNodes>
            0 -1 543 302231795 463670536 -976159455 -369152272 546807275
            544601279 -431629108 1001195275</internalNodes>
          <leafValues>
            -1.4962100982666016e-01 1.4268055558204651e-01</leafValues></_>
        <_>
          <internalNodes>
            0 -1 371 -140781179 -510951519 -1283990558 2035539176
            -1093021193 148536811 -147990569 -883191557</internalNodes>
          <leafValues>
            -9.1491654515266418e-02 2.3651285469532013e-01</leafValues></_>
        <_>
          <internalNodes>
            0 -1 220 1098121238 943424563 1161338388 723559938
            1686185114 828850984 -210821590 1159070243</internalNodes>
          <leafValues>
            -2.3333697021007538e-01 9.5690235495567322e-02</leafValues></_>
        <_>
          <internalNodes>
            0 -1 650 2137386399 -238971946 -822018187 -806663345
            1147666319 -393681986 -635143445 -2662725</internalNodes>
          <leafValues>
            -7.6347723603248596e-02 2.9185751080513000e-01</leafValues></_>
        <_>
          <internalNodes>
            0 -1 677 -307634017 1608347429 1744120981 -1083560018
            -1124812587 805287935 -1529680724 -1594979758</internalNodes>
          <leafValues>
            -1.0968971252441406e-01 1.9741910696029663e-01</leafValues></_>
        <_>
          <internalNodes>
            0 -1 604 -409874841 -1410359171 994969899 -1968127676
            1354353703 -735856020 1031023670 300238386</internalNodes>
          <leafValues>
            -1.5235827863216400e-01 1.4232817292213440e-01</leafValues></_>
        <_>
          <internalNodes>
            0 -1 692 850099033 -1461065607 -403407969 -1345389386
            -488344899 -402801153 -970260850 -1367377374</internalNodes>
          <leafValues>
            -1.4536431431770325e-01 1.5489971637725830e-01</leafValues></_>
        <_>
          <internalNodes>
            0 -1 40 2134464733 -706917313 2028902611 -1032896529
            1975505534 -672227645 -1118781969 -4282369</internalNodes>
          <leafValues>
            -9.6783772110939026e-02 2.2547480463981628e-01</leafValues></_>
        <_>
          <internalNodes>
            0 -1 226 -1288658711 -1423741979 -205622815 1014349097
            -1853912090 -318289125 -153094420 -606407947</internalNodes>
          <leafValues>
            -1.2146223336458206e-01 1.8297080695629120e-01</leafValues></_>
        <_>
          <internalNodes>
            0 -1 955 -290486481 2083235775 -1141377542 972398829
            2144777729 1452031827 -1258915902 -1377569082</internalNodes>
          <leafValues>
            -1.2017630040645599e-01 1.8572783470153809e-01</leafValues></_>
        <_>
          <internalNodes>
            0 -1 1011 -2136978815 -1368423554 2096626993 -253612108
            1962721014 -2094058291 -169952803 -1180115269</internalNodes>
          <leafValues>
            -1.4780086278915405e-01 1.5314152836799622e-01</leafValues></_>
        <_>
          <internalNodes>
            0 -1 212 1866973959 811977951 -1347008013 1434471601
            -861104683 624803220 -352506645 -913981946</internalNodes>
          <leafValues>
            -1.3131752610206604e-01 1.8075656890869141e-01</leafValues></_>
        <_>
          <internalNodes>
            0 -1 244 -113206881 -1125400899 -407036507 -14084283
            -67310625 2069321633 1034611419 -632829557</internalNodes>
          <leafValues>
            -9.0281166136264801e-02 2.4297353625297546e-01</leafValues></_>
        <_>
          <internalNodes>
            0 -1 39 1912274756 1998524046 -1814924342 -983355163
            1310205411 -202066233 1241847307 71246523</internalNodes>
          <leafValues>
            -1.9914719462394714e-01 1.1440538614988327e-01</leafValues></_>
        <_>
          <internalNodes>
            0 -1 997 1050339562 -2102400664 -1033232350 911642824
            -1481614421 53717531 -1291193483 838636644</internalNodes>
          <leafValues>
            -2.5014615058898926e-01 9.1616898775100708e-02</leafValues></_></weakClassifiers></_>
    <!-- stage 8 -->
    <_>
      <maxWeakCount>60</maxWeakCount>
      <stageThreshold>-1.2789969444274902e+00</stageThreshold>
      <weakClassifiers>
        <_>
          <internalNodes>
            0 -1 161 -1112277269 -818956055 -34212365 2012606869
            -1142162502 -1917850657 -1217678425 -541077091</internalNodes>
          <leafValues>
            -4.3000000715255737e-01 -1.4015999436378479e-01</leafValues></_>
        <_>
          <internalNodes>
            0 -1 342 -214108771 -1021465433 -265154015 -209992139
            -2031352434 -1155758108 -479549029 -257735820</internalNodes>
          <leafValues>
            -1.4189517498016357e-01 1.6313824057579041e-01</leafValues></_>
        <_>
          <internalNodes>
            0 -1 998 -1465892647 1961842872 431976849 1393774853
            -1473873188 452804409 119489723 -1434758219</internalNodes>
          <leafValues>
            -1.5769399702548981e-01 1.3613384962081909e-01</leafValues></_>
        <_>
          <internalNodes>
            0 -1 354 1757931487 -1170277610 1441397758 -2113770970
            1542162684 907834354 1776971710 -76482702</internalNodes>
          <leafValues>
            -1.2414277344942093e-01 1.6106355190277100e-01</leafValues></_>
        <_>
          <internalNodes>
            0 -1 68 -1857702093 -613187437 918607406 -611619621
            1729763259 -1619185257 153889343 1052742383</internalNodes>
          <leafValues>
            -8.9384771883487701e-02 2.1290548145771027e-01</leafValues></_>
        <_>
          <internalNodes>
            0 -1 405 -192690779 779913636 2062082633 -1166147982
            -320879109 -73872227 -65663 -274017424</internalNodes>
          <leafValues>
            -1.2950229644775391e-01 1.5850719809532166e-01</leafValues></_>
        <_>
          <internalNodes>
            0 -1 644 -198883641 -1340944652 -463040827 -1558051982
            -30023789 2022863231 1650163051 30360546</internalNodes>
          <leafValues>
            -1.7062343657016754e-01 1.1112618446350098e-01</leafValues></_>
        <_>
          <internalNodes>
            0 -1 0 -686925585 -138456024 1185694318 48452094 -609724349
            -80198840 1249439902 330957566</internalNodes>
          <leafValues>
            -1.6580997407436371e-01 1.2199611216783524e-01</leafValues></_>
        <_>
          <internalNodes>
            0 -1 836 -392145131 650026995 -1018133169 335467745
            1969121653 -83963728 -825026475 -1147343264</internalNodes>
          <leafValues>
            -1.7491047084331512e-01 1.1814786493778229e-01</leafValues></_>
        <_>
          <internalNodes>
            0 -1 167 -955732993 -243224408 1158951682 1866109809
            599097840 1115714660 1572438604 2112214274</internalNodes>
          <leafValues>
            -1.6048006713390350e-01 1.2936452031135559e-01</leafValues></_>
        <_>
          <internalNodes>
            0 -1 954 -263543452 403976932 1991901796 621985418
            1429030032 537166692 -1060690747 67456551</internalNodes>
          <leafValues>
            -1.9285692274570465e-01 1.0778252780437469e-01</leafValues></_>
        <_>
          <internalNodes>
            0 -1 495 -752707177 2057188839 -1260885385 -206478341
            712969678 949490783 -1550323797 -33971977</internalNodes>
          <leafValues>
            -1.0021875053644180e-01 2.0783402025699615e-01</leafValues></_>
        <_>
          <internalNodes>
            0 -1 324 1085852360 403554244 -521878744 123669220
            -897314897 1112084263 3512526 45465858</internalNodes>
          <leafValues>
            -2.4788375198841095e-01 7.2905071079730988e-02</leafValues></_>
        <_>
          <internalNodes>
            0 -1 1002 -1692666881 -315842064 -1837211429 -214458507
            1051773899 -1958256906 -1754467841 -604041028</internalNodes>
          <leafValues>
            -8.8871546089649200e-02 2.2237795591354370e-01</leafValues></_>
        <_>
          <internalNodes>
            0 -1 940 -967670146 355981735 -1513990642 -246335322
            1077774560 -90389167 -839604002 -1172873349</internalNodes>
          <leafValues>
            -1.0640634596347809e-01 1.8626752495765686e-01</leafValues></_>
        <_>
          <internalNodes>
            0 -1 172 1166241674 1419830918 -1357403240 -2057836806
            281392272 506765781 -325493628 288606722</internalNodes>
          <leafValues>
            -2.0646087825298309e-01 9.5095194876194000e-02</leafValues></_>
        <_>
          <internalNodes>
            0 -1 971 -1103430678 -1360066008 1922675619 2053673461
            -1113662759 729840337 1717285601 -117798663</internalNodes>
          <leafValues>
            -1.4555247128009796e-01 1.3393358886241913e-01</leafValues></_>
        <_>
          <internalNodes>
            0 -1 697 1220169283 827401832 762506737 2124866096
            -606139325 1016614129 -865273824 716352336</internalNodes>
          <leafValues>
            -2.0168556272983551e-01 1.0358461737632751e-01</leafValues></_>
        <_>
          <internalNodes>
            0 -1 293 1343397956 430679684 -1382197809 -1019999590
            1705640608 1768241863 1639675726 1726354978</internalNodes>
          <leafValues>
            -1.9466559588909149e-01 9.5733143389225006e-02</leafValues></_>
        <_>
          <internalNodes>
            0 -1 929 -138699766 -180677690 1918902382 -788810436
            -419955635 252407647 -931532305 -118018141</internalNodes>
          <leafValues>
            -1.2643167376518250e-01 1.6040416061878204e-01</leafValues></_>
        <_>
          <internalNodes>
            0 -1 1013 -1636301319 -1597869141 -636752909 -218431021
            1169212367 -2098582626 -333383777 -668972033</internalNodes>
          <leafValues>
            -1.4787764847278595e-01 1.3932959735393524e-01</leafValues></_>
        <_>
          <internalNodes>
            0 -1 722 -320361961 -1263222791 785697469 -1085026660
            -869138985 -97326409 -1842529319 -546323457</internalNodes>
          <leafValues>
            -8.2992061972618103e-02 2.3257836699485779e-01</leafValues></_>
        <_>
          <internalNodes>
            0 -1 76 -921439023 865450466 2095209525 2112082295
            -528203600 1288599987 -1497938600 685609079</internalNodes>
          <leafValues>
            -1.3191448152065277e-01 1.5183226764202118e-01</leafValues></_>
        <_>
          <internalNodes>
            0 -1 842 1241556496 520135457 1575101792 434225781
            1218777075 135325804 217287724 541024026</internalNodes>
          <leafValues>
            -1.9156989455223083e-01 1.0028948634862900e-01</leafValues></_>
        <_>
          <internalNodes>
            0 -1 485 336071428 -1162833626 -1446472939 631252212
            -1815347172 225317990 1746085944 541096516</internalNodes>
          <leafValues>
            -2.9784771800041199e-01 6.9050498306751251e-02</leafValues></_>
        <_>
          <internalNodes>
            0 -1 561 -800410115 -1278713419 -302653896 -284814680
            -14748277 -72865457 -1594134446 -17306693</internalNodes>
          <leafValues>
            -1.0547558218240738e-01 2.0396144688129425e-01</leafValues></_>
        <_>
          <internalNodes>
            0 -1 420 -1560936408 49236658 1854430958 -1173956382
            1392121612 2135953047 2041193590 -1072530697</internalNodes>
          <leafValues>
            -2.2218084335327148e-01 8.9995712041854858e-02</leafValues></_>
        <_>
          <internalNodes>
            0 -1 233 640066464 832745585 -1344338472 1073590944
            395051960 -1544285711 -1644735808 82134051</internalNodes>
          <leafValues>
            -1.9276288151741028e-01 1.0729585587978363e-01</leafValues></_>
        <_>
          <internalNodes>
            0 -1 617 782925456 -1429947232 -1563578284 -285671435
            -207585419 -1352213731 -79940576 -942638768</internalNodes>
          <leafValues>
            -2.2219991683959961e-01 8.7591275572776794e-02</leafValues></_>
        <_>
          <internalNodes>
            0 -1 912 -1738912983 -1663517777 1918162612 -95804514
            1686009200 726917901 -133829566 -1427708169</internalNodes>
          <leafValues>
            -1.5795907378196716e-01 1.2616780400276184e-01</leafValues></_>
        <_>
          <internalNodes>
            0 -1 155 -1626293839 -38464984 -428015917 2133620113
            -2051300830 -2009114117 -1313163279 -552905379</internalNodes>
          <leafValues>
            -1.1757116764783859e-01 1.7225278913974762e-01</leafValues></_>
        <_>
          <internalNodes>
            0 -1 143 -15089534 1886916323 -434632021 722615082
            -1937503560 -2040266309 -1200600421 417300218</internalNodes>
          <leafValues>
            -1.3655149936676025e-01 1.4812213182449341e-01</leafValues></_>
        <_>
          <internalNodes>
            0 -1 679 775169040 240259364 -423559462 1044403700
            1120690396 1286914127 1435060450 -189774796</internalNodes>
          <leafValues>
            -2.3695485293865204e-01 8.9673481881618500e-02</leafValues></_>
        <_>
          <internalNodes>
            0 -1 672 -1000191832 820810727 -1172389833 -858493483
            -818677487 2058778848 -812223403 -1103466268</internalNodes>
          <leafValues>
            -1.8775260448455811e-01 1.1095377057790756e-01</leafValues></_>
        <_>
          <internalNodes>
            0 -1 191 -761616929 1174845180 1879417825 628564513
            1125857748 1117922693 1921259051 865665752</internalNodes>
          <leafValues>
            -1.7508271336555481e-01 1.1737759411334991e-01</leafValues></_>
        <_>
          <internalNodes>
            0 -1 57 -1153477483 1577000913 970914491 -1871218263
            -980264232 -336102821 -925195598 -1298524207</internalNodes>
          <leafValues>
            -1.2970766425132751e-01 1.6472584009170532e-01</leafValues></_>
        <_>
          <internalNodes>
            0 -1 329 92989088 -1433732474 1858852738 703784896
            -990313727 434970837 1613320411 1349729860</internalNodes>
          <leafValues>
            -2.2760875523090363e-01 8.5753373801708221e-02</leafValues></_>
        <_>
          <internalNodes>
            0 -1 981 -576061701 -282714391 2075616674 -664011019
            -1633030289 178517824 -1506609161 2070934773</internalNodes>
          <leafValues>
            -1.2937580049037933e-01 1.6432410478591919e-01</leafValues></_>
        <_>
          <internalNodes>
            0 -1 898 1619299456 373226022 1023165996 1628584218
