<?xml version="1.0"?>
<opencv_storage>
<cascade>
  <stageType>BOOST</stageType>
  <featureType>LBP</featureType>
  <height>24</height>
  <width>24</width>
  <stageParams>
    <boostType>GAB</boostType>
    <minHitRate>9.9500000476837158e-01</minHitRate>
    <maxFalseAlarm>5.0000000000000000e-01</maxFalseAlarm>
    <weightTrimRate>9.4999999999999996e-01</weightTrimRate>
    <maxDepth>1</maxDepth>
    <maxWeakCount>100</maxWeakCount></stageParams>
  <featureParams>
    <maxCatCount>256</maxCatCount>
    <featSize>1</featSize></featureParams>
  <stageNum>20</stageNum>
  <stages>
    <!-- stage 0 -->
    <_>
      <maxWeakCount>6</maxWeakCount>
      <stageThreshold>-1.7157379388809204e+00</stageThreshold>
      <weakClassifiers>
        <_>
          <internalNodes>
            0 -1 14 -1 -136315905 -539102209 2011149311 -73400321
            834347691 2074079231 327099371</internalNodes>
          <leafValues>
            -8.6155110597610474e-01 6.4296472072601318e-01</leafValues></_>
        <_>
          <internalNodes>
            0 -1 63 1400373247 1534532603 533809663 456882175 1476384511
            872114367 1374108671 335508479</internalNodes>
          <leafValues>
            -6.8151623010635376e-01 3.8120502233505249e-01</leafValues></_>
        <_>
          <internalNodes>
            0 -1 334 -9437217 -136052865 -86049553 822017710 -722545969
            -30098193 -89264470 -1599668582</internalNodes>
          <leafValues>
            -5.4179018735885620e-01 5.0587165355682373e-01</leafValues></_>
        <_>
          <internalNodes>
            0 -1 3 -536872973 -4729567 -4194831 -138938623 -143130640
            -266283 938285936 -705231616</internalNodes>
          <leafValues>
            -5.3672510385513306e-01 4.4269126653671265e-01</leafValues></_>
        <_>
          <internalNodes>
            0 -1 380 -1560236617 789750449 -155324464 -1079007279
            1576533943 670564089 2045724157 -1074923089</internalNodes>
          <leafValues>
            -4.6720641851425171e-01 3.9485734701156616e-01</leafValues></_>
        <_>
          <internalNodes>
            0 -1 102 2052538427 966426591 1960746559 1042479807
            -25488275 1012891223 -355189505 -8946625</internalNodes>
          <leafValues>
            -4.4586253166198730e-01 3.9363476634025574e-01</leafValues></_></weakClassifiers></_>
    <!-- stage 1 -->
    <_>
      <maxWeakCount>7</maxWeakCount>
      <stageThreshold>-1.8769621849060059e+00</stageThreshold>
      <weakClassifiers>
        <_>
          <internalNodes>
            0 -1 14 -1 -203950081 -45883489 -1 -17039361 834601711
            -2098177 872363007</internalNodes>
          <leafValues>
            -7.9112273454666138e-01 3.7426900863647461e-01</leafValues></_>
        <_>
          <internalNodes>
            0 -1 344 -1422151745 570461995 -1076124741 -1073762405
            -1242431489 264240895 1071635963 -1342177349</internalNodes>
          <leafValues>
            -6.1410051584243774e-01 3.9038166403770447e-01</leafValues></_>
        <_>
          <internalNodes>
            0 -1 46 -671090897 -135282937 -404881611 -134754441 92241735
            -1538133537 1096107552 -143396045</internalNodes>
          <leafValues>
            -5.1641273498535156e-01 4.5132514834403992e-01</leafValues></_>
        <_>
          <internalNodes>
            0 -1 370 -25166689 -25268225 1825569243 854912734 -520639281
            -1092687874 -84489554 -1604129042</internalNodes>
          <leafValues>
            -5.2733963727951050e-01 3.9937156438827515e-01</leafValues></_>
        <_>
          <internalNodes>
            0 -1 187 -1429229633 -1109733575 -606152705 -1077208311
            -337272899 -1092294721 -848344631 -2075851712</internalNodes>
          <leafValues>
            -4.3910267949104309e-01 3.7386023998260498e-01</leafValues></_>
        <_>
          <internalNodes>
            0 -1 156 1196360805 1970941791 -1342662945 2048789470
            -1264777744 2128375551 -859996422 -12943745</internalNodes>
          <leafValues>
            -4.8610582947731018e-01 3.3115696907043457e-01</leafValues></_>
        <_>
          <internalNodes>
            0 -1 412 -299923645 1692608295 -296884121 135802542
            1268066341 -773369503 -269504426 -2139625753</internalNodes>
          <leafValues>
            -4.3397143483161926e-01 3.2328879833221436e-01</leafValues></_></weakClassifiers></_>
    <!-- stage 2 -->
    <_>
      <maxWeakCount>8</maxWeakCount>
      <stageThreshold>-1.7448539733886719e+00</stageThreshold>
      <weakClassifiers>
        <_>
          <internalNodes>
            0 -1 6 -2097153 -2113 -573309123 -1417 2071986175 -2101525
            2065914751 2004318079</internalNodes>
          <leafValues>
            -7.1985018253326416e-01 3.4915253520011902e-01</leafValues></_>
        <_>
          <internalNodes>
            0 -1 333 -524289 2143272959 -1618608129 254803663 -740561921
            -137627649 -403714113 167766015</internalNodes>
          <leafValues>
            -6.2197118997573853e-01 4.4436267018318176e-01</leafValues></_>
        <_>
          <internalNodes>
            0 -1 12 -513 -1078785601 -611737665 2138265367 -34626563
            -118903908 1369136127 1159159679</internalNodes>
          <leafValues>
            -5.0933855772018433e-01 4.1635820269584656e-01</leafValues></_>
        <_>
          <internalNodes>
            0 -1 152 2065694719 320205811 401816991 1057840575 971636685
            332917241 1203208191 796884959</internalNodes>
          <leafValues>
            -5.3736954927444458e-01 3.5570421814918518e-01</leafValues></_>
        <_>
          <internalNodes>
            0 -1 162 128625587 -1887373344 1975910399 -408899600
            750903477 -1276101708 1273772476 -839039536</internalNodes>
          <leafValues>
            -3.9371576905250549e-01 3.1781882047653198e-01</leafValues></_>
        <_>
          <internalNodes>
            0 -1 75 -201593053 2147431391 1730785022 -1739399329
            -469826555 -11128961 -38941380 -159973513</internalNodes>
          <leafValues>
            -3.8307189941406250e-01 3.2716205716133118e-01</leafValues></_>
        <_>
          <internalNodes>
            0 -1 382 -270621813 -1422477445 1956564785 -3410030
            335282175 192932285 2111828177 -838993546</internalNodes>
          <leafValues>
            -3.4953507781028748e-01 3.0931544303894043e-01</leafValues></_>
        <_>
          <internalNodes>
            0 -1 109 -1430545750 -1343272792 1364779769 -10532475
            -1249920029 -1886389888 -446983182 -540293651</internalNodes>
          <leafValues>
            -2.8837010264396667e-01 3.9961317181587219e-01</leafValues></_></weakClassifiers></_>
    <!-- stage 3 -->
    <_>
      <maxWeakCount>13</maxWeakCount>
      <stageThreshold>-1.9052108526229858e+00</stageThreshold>
      <weakClassifiers>
        <_>
          <internalNodes>
            0 -1 42 -1 -1025 -175530657 -2113537 1634801119 2138779967
            2104953855 2138537983</internalNodes>
          <leafValues>
            -6.6259539127349854e-01 2.5722891092300415e-01</leafValues></_>
        <_>
          <internalNodes>
            0 -1 297 -8388609 -147969 -687867937 -235954177 -18874369
            -10241 -318772481 547618815</internalNodes>
          <leafValues>
            -5.0570666790008545e-01 4.0797698497772217e-01</leafValues></_>
        <_>
          <internalNodes>
            0 -1 72 1572339679 2136472831 1866928063 1069021694
            1157251583 1660361723 1304381355 2080107455</internalNodes>
          <leafValues>
            -4.9074250459671021e-01 3.4057641029357910e-01</leafValues></_>
        <_>
          <internalNodes>
            0 -1 223 2105531775 -115684933 -539824129 -1079706057
            -1444836947 -1460172487 -105260291 -2080079867</internalNodes>
          <leafValues>
            -4.1652542352676392e-01 3.4971067309379578e-01</leafValues></_>
        <_>
          <internalNodes>
            0 -1 34 -71303373 -1553203206 -1073760494 -33555612
            -1493188617 -1394081793 1962895140 -504371469</internalNodes>
          <leafValues>
            -3.3725935220718384e-01 3.7992599606513977e-01</leafValues></_>
        <_>
          <internalNodes>
            0 -1 0 -2158338 -605350936 107771634 1883705467 -21083638
            -2010310118 1795219451 -90522881</internalNodes>
          <leafValues>
            -3.3080887794494629e-01 3.7586012482643127e-01</leafValues></_>
        <_>
          <internalNodes>
            0 -1 439 -1344032861 212772518 -439406622 -806703200
            1602223607 97215911 1568428516 -981994881</internalNodes>
          <leafValues>
            -4.3091022968292236e-01 2.9684004187583923e-01</leafValues></_>
        <_>
          <internalNodes>
            0 -1 315 473468209 904846259 771502877 1073601105 1872754161
            -1108216398 799878332 -1951400524</internalNodes>
          <leafValues>
            -3.3849826455116272e-01 3.2657760381698608e-01</leafValues></_>
        <_>
          <internalNodes>
            0 -1 139 -19938305 288173643 -586327597 460799837 -674777089
            48365875 -1089799555 656878107</internalNodes>
          <leafValues>
            -5.4054570198059082e-01 1.8522006273269653e-01</leafValues></_>
        <_>
          <internalNodes>
            0 -1 285 776874240 643755190 -1915032042 1723746954
            -1632683263 -259458120 -168111616 -588198412</internalNodes>
          <leafValues>
            -5.3400683403015137e-01 1.9069302082061768e-01</leafValues></_>
        <_>
          <internalNodes>
            0 -1 376 920632863 1939725119 982776446 821685058 1492078684
            1930932607 -50988498 -226788001</internalNodes>
          <leafValues>
            -3.1581676006317139e-01 3.2761704921722412e-01</leafValues></_>
        <_>
          <internalNodes>
            0 -1 86 1715987248 -1345866700 1842994957 -278021712 -134475
            -2014068606 1543251940 -2132028220</internalNodes>
          <leafValues>
            -4.3146282434463501e-01 2.2878798842430115e-01</leafValues></_>
        <_>
          <internalNodes>
            0 -1 458 -1145838854 -1380999064 -1441595152 1509922192
            -1081347894 1336918728 857334775 -550529723</internalNodes>
          <leafValues>
            -2.8055417537689209e-01 3.5884976387023926e-01</leafValues></_></weakClassifiers></_>
    <!-- stage 4 -->
    <_>
      <maxWeakCount>15</maxWeakCount>
      <stageThreshold>-1.7300572395324707e+00</stageThreshold>
      <weakClassifiers>
        <_>
          <internalNodes>
            0 -1 7 -547356673 -8407153 -586297345 -2624649 -339738625
            -21593 -1077412865 1465332547</internalNodes>
          <leafValues>
            -6.3175678253173828e-01 2.0017637312412262e-01</leafValues></_>
        <_>
          <internalNodes>
            0 -1 165 -1 -671108101 -16780353 -4243461 -335564101
            -67428189 -25665 -1140907349</internalNodes>
          <leafValues>
            -3.8336166739463806e-01 4.4913962483406067e-01</leafValues></_>
        <_>
          <internalNodes>
            0 -1 66 -144703489 -201851523 -177125385 -262285985
            -1748310037 1476123823 -789842433 1895170014</internalNodes>
          <leafValues>
            -4.8820412158966064e-01 2.9496321082115173e-01</leafValues></_>
        <_>
          <internalNodes>
            0 -1 157 1986400095 467159551 -1341564225 1043558379
            1288525035 2143754601 -308645889 -96851393</internalNodes>
          <leafValues>
            -3.6452355980873108e-01 3.4185147285461426e-01</leafValues></_>
        <_>
          <internalNodes>
            0 -1 374 -605028393 957561301 -438244361 260630313
            -135055347 -11012741 -270552585 100647355</internalNodes>
          <leafValues>
            -4.5192599296569824e-01 2.5053429603576660e-01</leafValues></_>
        <_>
          <internalNodes>
            0 -1 23 1683353263 56536635 -535966338 -555291798 929287162
            -19206977 24579851 2002872099</internalNodes>
          <leafValues>
            -4.0252551436424255e-01 2.6069378852844238e-01</leafValues></_>
        <_>
          <internalNodes>
            0 -1 81 -1153715462 -341108568 308524499 1465871757
            -1162956114 -2021072176 -1220881453 -141585987</internalNodes>
          <leafValues>
            -2.5967645645141602e-01 4.2026457190513611e-01</leafValues></_>
        <_>
          <internalNodes>
            0 -1 411 -285798545 389513047 788522623 572907358 -302093311
            2138931025 -84414801 -228065313</internalNodes>
          <leafValues>
            -3.0506339669227600e-01 3.2278761267662048e-01</leafValues></_>
        <_>
          <internalNodes>
            0 -1 477 -536979205 -167831304 -219023169 -757248522
            -1120399350 -552713204 302704891 -627377409</internalNodes>
          <leafValues>
            -2.4457398056983948e-01 3.9531588554382324e-01</leafValues></_>
        <_>
          <internalNodes>
            0 -1 347 196521473 543275794 -11040847 -1078094049 674493885
            184535550 820589921 -1915881388</internalNodes>
          <leafValues>
            -4.6914494037628174e-01 2.1027840673923492e-01</leafValues></_>
        <_>
          <internalNodes>
            0 -1 58 -698369145 1484714429 -61150247 -1427177505
            1666677800 2016881431 -402853348 -260637838</internalNodes>
          <leafValues>
            -3.3909210562705994e-01 2.6794886589050293e-01</leafValues></_>
        <_>
          <internalNodes>
            0 -1 113 684193569 -1630275600 -707818041 -1116872348
            631803893 -173304100 1307556792 -925932144</internalNodes>
          <leafValues>
            -3.6360338330268860e-01 2.5133624672889709e-01</leafValues></_>
        <_>
          <internalNodes>
            0 -1 15 -114337608 1916097210 541356603 1348033658
            -1149621246 340853342 851893243 -74789445</internalNodes>
          <leafValues>
            -2.8411009907722473e-01 3.2867440581321716e-01</leafValues></_>
        <_>
          <internalNodes>
            0 -1 416 -608189647 631815662 2147378436 -807705038
            369047029 -1895960578 -33765996 -839660293</internalNodes>
          <leafValues>
            -2.5813186168670654e-01 3.4281286597251892e-01</leafValues></_>
        <_>
          <internalNodes>
            0 -1 226 -664798761 -174197412 -939042183 588376863
            -53620572 -332543425 -639371032 5570111</internalNodes>
          <leafValues>
            -4.0845870971679688e-01 2.0713075995445251e-01</leafValues></_></weakClassifiers></_>
    <!-- stage 5 -->
    <_>
      <maxWeakCount>18</maxWeakCount>
      <stageThreshold>-1.7083189487457275e+00</stageThreshold>
      <weakClassifiers>
        <_>
          <internalNodes>
            0 -1 38 -675282945 -201327873 -179962401 -2097185 -203562245
            819146992 -343146497 -134217729</internalNodes>
          <leafValues>
            -5.3907316923141479e-01 2.1875000000000000e-01</leafValues></_>
        <_>
          <internalNodes>
            0 -1 114 -671088641 -309593321 -1985496481 -570441894
            -1105204225 -1832283477 1859104511 943395707</internalNodes>
          <leafValues>
            -5.1439452171325684e-01 2.8173527121543884e-01</leafValues></_>
        <_>
          <internalNodes>
            0 -1 350 -3178501 2012162975 -679357441 1073426303
            -673596417 -10791969 -272568595 503252023</internalNodes>
          <leafValues>
            -4.9787205457687378e-01 2.4556702375411987e-01</leafValues></_>
        <_>
          <internalNodes>
            0 -1 52 -747898881 -219153709 -9 -106168345 -771755778
            1353052915 -269221893 -260574217</internalNodes>
          <leafValues>
            -2.7366465330123901e-01 3.7337934970855713e-01</leafValues></_>
        <_>
          <internalNodes>
            0 -1 349 1951138399 1605678687 -711459329 1064860511
            -50411492 -1080533061 -1160880404 -1440716198</internalNodes>
          <leafValues>
            -3.6687868833541870e-01 2.6342833042144775e-01</leafValues></_>
        <_>
          <internalNodes>
            0 -1 216 1448430935 2130666360 -336646273 737805171
            2130593534 -8556547 -67424788 -336768189</internalNodes>
          <leafValues>
            -2.8938680887222290e-01 3.1906819343566895e-01</leafValues></_>
        <_>
          <internalNodes>
            0 -1 237 749342212 -1360072851 -50737172 -293679365
            -287309921 -285545201 -23420247 -269504513</internalNodes>
          <leafValues>
            -2.7630490064620972e-01 3.2124960422515869e-01</leafValues></_>
        <_>
          <internalNodes>
            0 -1 477 -134522666 -69795653 -688662317 -791980801
            -13074422 -50000824 1914881007 -620041217</internalNodes>
          <leafValues>
            -2.1347762644290924e-01 3.6996084451675415e-01</leafValues></_>
        <_>
          <internalNodes>
            0 -1 384 -1076119653 -2136298126 -40898224 -2631098
            1794373567 149157021 2122838641 -1921145611</internalNodes>
          <leafValues>
            -3.3013325929641724e-01 2.4540299177169800e-01</leafValues></_>
        <_>
          <internalNodes>
            0 -1 55 -698356177 408802283 -732971238 1724630730
            1986485525 1880192566 2086898948 -529268890</internalNodes>
          <leafValues>
            -4.0608826279640198e-01 2.1058034896850586e-01</leafValues></_>
        <_>
          <internalNodes>
            0 -1 168 665058289 -1074348336 -1827022849 -1814711888
            -2028997897 -1176792779 -1996502289 -925941340</internalNodes>
          <leafValues>
            -2.9728636145591736e-01 2.5779968500137329e-01</leafValues></_>
        <_>
          <internalNodes>
            0 -1 432 -193747025 2012415491 -289174329 611233542
            1483696899 2011064606 -18974138 -520225210</internalNodes>
          <leafValues>
            -3.2098475098609924e-01 2.3060134053230286e-01</leafValues></_>
        <_>
          <internalNodes>
            0 -1 448 -1820073222 -1895005568 -800518128 -550812347
            -1146646118 -1998339896 1376965618 1397461201</internalNodes>
          <leafValues>
            -3.0394557118415833e-01 2.5667425990104675e-01</leafValues></_>
        <_>
          <internalNodes>
            0 -1 358 918216481 -1333744272 -824222611 2137499097
            932064690 -1159726854 187136597 -1073949483</internalNodes>
          <leafValues>
            -2.9631340503692627e-01 2.5889849662780762e-01</leafValues></_>
        <_>
          <internalNodes>
            0 -1 82 -1686422294 -605138816 1618348794 -790960385
            -1188394488 -1822029480 909023726 -625299777</internalNodes>
          <leafValues>
            -2.5487953424453735e-01 2.9157707095146179e-01</leafValues></_>
        <_>
          <internalNodes>
            0 -1 132 773909169 -1885147213 -269582344 -38749200
            140920232 -19805185 752778811 -707439033</internalNodes>
          <leafValues>
            -2.6535883545875549e-01 2.7614983916282654e-01</leafValues></_>
        <_>
          <internalNodes>
            0 -1 435 -1011374973 29675437 -978924926 245821184
            1710448849 77326833 -1356515106 -723517450</internalNodes>
          <leafValues>
            -3.5517963767051697e-01 2.0087103545665741e-01</leafValues></_>
        <_>
          <internalNodes>
            0 -1 104 1171547457 2145343231 441298623 672547903
            1093468292 -431805793 -294617106 -733844629</internalNodes>
          <leafValues>
            -3.5411158204078674e-01 1.9522184133529663e-01</leafValues></_></weakClassifiers></_>
    <!-- stage 6 -->
    <_>
      <maxWeakCount>20</maxWeakCount>
      <stageThreshold>-1.5871334075927734e+00</stageThreshold>
      <weakClassifiers>
        <_>
          <internalNodes>
            0 -1 134 -2360321 -12728643 -950665219 -4854801 -1128416273
            -311645535 -34751489 1159069535</internalNodes>
          <leafValues>
            -5.9983187913894653e-01 1.0607089847326279e-01</leafValues></_>
        <_>
          <internalNodes>
            0 -1 61 -612378625 -66053 495597567 2145089421 593773055
            2147112607 2073787386 2146377579</internalNodes>
          <leafValues>
            -4.5647132396697998e-01 2.5434726476669312e-01</leafValues></_>
        <_>
          <internalNodes>
            0 -1 373 -716185697 2136198979 1728169907 1160504941
            -967523347 -67637025 -423104561 16246783</internalNodes>
          <leafValues>
            -4.0379655361175537e-01 2.6772552728652954e-01</leafValues></_>
        <_>
          <internalNodes>
            0 -1 5 -143134737 -685838493 -2028494849 -1573077 2087713007
            -1094218649 1801922527 1969574755</internalNodes>
          <leafValues>
            -3.8055193424224854e-01 2.9135483503341675e-01</leafValues></_>
        <_>
          <internalNodes>
            0 -1 305 -138156365 328334759 -1589275615 1037546971
            937293311 18314943 -242248225 234870743</internalNodes>
          <leafValues>
            -3.8594380021095276e-01 2.4385339021682739e-01</leafValues></_>
        <_>
          <internalNodes>
            0 -1 282 -1563818748 -290133435 -582552842 -272700464
            -1950419708 -538121859 -72431964 -37769991</internalNodes>
          <leafValues>
            -3.3195984363555908e-01 2.5247517228126526e-01</leafValues></_>
        <_>
          <internalNodes>
            0 -1 476 -370466 -170064678 1924397183 -229156105
            -1146072566 -602781155 1378415343 -217408773</internalNodes>
          <leafValues>
            -2.5095763802528381e-01 3.4105923771858215e-01</leafValues></_>
        <_>
          <internalNodes>
            0 -1 103 2130510879 2122053375 -1397052835 575862739
            1916207168 861040703 -6370050 -1403879569</internalNodes>
          <leafValues>
            -3.9640724658966064e-01 2.0097211003303528e-01</leafValues></_>
        <_>
          <internalNodes>
            0 -1 34 1263529777 -1424828246 -1080058830 1828680650
            -2030635085 -1997026561 1163747632 -1056966666</internalNodes>
          <leafValues>
            -3.5141080617904663e-01 2.0863164961338043e-01</leafValues></_>
        <_>
          <internalNodes>
            0 -1 458 -1766669624 -1884561176 706383936 1532335493
            -1542793064 -2070944024 859529715 -551824156</internalNodes>
          <leafValues>
            -2.7071350812911987e-01 2.9094502329826355e-01</leafValues></_>
        <_>
          <internalNodes>
            0 -1 429 1780969311 1988061017 -554315908 848441911
            1108629062 -2217357 -889260002 -94126558</internalNodes>
          <leafValues>
            -3.0791625380516052e-01 2.3643207550048828e-01</leafValues></_>
        <_>
          <internalNodes>
            0 -1 364 352908729 -1081857388 -1278567268 -1076025520
            232503549 -1191446031 222891324 -1914352338</internalNodes>
          <leafValues>
            -3.2611963152885437e-01 2.2550193965435028e-01</leafValues></_>
        <_>
          <internalNodes>
            0 -1 13 1464205023 -138675749 151098713 1436267333
            -408979457 -260577553 1405295534 54399931</internalNodes>
          <leafValues>
            -4.1395813226699829e-01 1.7036515474319458e-01</leafValues></_>
        <_>
          <internalNodes>
            0 -1 0 -642952961 -540211064 1458517755 1347417081 -71563254
            -770868974 -352124949 -614810885</internalNodes>
          <leafValues>
            -2.3226419091224670e-01 3.2318121194839478e-01</leafValues></_>
        <_>
          <internalNodes>
            0 -1 286 -368118364 1475783606 -604036624 -1095311756
            1650188049 787771325 -421530476 -18154380</internalNodes>
          <leafValues>
            -2.6622411608695984e-01 2.7854964137077332e-01</leafValues></_>
        <_>
          <internalNodes>
            0 -1 41 1559536855 991274654 -777861259 -2050916130
            2104822993 2103854115 862132591 1244887370</internalNodes>
          <leafValues>
            -3.9134690165519714e-01 1.6393741965293884e-01</leafValues></_>
        <_>
          <internalNodes>
            0 -1 79 -1094986502 -970514712 186915313 1400362133
            -1744833583 -1881240054 1065608186 -74464811</internalNodes>
          <leafValues>
            -1.8325489759445190e-01 3.7597912549972534e-01</leafValues></_>
        <_>
          <internalNodes>
            0 -1 360 -95806847 1392389723 -554240193 -147570807
            1844802764 -39932552 -21398072 -485820562</internalNodes>
          <leafValues>
            -2.3978030681610107e-01 2.9827246069908142e-01</leafValues></_>
        <_>
          <internalNodes>
            0 -1 399 1440412067 -1416642587 1490202512 -412238650
            1944019427 611922320 -81890160 -990513844</internalNodes>
          <leafValues>
            -2.8862351179122925e-01 2.3475238680839539e-01</leafValues></_>
        <_>
          <internalNodes>
            0 -1 404 -1078685177 -1638208750 -513259729 -180244516
            783109030 1056957175 -89437659 -322831753</internalNodes>
          <leafValues>
            -2.6136624813079834e-01 2.6659148931503296e-01</leafValues></_></weakClassifiers></_>
    <!-- stage 7 -->
    <_>
      <maxWeakCount>22</maxWeakCount>
      <stageThreshold>-1.6011283397674561e+00</stageThreshold>
      <weakClassifiers>
        <_>
          <internalNodes>
            0 -1 30 -50210337 1004503167 -1659562145 -1078070849
            -1768145985 7180913 -1146569729 1467993855</internalNodes>
          <leafValues>
            -6.4099764823913574e-01 2.3315199650824070e-03</leafValues></_>
        <_>
          <internalNodes>
            0 -1 214 1371013087 288855415 469568861 261607420 -212079362
            1072662745 956367837 804997626</internalNodes>
          <leafValues>
            -4.4710797071456909e-01 2.1381051838397980e-01</leafValues></_>
        <_>
          <internalNodes>
            0 -1 331 -15471877 -134269266 -788063977 -2677637 -707905393
            -1097522927 -1721889894 527893552</internalNodes>
          <leafValues>
            -4.7454386949539185e-01 2.0171804726123810e-01</leafValues></_>
        <_>
          <internalNodes>
            0 -1 24 -2015559745 1429009363 -148897841 -1107857694
            577166843 -1259361862 1464289191 1912041683</internalNodes>
          <leafValues>
            -3.8292002677917480e-01 2.4283045530319214e-01</leafValues></_>
        <_>
          <internalNodes>
            0 -1 264 -1503464188 -465901891 -834732112 -1975588108
            750705925 -139152584 -1630606944 -84350024</internalNodes>
          <leafValues>
            -3.4540477395057678e-01 2.1993997693061829e-01</leafValues></_>
        <_>
          <internalNodes>
            0 -1 408 2105429247 -203774097 -753757703 -3259697
            -622040561 -87308013 -125028130 -1171116273</internalNodes>
          <leafValues>
            -3.0305236577987671e-01 2.4008625745773315e-01</leafValues></_>
        <_>
          <internalNodes>
            0 -1 81 -1145307141 -877667864 362542033 -610296507
            -1413491986 -1886398851 -1283721225 -10496579</internalNodes>
          <leafValues>
            -1.8372394144535065e-01 3.8036122918128967e-01</leafValues></_>
        <_>
          <internalNodes>
            0 -1 215 1190546807 1466654555 -317136929 735602271
            -489665331 -17878003 -389644614 -393139910</internalNodes>
          <leafValues>
            -3.1122893095016479e-01 2.1311368048191071e-01</leafValues></_>
        <_>
          <internalNodes>
            0 -1 438 -280106077 58913923 1958711795 -305338718 853232307
            1089052048 -472661663 -973603465</internalNodes>
          <leafValues>
            -3.1275847554206848e-01 2.2869105637073517e-01</leafValues></_>
        <_>
          <internalNodes>
            0 -1 22 1743103751 1161883683 1666276159 932624898 71815167
            -1587952913 1897363230 606168834</internalNodes>
          <leafValues>
            -3.3140775561332703e-01 2.0744021236896515e-01</leafValues></_>
        <_>
          <internalNodes>
            0 -1 457 -8431501 -9546373 -933979527 -254037525 -211021750
            -364156916 1498168079 -625419141</internalNodes>
          <leafValues>
            -2.6360380649566650e-01 2.6256367564201355e-01</leafValues></_>
        <_>
          <internalNodes>
            0 -1 274 602669095 -1243168847 -4296713 -491628 1073491453
            -86055107 -33669527 -857358555</internalNodes>
          <leafValues>
            -2.2854740917682648e-01 2.8613236546516418e-01</leafValues></_>
        <_>
          <internalNodes>
            0 -1 93 -517216349 -1541144798 -1657275327 -1343234160
            191616487 177130979 1138062883 -990907161</internalNodes>
          <leafValues>
            -2.7561888098716736e-01 2.2752209007740021e-01</leafValues></_>
        <_>
          <internalNodes>
            0 -1 346 740609316 -1312968520 -306733164 -1112309798
            499868927 -1125676267 701238405 678762820</internalNodes>
          <leafValues>
            -4.0043738484382629e-01 1.4427995681762695e-01</leafValues></_>
        <_>
          <internalNodes>
            0 -1 394 1681851916 876564783 -297394114 543684399 45801984
            343177988 -17893268 813168455</internalNodes>
          <leafValues>
            -4.0238490700721741e-01 1.5005542337894440e-01</leafValues></_>
        <_>
          <internalNodes>
            0 -1 9 -951662721 1930892259 1342981893 1963795908
            -186693665 1959208131 1870861274 467763</internalNodes>
          <leafValues>
            -6.3699245452880859e-01 9.5348447561264038e-02</leafValues></_>
        <_>
          <internalNodes>
            0 -1 175 -1393652570 246460238 -275060618 -354241594
            1336819135 -1225344043 -1093930004 -465109522</internalNodes>
          <leafValues>
            -2.4753138422966003e-01 2.6190456748008728e-01</leafValues></_>
        <_>
          <internalNodes>
            0 -1 0 -44900 -2138476194 1175086192 1088895482 731398144
            -617840038 956756654 176877819</internalNodes>
          <leafValues>
            -3.3245733380317688e-01 1.7714869976043701e-01</leafValues></_>
        <_>
          <internalNodes>
            0 -1 65 -741425505 878614807 -300489690 -1160103462
            -115449552 1564170318 -817377734 -1803748494</internalNodes>
          <leafValues>
            -2.7218610048294067e-01 2.1875710785388947e-01</leafValues></_>
        <_>
          <internalNodes>
            0 -1 191 201436929 1798547895 -201457799 -40010255 247271388
            -1478643718 250482587 -975501803</internalNodes>
          <leafValues>
            -2.4018998444080353e-01 2.5106459856033325e-01</leafValues></_>
        <_>
          <internalNodes>
            0 -1 330 1881017613 -1650169291 -284107267 1001031182
            -388034964 -1189266699 -1158923060 -1439692202</internalNodes>
          <leafValues>
            -3.5661262273788452e-01 1.5190546214580536e-01</leafValues></_>
        <_>
          <internalNodes>
            0 -1 324 -1133841593 -209027330 -1073810442 884651874
            -2025914505 -671285515 -159943147 -289477276</internalNodes>
          <leafValues>
            -2.2615942358970642e-01 2.5604620575904846e-01</leafValues></_></weakClassifiers></_>
    <!-- stage 8 -->
    <_>
      <maxWeakCount>23</maxWeakCount>
      <stageThreshold>-1.5358599424362183e+00</stageThreshold>
      <weakClassifiers>
        <_>
          <internalNodes>
            0 -1 39 -678691841 -201600049 -955949297 -40902689
            -758188289 821535475 -544608257 -202384433</internalNodes>
          <leafValues>
            -5.0812458992004395e-01 1.0435470938682556e-01</leafValues></_>
        <_>
          <internalNodes>
            0 -1 369 -134745217 -16308771 -683306137 -7003201 -505988238
            -761822077 1933665201 939459831</internalNodes>
          <leafValues>
            -4.4738140702247620e-01 1.9381144642829895e-01</leafValues></_>
        <_>
          <internalNodes>
            0 -1 131 2010099387 -791152189 -2146835512 1071448521
            23506874 -1076442933 1011854010 405932714</internalNodes>
          <leafValues>
            -4.9442341923713684e-01 1.5516446530818939e-01</leafValues></_>
        <_>
          <internalNodes>
            0 -1 19 1368366837 567620148 -102002913 928630239
            -1180489319 3747203 1134498735 20952699</internalNodes>
          <leafValues>
            -4.0911641716957092e-01 2.0752371847629547e-01</leafValues></_>
        <_>
          <internalNodes>
            0 -1 302 -106531580 -102928403 -1543569668 -205998369
            -1342277771 -1376979022 -251726608 -542392923</internalNodes>
          <leafValues>
            -2.4863678216934204e-01 2.7123805880546570e-01</leafValues></_>
        <_>
          <internalNodes>
            0 -1 158 -201330689 2147188727 -1300632321 -92603662
            -50385828 2130673007 -83461 -12323973</internalNodes>
          <leafValues>
            -2.0471498370170593e-01 3.0577304959297180e-01</leafValues></_>
        <_>
          <internalNodes>
            0 -1 460 45542131 737089736 997666931 1603256629 -1425837318
            -1892450144 590803953 -8695595</internalNodes>
          <leafValues>
            -2.8326123952865601e-01 2.3540402948856354e-01</leafValues></_>
        <_>
          <internalNodes>
            0 -1 417 -414456397 231659426 -1119114599 -318375166
            1301046199 100662207 -412348286 -2064128834</internalNodes>
          <leafValues>
            -2.7080172300338745e-01 2.2887404263019562e-01</leafValues></_>
        <_>
          <internalNodes>
            0 -1 120 -1482231837 -2100629081 1339506615 -1344805360
            73600959 -2136630819 1093105223 1153791399</internalNodes>
          <leafValues>
            -3.4200513362884521e-01 1.7804215848445892e-01</leafValues></_>
        <_>
          <internalNodes>
            0 -1 433 1289113346 829928980 1780459742 583829222
            1555497026 1917932080 -95977877 -262800014</internalNodes>
          <leafValues>
            -3.6864861845970154e-01 1.6776877641677856e-01</leafValues></_>
        <_>
          <internalNodes>
            0 -1 368 1550987852 -65078178 -1379090132 524182842
            1490570276 -663400385 1517186060 976289326</internalNodes>
          <leafValues>
            -4.1965967416763306e-01 1.2011536955833435e-01</leafValues></_>
        <_>
          <internalNodes>
            0 -1 477 -167897886 -58181 -755898113 -219263113 -38790582
            -78768567 1352833919 -614924310</internalNodes>
          <leafValues>
            -2.3009447753429413e-01 2.6619780063629150e-01</leafValues></_>
        <_>
          <internalNodes>
            0 -1 316 148047650 1526512927 -145950913 -1379960106
            -219174452 -1193456175 -1128596506 -361184668</internalNodes>
          <leafValues>
            -2.8759729862213135e-01 2.0227652788162231e-01</leafValues></_>
        <_>
          <internalNodes>
            0 -1 116 1217379347 -1375415166 1369446834 -869616012
            2131225557 68351861 -369199119 -301992265</internalNodes>
          <leafValues>
            -2.8797110915184021e-01 1.9264754652976990e-01</leafValues></_>
        <_>
          <internalNodes>
            0 -1 80 -2085356599 -1918121816 1682766321 -673357579
            -1526727190 -1887178023 840693750 -73427535</internalNodes>
          <leafValues>
            -2.1424290537834167e-01 2.7810856699943542e-01</leafValues></_>
        <_>
          <internalNodes>
            0 -1 454 -1404098381 -1433473405 -74039529 -4949056
            2101376181 -843159094 -7113103 -923479222</internalNodes>
          <leafValues>
            -2.5231471657752991e-01 2.2430004179477692e-01</leafValues></_>
        <_>
          <internalNodes>
            0 -1 56 -254808269 869377495 -262881522 847402363 1448362064
            1885491543 -227214327 1719034135</internalNodes>
          <leafValues>
            -4.1708588600158691e-01 1.2033892422914505e-01</leafValues></_>
        <_>
          <internalNodes>
            0 -1 15 -105948933 -1149812034 586807039 -1023971851
            -63440754 -615508065 -741147714 -91553797</internalNodes>
          <leafValues>
            -1.6034561395645142e-01 3.5876125097274780e-01</leafValues></_>
        <_>
          <internalNodes>
            0 -1 251 1276423936 -1215525247 -1920971379 2143086883
            2042470085 -419837185 -1685218388 -1932720127</internalNodes>
          <leafValues>
            -2.8810369968414307e-01 2.0290036499500275e-01</leafValues></_>
        <_>
          <internalNodes>
            0 -1 362 629090823 861081554 1282669701 680525573 -822619612
            -167854768 -809615860 543227667</internalNodes>
          <leafValues>
            -3.7658274173736572e-01 1.3537794351577759e-01</leafValues></_>
        <_>
          <internalNodes>
            0 -1 106 -557906867 876392651 -1907958275 308738772
            -354481088 -248637381 -353465412 -1185620713</internalNodes>
          <leafValues>
            -2.6997002959251404e-01 1.9463947415351868e-01</leafValues></_>
        <_>
          <internalNodes>
            0 -1 303 717104900 778895167 -84879914 -491781470 1425958416
            1442538101 -1648768000 -185536264</internalNodes>
          <leafValues>
            -4.1475665569305420e-01 1.3265360891819000e-01</leafValues></_>
        <_>
          <internalNodes>
            0 -1 224 1695938559 1843728917 -788177267 363050647
            1239377333 -909191607 2106525343 37686195</internalNodes>
          <leafValues>
            -3.8045367598533630e-01 1.2743473052978516e-01</leafValues></_></weakClassifiers></_>
    <!-- stage 9 -->
    <_>
      <maxWeakCount>28</maxWeakCount>
      <stageThreshold>-1.4869121313095093e+00</stageThreshold>
      <weakClassifiers>
        <_>
          <internalNodes>
            0 -1 33 -574096393 -203965441 -887792161 -10638945
            -154143233 821539315 -812990481 -20533</internalNodes>
          <leafValues>
            -4.0830877423286438e-01 1.9969856739044189e-01</leafValues></_>
        <_>
          <internalNodes>
            0 -1 326 34586527 -1181493307 536687823 -1207976132
            838325759 1020634036 637863099 217952884</internalNodes>
          <leafValues>
            -4.2718946933746338e-01 1.6347983479499817e-01</leafValues></_>
        <_>
          <internalNodes>
            0 -1 28 -73403393 1305314015 -1660221857 -205081653
            500678075 953002155 2147364447 2134343659</internalNodes>
          <leafValues>
            -3.1977179646492004e-01 2.0593765377998352e-01</leafValues></_>
        <_>
          <internalNodes>
            0 -1 332 -11457609 -170549729 -921328249 1173172191
            -33298661 -665623626 -88085745 9158623</internalNodes>
          <leafValues>
            -3.4300446510314941e-01 2.2871443629264832e-01</leafValues></_>
        <_>
          <internalNodes>
            0 -1 268 -360714771 -300528017 -71906820 719770896
            -553656644 -5243393 -1162216712 -84345936</internalNodes>
          <leafValues>
            -2.3249733448028564e-01 2.7153745293617249e-01</leafValues></_>
        <_>
          <internalNodes>
            0 -1 81 -1146359062 -2002012088 318895089 1260216793
            -1347424037 -1953832416 321124275 1258930561</internalNodes>
          <leafValues>
            -2.7850717306137085e-01 2.3492392897605896e-01</leafValues></_>
        <_>
          <internalNodes>
            0 -1 221 -1100955657 -115545102 -2086424069 1875178960
            -928183299 -67639555 -1937212418 -1930605503</internalNodes>
          <leafValues>
            -2.9540342092514038e-01 1.8545369803905487e-01</leafValues></_>
        <_>
          <internalNodes>
            0 -1 392 -18926065 857588597 -636140002 943710011 -18663420
            1604331852 -1081873778 -159909033</internalNodes>
          <leafValues>
            -2.5586473941802979e-01 2.1065449714660645e-01</leafValues></_>
        <_>
          <internalNodes>
            0 -1 357 -8456863 939522399 -6449731 -5964068 817509683
            128645619 -840212204 -1996691388</internalNodes>
          <leafValues>
            -2.3120781779289246e-01 2.2869469225406647e-01</leafValues></_>
        <_>
          <internalNodes>
            0 -1 96 -1084256385 1408049435 -1652437029 -582625057
            466027518 290792646 2143581855 367991579</internalNodes>
          <leafValues>
            -4.5235541462898254e-01 1.1491829156875610e-01</leafValues></_>
        <_>
          <internalNodes>
            0 -1 117 254263283 380794858 -268451841 -604640267 88356831
            -1932603427 1392337915 -974160649</internalNodes>
          <leafValues>
            -1.6546949744224548e-01 3.1193003058433533e-01</leafValues></_>
        <_>
          <internalNodes>
            0 -1 439 1115860641 128626638 -456575630 -303994912
            520311733 99578244 1371936032 1162312693</internalNodes>
          <leafValues>
            -3.7316307425498962e-01 1.4199933409690857e-01</leafValues></_>
        <_>
          <internalNodes>
            0 -1 476 -67694369 -134671926 1924881535 1398100982
            -67216888 -568953321 1377975999 2056846319</internalNodes>
          <leafValues>
            -2.0071287453174591e-01 2.6857486367225647e-01</leafValues></_>
        <_>
          <internalNodes>
            0 -1 184 -298909662 -898911057 621017413 1311750554
            -833023293 -1954299748 -1033841483 -842280201</internalNodes>
          <leafValues>
            -2.3474878072738647e-01 2.2018365561962128e-01</leafValues></_>
        <_>
          <internalNodes>
            0 -1 299 -1196054733 2096540080 -638190145 -1347555729
            -1509990160 -58851483 -16946001 -400511205</internalNodes>
          <leafValues>
            -1.8142095208168030e-01 2.7919742465019226e-01</leafValues></_>
        <_>
          <internalNodes>
            0 -1 82 -345288585 -1088552804 1178600102 546133247
            1667367428 -752811944 258638063 1591385851</internalNodes>
          <leafValues>
            -2.6381242275238037e-01 1.9520574808120728e-01</leafValues></_>
        <_>
          <internalNodes>
            0 -1 53 1668787231 446952599 -616518581 -1098466606
            561401436 302223615 -261805047 -260834689</internalNodes>
          <leafValues>
            -2.7059781551361084e-01 1.9299630820751190e-01</leafValues></_>
        <_>
          <internalNodes>
            0 -1 329 574326529 -1204181136 495804081 -1884841600
            1841987067 -1124875311 424350373 -2065312704</internalNodes>
          <leafValues>
            -3.1080192327499390e-01 1.5975935757160187e-01</leafValues></_>
        <_>
          <internalNodes>
            0 -1 463 34130139 -1148315064 1138128277 1608500668
            1999771354 -293036037 -31523370 -14860</internalNodes>
          <leafValues>
            -1.7354333400726318e-01 2.9476875066757202e-01</leafValues></_>
        <_>
          <internalNodes>
            0 -1 277 73020948 -1400599889 -700386446 -170468194
            -1227409553 -1074791577 -307619331 -1921049545</internalNodes>
          <leafValues>
            -2.2878399491310120e-01 2.1967576444149017e-01</leafValues></_>
        <_>
          <internalNodes>
            0 -1 427 -930469594 2048205763 -2129602595 1673602104
            1108556774 -82458160 -958429186 216393982</internalNodes>
          <leafValues>
            -3.2414835691452026e-01 1.3547715544700623e-01</leafValues></_>
        <_>
          <internalNodes>
            0 -1 442 -23860501 -1951809366 -830540975 2080364407
            -1128400133 -2067038616 2004416484 -9993</internalNodes>
          <leafValues>
            -1.3598488271236420e-01 3.6780950427055359e-01</leafValues></_>
        <_>
          <internalNodes>
            0 -1 20 -210829197 -654756398 1479980787 1257125023
            -130021814 -95136424 1375271391 -610609926</internalNodes>
          <leafValues>
            -1.8156349658966064e-01 2.6829591393470764e-01</leafValues></_>
        <_>
          <internalNodes>
            0 -1 74 -661784824 -87163417 -935272922 302019222 1547262277
            2065674245 713289072 539359587</internalNodes>
          <leafValues>
            -5.9038859605789185e-01 8.8700294494628906e-02</leafValues></_>
        <_>
          <internalNodes>
            0 -1 272 1085790567 910908494 479852320 1879627802 782266580
            1896522402 1870744152 -89780139</internalNodes>
          <leafValues>
            -2.6724284887313843e-01 1.8392950296401978e-01</leafValues></_>
        <_>
          <internalNodes>
            0 -1 352 913375495 -1844494729 -666575971 527808831
            -623508859 -1084785723 -559961282 -1542161561</internalNodes>
          <leafValues>
            -2.5610738992691040e-01 1.9324401021003723e-01</leafValues></_>
        <_>
          <internalNodes>
            0 -1 90 789441955 795598022 -2052225552 1833602546
            -913696287 -2005030527 1613959602 -810686473</internalNodes>
          <leafValues>
            -2.7152496576309204e-01 1.8600267171859741e-01</leafValues></_>
        <_>
          <internalNodes>
            0 -1 444 2119641686 1398911255 1090964762 -964696552
            1746891266 485587050 -74209014 -868786617</internalNodes>
          <leafValues>
            -2.5608929991722107e-01 1.9568079710006714e-01</leafValues></_></weakClassifiers></_>
    <!-- stage 10 -->
    <_>
      <maxWeakCount>31</maxWeakCount>
      <stageThreshold>-1.5033371448516846e+00</stageThreshold>
      <weakClassifiers>
        <_>
          <internalNodes>
            0 -1 260 -1414650044 -286523923 -1118371843 -21765383
            -17958575 -811279475 -556729205 -4194369</internalNodes>
          <leafValues>
            -4.6642291545867920e-01 5.1945988088846207e-02</leafValues></_>
        <_>
          <internalNodes>
            0 -1 67 1532886527 -216579590 -782722595 2040103234
            -241960259 1673509306 1854573070 866097163</internalNodes>
          <leafValues>
            -3.9758348464965820e-01 1.7724530398845673e-01</leafValues></_>
        <_>
          <internalNodes>
            0 -1 133 -573703169 -10636289 1090635999 -16444513
            -1352680817 -1194360142 -845930613 738132619</internalNodes>
          <leafValues>
            -3.8488021492958069e-01 1.7574183642864227e-01</leafValues></_>
        <_>
          <internalNodes>
            0 -1 167 -3019433 -525295851 -1190821507 791088431 86099500
            1320992 -293062401 125743</internalNodes>
          <leafValues>
            -3.9049467444419861e-01 2.0019836723804474e-01</leafValues></_>
        <_>
          <internalNodes>
            0 -1 304 -879497972 -683758081 -282270544 2002398969
            -348399853 -605258884 -134286928 -204880</internalNodes>
          <leafValues>
            -2.3217208683490753e-01 2.4307505786418915e-01</leafValues></_>
        <_>
          <internalNodes>
            0 -1 109 -1162093574 -1347745664 458875857 -548550155
            -1112820998 -1884825312 -1827408905 -544226867</internalNodes>
          <leafValues>
            -1.8847818672657013e-01 2.9519137740135193e-01</leafValues></_>
        <_>
          <internalNodes>
            0 -1 35 -270800377 276992311 887588209 -41421433 1156440569
            34666667 1430872324 -453643354</internalNodes>
          <leafValues>
            -2.8884863853454590e-01 1.7538823187351227e-01</leafValues></_>
        <_>
          <internalNodes>
            0 -1 457 -36284334 -763921206 -629998897 -800381999
            -211939250 -1052104168 2047912495 1394240762</internalNodes>
          <leafValues>
            -2.4446427822113037e-01 2.1140475571155548e-01</leafValues></_>
        <_>
          <internalNodes>
            0 -1 434 -805328969 359000931 -1396801 700563242 1551724453
            2088623479 -10755 -856692793</internalNodes>
          <leafValues>
            -2.1239143610000610e-01 2.5751885771751404e-01</leafValues></_>
        <_>
          <internalNodes>
            0 -1 154 1392381183 394154783 1930435455 419976346
            -394131240 2119780586 -1166214914 2050522923</internalNodes>
          <leafValues>
            -3.4821563959121704e-01 1.4063744246959686e-01</leafValues></_>
        <_>
          <internalNodes>
            0 -1 163 27851697 566814912 -1816005731 -1342942096
            -1462392071 -1474800911 216865673 216875008</internalNodes>
          <leafValues>
            -4.2624208331108093e-01 1.1080221831798553e-01</leafValues></_>
        <_>
          <internalNodes>
            0 -1 0 1573798048 1542803684 1086812742 1346506755
            2032795656 676203018 402709483 990560187</internalNodes>
          <leafValues>
            -2.8549095988273621e-01 1.7661742866039276e-01</leafValues></_>
        <_>
          <internalNodes>
            0 -1 136 -851075105 1943387605 -855548521 902527837
            1027733246 1405826767 50413559 33895191</internalNodes>
          <leafValues>
            -5.2781230211257935e-01 9.7638040781021118e-02</leafValues></_>
        <_>
          <internalNodes>
            0 -1 380 -765467403 -1619875152 -1010995539 -1332016
            1308585911 804716272 500694449 234745155</internalNodes>
          <leafValues>
            -2.0974850654602051e-01 2.4377150833606720e-01</leafValues></_>
        <_>
          <internalNodes>
            0 -1 240 582885637 -1372930769 -10602500 -1905590378
            -541770261 -338231313 -137494791 -52474897</internalNodes>
          <leafValues>
            -2.0731303095817566e-01 2.3807300627231598e-01</leafValues></_>
        <_>
          <internalNodes>
            0 -1 458 -1683752278 -812956984 -2108600240 1529476465
            -1140508518 142844586 840164211 1605867001</internalNodes>
          <leafValues>
            -2.2032362222671509e-01 2.1458239853382111e-01</leafValues></_>
        <_>
          <internalNodes>
            0 -1 389 -799276449 1609833085 -918232235 1057917202
            1408241900 -79135799 2041074428 1043360662</internalNodes>
          <leafValues>
            -3.8325107097625732e-01 1.1139431595802307e-01</leafValues></_>
        <_>
          <internalNodes>
            0 -1 270 1080315508 978335007 -1483595777 803022986
            -967695626 -1117298528 2129337913 -1439420128</internalNodes>
          <leafValues>
            -3.2390880584716797e-01 1.4429855346679688e-01</leafValues></_>
        <_>
          <internalNodes>
            0 -1 68 -1187335779 -81795336 1278401405 1608374172
            -84238552 -1611612624 -1195865064 -621298696</internalNodes>
          <leafValues>
            -1.8172384798526764e-01 2.6036918163299561e-01</leafValues></_>
        <_>
          <internalNodes>
            0 -1 401 564715954 -1356420222 -1923132366 -308944893
            558098364 235724945 28933332 -2064393020</internalNodes>
          <leafValues>
            -3.3853849768638611e-01 1.3731162250041962e-01</leafValues></_>
        <_>
          <internalNodes>
            0 -1 220 -281368590 1518518494 474586336 -1865650338
            -1690630364 988153856 420159163 -410272776</internalNodes>
          <leafValues>
            -2.2285565733909607e-01 2.0772306621074677e-01</leafValues></_>
        <_>
          <internalNodes>
            0 -1 129 -389945202 -974530579 -435631710 -1903312517
            -2129721838 -517078950 -1499859257 -789320777</internalNodes>
          <leafValues>
            -3.0402123928070068e-01 1.5286043286323547e-01</leafValues></_>
        <_>
          <internalNodes>
            0 -1 339 -1595005404 -139970693 -705766504 934494008
            -791008971 1506595555 -323031948 31095988</internalNodes>
          <leafValues>
            -3.3562791347503662e-01 1.3713060319423676e-01</leafValues></_>
        <_>
          <internalNodes>
            0 -1 39 -648324357 882637390 -997632185 -1517956263
            587276794 2433787 100930895 341139555</internalNodes>
          <leafValues>
            -5.3879475593566895e-01 7.4080802500247955e-02</leafValues></_>
        <_>
          <internalNodes>
            0 -1 202 -2027231544 -1426186327 -142852624 -755314689
            -1350783092 -598720668 2147357913 -272972293</internalNodes>
          <leafValues>
            -2.0833900570869446e-01 2.4247044324874878e-01</leafValues></_>
        <_>
          <internalNodes>
            0 -1 79 -1716798246 -2065344182 103119217 1039651989
            -1515259912 -2022789368 1413731293 -1617116783</internalNodes>
          <leafValues>
            -1.8700423836708069e-01 2.5723150372505188e-01</leafValues></_>
        <_>
          <internalNodes>
            0 -1 16 1064193296 -78557376 1514148345 1468877721
            1865595626 -1159977330 -1684358486 1751817878</internalNodes>
          <leafValues>
            -2.4424286186695099e-01 1.8434964120388031e-01</leafValues></_>
        <_>
          <internalNodes>
            0 -1 430 1726795615 2078258970 784322143 1638207402
            1287589390 2139049431 -16788882 -264900813</internalNodes>
          <leafValues>
            -1.8243664503097534e-01 2.6045992970466614e-01</leafValues></_>
        <_>
          <internalNodes>
            0 -1 406 -1119113213 -1293108155 2118118733 -251660603
            -1350743030 -145368661 1072620547 -229714345</internalNodes>
          <leafValues>
            -2.0443947613239288e-01 2.2681814432144165e-01</leafValues></_>
        <_>
          <internalNodes>
            0 -1 94 -840201625 1715384746 1359959532 -949110336
            -934493231 216666290 871322610 -1745376334</internalNodes>
          <leafValues>
            -2.7963370084762573e-01 1.6323992609977722e-01</leafValues></_>
        <_>
          <internalNodes>
            0 -1 281 854547022 -466322599 2069128159 2123513373
            -1410401481 -174321357 -984480603 -1602591287</internalNodes>
          <leafValues>
            -2.5229731202125549e-01 1.7659690976142883e-01</leafValues></_></weakClassifiers></_>
    <!-- stage 11 -->
    <_>
      <maxWeakCount>34</maxWeakCount>
      <stageThreshold>-1.4233174324035645e+00</stageThreshold>
      <weakClassifiers>
        <_>
          <internalNodes>
            0 -1 266 -158412388 -20969794 -414571976 -84016135 -10503239
            -143393 -1146179660 -66572</internalNodes>
          <leafValues>
            -4.4651871919631958e-01 5.0643488764762878e-02</leafValues></_>
        <_>
          <internalNodes>
            0 -1 227 -348786723 -1285701673 1359000849 794804067
            -704542257 689911521 -1421048945 599206587</internalNodes>
          <leafValues>
            -5.0543081760406494e-01 9.8205335438251495e-02</leafValues></_>
        <_>
          <internalNodes>
            0 -1 98 -1749297157 -1191755841 -4194929 -268642646
            256963042 905443313 1867677647 -160178210</internalNodes>
          <leafValues>
            -1.8940085172653198e-01 2.9644966125488281e-01</leafValues></_>
        <_>
          <internalNodes>
            0 -1 453 -1069149 782952330 1023616500 -1358786910
            1896165729 1317114821 -68204667 -839387277</internalNodes>
          <leafValues>
            -2.3412762582302094e-01 2.3075537383556366e-01</leafValues></_>
        <_>
          <internalNodes>
            0 -1 340 -4719831 -4259858 -809567244 -67576838 -910217451
            -1108549892 -35655120 -1342377996</internalNodes>
          <leafValues>
            -1.9410383701324463e-01 2.6535323262214661e-01</leafValues></_>
        <_>
          <internalNodes>
            0 -1 45 -335697355 932098605 1099570548 -1752171758
            1400847967 -487397137 2142112788 -119014606</internalNodes>
          <leafValues>
            -2.4651442468166351e-01 2.0120450854301453e-01</leafValues></_>
        <_>
          <internalNodes>
            0 -1 300 -1353249221 -1564410383 -620538985 -1883919429
            988090301 -38412289 -24303315 -1405868032</internalNodes>
          <leafValues>
            -2.6638609170913696e-01 1.8471013009548187e-01</leafValues></_>
        <_>
          <internalNodes>
            0 -1 425 667414638 -1423706558 -1073227728 -10487437
            148752603 71545473 -1241354127 2145080055</internalNodes>
          <leafValues>
            -2.3993438482284546e-01 2.2095762193202972e-01</leafValues></_>
        <_>
          <internalNodes>
            0 -1 328 672464823 -1114163340 1015930269 -1916697517
            971614719 -1146398258 688860460 -1359669196</internalNodes>
          <leafValues>
            -2.5874021649360657e-01 1.8449324369430542e-01</leafValues></_>
        <_>
          <internalNodes>
            0 -1 164 1887493083 -1700392814 93198668 662740242
            -1773041228 -590314717 -1008260931 88417543</internalNodes>
          <leafValues>
            -3.6197027564048767e-01 1.1507162451744080e-01</leafValues></_>
        <_>
          <internalNodes>
            0 -1 111 -751085493 1338989576 1745516110 1120551262
            -1146463734 -899014072 -631616769 1530854618</internalNodes>
          <leafValues>
            -2.3108255863189697e-01 2.1297581493854523e-01</leafValues></_>
        <_>
          <internalNodes>
            0 -1 124 -890556896 2132626007 -829924371 773853967
            -861404975 -72259426 -1032795909 -98273765</internalNodes>
          <leafValues>
            -2.6632952690124512e-01 1.7880550026893616e-01</leafValues></_>
        <_>
          <internalNodes>
            0 -1 390 -423403907 889176791 1445431450 574076245 -96974592
            -866668242 -135724980 -262939909</internalNodes>
          <leafValues>
            -2.8961476683616638e-01 1.5351164340972900e-01</leafValues></_>
        <_>
          <internalNodes>
            0 -1 110 -286266462 -1477634065 -653037342 -539109933
            -1010048891 -1985353384 -2050689099 -788681389</internalNodes>
          <leafValues>
            -2.1384760737419128e-01 2.0524369180202484e-01</leafValues></_>
        <_>
          <internalNodes>
            0 -1 60 -220744177 1383453887 -1668221814 -254550981
            1615943238 839916821 -224075509 1920204355</internalNodes>
          <leafValues>
            -3.7578204274177551e-01 1.2532261013984680e-01</leafValues></_>
        <_>
          <internalNodes>
            0 -1 422 -285232638 -750016894 -220276634 -255262670
            -738625717 -9748199 -840242483 -460985861</internalNodes>
          <leafValues>
            -2.0520073175430298e-01 2.1556669473648071e-01</leafValues></_>
        <_>
          <internalNodes>
            0 -1 466 1179020679 -203737641 -2111652265 -1502990037
            2072607403 -368956591 1792789469 -386545962</internalNodes>
          <leafValues>
            -2.0882400870323181e-01 2.1360556781291962e-01</leafValues></_>
        <_>
          <internalNodes>
            0 -1 271 79694276 1003723990 -1483505963 147865307
            1215306932 -16611244 1872723866 -1464858112</internalNodes>
          <leafValues>
            -2.7531191706657410e-01 1.6039079427719116e-01</leafValues></_>
        <_>
          <internalNodes>
            0 -1 395 1100678947 791625360 -2125383144 94873988
            -1767698031 1838373085 -1383749196 -1914325891</internalNodes>
          <leafValues>
            -2.9156538844108582e-01 1.4795497059822083e-01</leafValues></_>
        <_>
          <internalNodes>
            0 -1 91 1842335137 406901346 -1795091037 -1882368862
            168105965 1285316627 29954884 1103562549</internalNodes>
          <leafValues>
            -4.3826335668563843e-01 8.2136623561382294e-02</leafValues></_>
        <_>
          <internalNodes>
            0 -1 477 -807922449 -202434552 -690128705 -803645490
            -121986549 -666106357 99023355 1353358319</internalNodes>
          <leafValues>
            -2.1497097611427307e-01 1.9199045002460480e-01</leafValues></_>
        <_>
          <internalNodes>
            0 -1 381 12511472 -1130714192 -544400128 -1647699920
            1038055933 -1987982955 398943128 231556112</internalNodes>
          <leafValues>
            -3.5342141985893250e-01 1.2518537044525146e-01</leafValues></_>
        <_>
          <internalNodes>
            0 -1 275 2028784406 -1821918939 -518270756 -1075341000
            -243178205 997142397 -353403523 -2029973737</internalNodes>
          <leafValues>
            -2.2366560995578766e-01 1.8971796333789825e-01</leafValues></_>
        <_>
          <internalNodes>
            0 -1 87 532791295 -149948833 1140901647 1460210010
            1770594047 1616483515 -410206899 370612259</internalNodes>
          <leafValues>
            -3.7869939208030701e-01 1.1117315292358398e-01</leafValues></_>
        <_>
          <internalNodes>
            0 -1 243 -489986288 -621449639 -1668416013 574254229
            -908414031 -413878914 -840108620 -1581719895</internalNodes>
          <leafValues>
            -2.4319292604923248e-01 1.9116605818271637e-01</leafValues></_>
        <_>
          <internalNodes>
            0 -1 470 -590346112 -1362213958 -2061705099 -414179944
            -383382394 -1986565206 -95263049 -542065179</internalNodes>
          <leafValues>
            -2.4825482070446014e-01 1.7714403569698334e-01</leafValues></_>
        <_>
          <internalNodes>
            0 -1 292 1592317305 -17909273 -88097923 989755412 -50351727
            -328213001 704259232 -319132944</internalNodes>
          <leafValues>
            -1.6598314046859741e-01 2.6222959160804749e-01</leafValues></_>
        <_>
          <internalNodes>
            0 -1 461 -1959939333 -1155413256 1874171888 -548433084
            -1121455141 -1984983346 -1632377857 -537963556</internalNodes>
          <leafValues>
            -1.1799284070730209e-01 3.4783330559730530e-01</leafValues></_>
        <_>
          <internalNodes>
            0 -1 295 -1415683545 542527887 362634527 -283325026
            -1131714380 -1472218965 -367720116 -865023742</internalNodes>
          <leafValues>
            -2.3145565390586853e-01 1.8469741940498352e-01</leafValues></_>
        <_>
          <internalNodes>
            0 -1 208 610239556 783731615 -641540264 718986018 342213853
            2011080533 1727998196 946890212</internalNodes>
          <leafValues>
            -3.3464974164962769e-01 1.2975835800170898e-01</leafValues></_>
        <_>
          <internalNodes>
            0 -1 161 -838683653 177394967 -90280726 1187044734 469471349
            1021747794 741149069 -1916815706</internalNodes>
          <leafValues>
            -2.0837211608886719e-01 2.0181716978549957e-01</leafValues></_>
        <_>
          <internalNodes>
            0 -1 475 -134741941 -89426205 329904735 -84251397 1767781962
            -242658 -1335689297 1846073018</internalNodes>
          <leafValues>
            -1.9568164646625519e-01 2.0887954533100128e-01</leafValues></_>
        <_>
          <internalNodes>
            0 -1 405 -42096377 -1939014600 1435579144 -15427515
            1088681698 704086226 1773792450 -345255590</internalNodes>
          <leafValues>
            -2.3549754917621613e-01 1.9109691679477692e-01</leafValues></_>
        <_>
          <internalNodes>
            0 -1 107 -401677106 1928790045 1614854142 574050391
            1536707409 1849163777 -1077837576 -536571329</internalNodes>
          <leafValues>
            -2.9724171757698059e-01 1.4196781814098358e-01</leafValues></_></weakClassifiers></_>
    <!-- stage 12 -->
    <_>
      <maxWeakCount>38</maxWeakCount>
      <stageThreshold>-1.4065650701522827e+00</stageThreshold>
      <weakClassifiers>
        <_>
          <internalNodes>
            0 -1 259 -899262650 -2318234 -1221272068 -204608881
            -2013299341 -407079132 -100683271 -8197</internalNodes>
          <leafValues>
            -4.2256298661231995e-01 6.6666670143604279e-02</leafValues></_>
        <_>
          <internalNodes>
            0 -1 62 -247072033 -791409774 -305791587 1935490201
            -1280903723 283691200 -1282874709 1726931526</internalNodes>
          <leafValues>
            -3.9868715405464172e-01 1.2389867752790451e-01</leafValues></_>
        <_>
          <internalNodes>
            0 -1 188 -573179905 -774637825 -921889681 -37375269
            -361891393 -1278234994 -1916039969 -1073798469</internalNodes>
          <leafValues>
            -2.2902967035770416e-01 2.2351054847240448e-01</leafValues></_>
        <_>
          <internalNodes>
            0 -1 200 617485060 1852711295 -1510550704 -88283534
            263403913 -1351507380 2088131994 1714904767</internalNodes>
          <leafValues>
            -2.7162519097328186e-01 1.9254931807518005e-01</leafValues></_>
        <_>
          <internalNodes>
            0 -1 81 -1824785413 -1448371992 295285571 1608490309
            -1146094870 -2020965696 -1556875273 -540028507</internalNodes>
          <leafValues>
            -1.5971420705318451e-01 2.8123816847801208e-01</leafValues></_>
        <_>
          <internalNodes>
            0 -1 351 -36469939 960471879 -685746465 -2027716089
            -102911812 -101766433 -311895416 -1574897133</internalNodes>
          <leafValues>
            -2.7305018901824951e-01 1.6586010158061981e-01</leafValues></_>
        <_>
          <internalNodes>
            0 -1 59 -570583043 1953463807 -1318412361 859106751
            -100858648 -134251009 -1377719073 -114688849</internalNodes>
          <leafValues>
            -1.7128412425518036e-01 2.6922789216041565e-01</leafValues></_>
        <_>
          <internalNodes>
            0 -1 17 1068497681 1199042481 -1342718145 1603271474
            1853331424 -815925261 -556107016 -844372558</internalNodes>
          <leafValues>
            -1.7957481741905212e-01 2.2508309781551361e-01</leafValues></_>
        <_>
          <internalNodes>
            0 -1 377 2137516687 1439375618 -485842401 69661450
            1748231181 815304896 -268296610 14020257</internalNodes>
          <leafValues>
            -3.7184739112854004e-01 1.0916198045015335e-01</leafValues></_>
        <_>
          <internalNodes>
            0 -1 460 -1816989133 -1486650648 175821760 -541077307
            -1214582593 -2129747712 377206211 1004257685</internalNodes>
          <leafValues>
            -2.2939793765544891e-01 1.8420197069644928e-01</leafValues></_>
        <_>
          <internalNodes>
            0 -1 185 640612849 447788786 2051641721 -807611424 585486261
            -1634653525 180423197 -1913826235</internalNodes>
          <leafValues>
            -2.7510923147201538e-01 1.6550220549106598e-01</leafValues></_>
        <_>
          <internalNodes>
            0 -1 105 -631290073 2043434159 1084269853 1380140067
            -198112013 1790323678 -1454674374 2017290779</internalNodes>
          <leafValues>
            -2.7162128686904907e-01 1.5310916304588318e-01</leafValues></_>
        <_>
          <internalNodes>
            0 -1 15 765417552 1178030270 543220363 1082510559 -76931574
            -1287045090 306748159 403349242</internalNodes>
          <leafValues>
            -2.7747839689254761e-01 1.4754918217658997e-01</leafValues></_>
        <_>
          <internalNodes>
            0 -1 306 -940638456 -169153889 -863573317 2087068498
            -139758305 524052284 -140050539 -21046276</internalNodes>
          <leafValues>
            -2.0019787549972534e-01 2.0145435631275177e-01</leafValues></_>
        <_>
          <internalNodes>
            0 -1 387 -1322535160 -2103265096 -620224972 -156438699
            -249388691 -1414094751 612770593 -638069775</internalNodes>
          <leafValues>
            -2.7679714560508728e-01 1.5121874213218689e-01</leafValues></_>
        <_>
          <internalNodes>
            0 -1 18 -2008165946 -1494413283 1158715512 1595673093
            1208494081 1074250163 -1367306658 1191938715</internalNodes>
          <leafValues>
            -2.9024329781532288e-01 1.2445080280303955e-01</leafValues></_>
        <_>
          <internalNodes>
            0 -1 122 653240522 552777719 -493181928 -1595869342
            1366625885 810911095 2136000346 -264180926</internalNodes>
          <leafValues>
            -2.8443595767021179e-01 1.3342501223087311e-01</leafValues></_>
        <_>
          <internalNodes>
            0 -1 383 522373025 -1188260640 -1354392743 -1613780398
            630923743 -1719533846 -1865711875 -1940454255</internalNodes>
          <leafValues>
            -2.7883839607238770e-01 1.4276716113090515e-01</leafValues></_>
        <_>
          <internalNodes>
            0 -1 372 -925416936 785278602 -1962148147 -15280269
            -79258946 -189386455 -782730292 -362747270</internalNodes>
          <leafValues>
            -2.3888099193572998e-01 1.6351744532585144e-01</leafValues></_>
        <_>
          <internalNodes>
            0 -1 476 -4564869 -12505957 -1023417113 -228830213
            -117821398 -600152571 1163326127 -561492117</internalNodes>
          <leafValues>
            -1.7295567691326141e-01 2.3000071942806244e-01</leafValues></_>
        <_>
          <internalNodes>
            0 -1 2 2077594669 -765287851 1090643333 -771232222 21738404
            -2145353523 1753506206 1953577402</internalNodes>
          <leafValues>
            -2.6431033015251160e-01 1.5266878902912140e-01</leafValues></_>
        <_>
          <internalNodes>
            0 -1 37 -796795905 -1569742125 184570460 1704003613
            619954611 636856182 864041439 1998511051</internalNodes>
          <leafValues>
            -3.0545821785926819e-01 1.3740280270576477e-01</leafValues></_>
        <_>
          <internalNodes>
            0 -1 321 -773440660 2144285444 -316178466 -787633191
            -839973007 -2049133200 -59965695 -538976299</internalNodes>
          <leafValues>
            -1.7732833325862885e-01 2.7182865142822266e-01</leafValues></_>
        <_>
          <internalNodes>
            0 -1 135 1570356727 357114847 356617481 546123337 1175404499
            1115759237 1426929608 721505</internalNodes>
          <leafValues>
            -5.8070576190948486e-01 8.1187665462493896e-02</leafValues></_>
        <_>
          <internalNodes>
            0 -1 212 -579173409 -1141275809 1864048629 -1359311106
            -1154230021 -106511 -33820703 -18548286</internalNodes>
          <leafValues>
            -1.3401357829570770e-01 3.3718651533126831e-01</leafValues></_>
        <_>
          <internalNodes>
            0 -1 314 443527125 472604122 -1699948 -1346102046 2107969969
            -202685523 -351527680 -304832348</internalNodes>
          <leafValues>
            -2.1594735980033875e-01 1.8629424273967743e-01</leafValues></_>
        <_>
          <internalNodes>
            0 -1 423 -742402133 -1435793368 1624961506 -543167771
            -1681672228 -1981954074 131987025 -8398921</internalNodes>
          <leafValues>
            -1.2407161295413971e-01 3.1758370995521545e-01</leafValues></_>
        <_>
          <internalNodes>
            0 -1 177 -280830512 763237445 1812003665 -1171100705
            983272891 542277589 -143675080 -156047310</internalNodes>
          <leafValues>
            -2.1619123220443726e-01 1.8852522969245911e-01</leafValues></_>
        <_>
          <internalNodes>
            0 -1 194 664807168 -1906384489 -1282124321 -57490472
            715531147 -1372587531 -539211977 -1061805450</internalNodes>
          <leafValues>
            -2.5324046611785889e-01 1.6167600452899933e-01</leafValues></_>
        <_>
          <internalNodes>
            0 -1 452 1257721802 1928792740 -1425814758 167941342
            1044860932 1811882516 1666128732 542367808</internalNodes>
          <leafValues>
            -3.7226584553718567e-01 9.0609937906265259e-02</leafValues></_>
        <_>
          <internalNodes>
            0 -1 312 210370849 543313631 518085476 569782054 464869137
            246906879 925584944 385674864</internalNodes>
          <leafValues>
            -3.7981042265892029e-01 1.0190152376890182e-01</leafValues></_>
        <_>
          <internalNodes>
            0 -1 182 1455046901 460788680 935744444 138451807 314985464
            -325580605 -387417362 672668315</internalNodes>
          <leafValues>
            -3.1600466370582581e-01 1.1942701786756516e-01</leafValues></_>
        <_>
          <internalNodes>
            0 -1 396 1726961426 -1165467818 -511577570 669957848
            -674809276 -573974241 -108794956 -1929511432</internalNodes>
          <leafValues>
            -2.2315514087677002e-01 1.7669963836669922e-01</leafValues></_>
        <_>
          <internalNodes>
            0 -1 366 778294019 -224160242 768016337 -186780462
            -1421126825 1375879529 1396012389 -435826359</internalNodes>
          <leafValues>
            -2.1773478388786316e-01 1.7838223278522491e-01</leafValues></_>
        <_>
          <internalNodes>
            0 -1 109 -1581684670 -1364357912 1095491920 1997393189
            -1209292574 92471296 289076656 84709632</internalNodes>
          <leafValues>
            -3.1128260493278503e-01 1.1888997256755829e-01</leafValues></_>
        <_>
          <internalNodes>
            0 -1 255 -1997151433 -644180786 220642170 -1486525488
            743964877 1071919779 -844335107 -1996631276</internalNodes>
          <leafValues>
            -2.0292706787586212e-01 1.9462488591670990e-01</leafValues></_>
        <_>
          <internalNodes>
            0 -1 353 576332843 914989035 -305751138 1799207940
            -1760592555 1824935265 -1335456 87086146</internalNodes>
          <leafValues>
            -2.9131257534027100e-01 1.2832868099212646e-01</leafValues></_>
        <_>
          <internalNodes>
            0 -1 25 336450271 -473179221 -2012900083 1669978438
            1712787289 1634456082 1160199964 3953941</internalNodes>
          <leafValues>
            -5.0059032440185547e-01 7.4292354285717010e-02</leafValues></_></weakClassifiers></_>
    <!-- stage 13 -->
    <_>
      <maxWeakCount>37</maxWeakCount>
      <stageThreshold>-1.3157606124877930e+00</stageThreshold>
      <weakClassifiers>
        <_>
          <internalNodes>
            0 -1 280 -1433518336 -1213666839 -215658052 -67245844
            -470712487 -824645273 -325066822 -541073665</internalNodes>
          <leafValues>
            -4.4518747925758362e-01 3.7218414247035980e-02</leafValues></_>
        <_>
          <internalNodes>
            0 -1 48 1461583863 -209032293 -1895445105 2098007309
            -35070726 1358221506 -275787825 -208209073</internalNodes>
          <leafValues>
            -2.4676159024238586e-01 1.8540653586387634e-01</leafValues></_>
        <_>
          <internalNodes>
            0 -1 371 -15692835 1968278949 -1878984365 -147381999
            17133707 -1761259517 954065745 500630975</internalNodes>
          <leafValues>
            -2.7330279350280762e-01 1.6807258129119873e-01</leafValues></_>
        <_>
          <internalNodes>
            0 -1 448 -1155009541 -811105368 2136442353 1602221429
            -1414274629 -1904112934 1992291779 -2365251</internalNodes>
          <leafValues>
            -1.1239553987979889e-01 3.5771697759628296e-01</leafValues></_>
        <_>
          <internalNodes>
            0 -1 176 -1352210996 -1901171969 1953561408 -486604884
            -423579713 -604047371 -185337921 -16782405</internalNodes>
          <leafValues>
            -1.9017599523067474e-01 2.5594577193260193e-01</leafValues></_>
        <_>
          <internalNodes>
            0 -1 92 1468387167 -1748816105 1074906383 1527598596
            334763999 20787487 1338558287 268909495</internalNodes>
          <leafValues>
            -4.5248946547508240e-01 8.9065819978713989e-02</leafValues></_>
        <_>
          <internalNodes>
            0 -1 263 -739247590 -100948385 -1343436459 993054207
            -1095289541 -577180161 -306203339 -1081409640</internalNodes>
          <leafValues>
            -1.4390830695629120e-01 2.7064788341522217e-01</leafValues></_>
        <_>
          <internalNodes>
            0 -1 125 -830012832 1452460431 -1518283293 1712359371
            -525139723 -1383380477 -1006572567 -1072660601</internalNodes>
          <leafValues>
            -2.8356635570526123e-01 1.3093635439872742e-01</leafValues></_>
        <_>
          <internalNodes>
            0 -1 80 -2111579992 -1985363320 1292719025 1531696597
            -1499482898 -1448353664 471527921 1498273201</internalNodes>
          <leafValues>
            -2.2123050689697266e-01 1.9072596728801727e-01</leafValues></_>
        <_>
          <internalNodes>
            0 -1 95 -229643369 747350691 -517998812 -272715614 178660039
            -2071687186 1081037856 1169651379</internalNodes>
          <leafValues>
            -3.5227760672569275e-01 1.0671889036893845e-01</leafValues></_>
        <_>
          <internalNodes>
            0 -1 431 1686529118 1444211558 -1030690762 541754940
            1578110534 2118994360 1253279310 -1337471422</internalNodes>
          <leafValues>
            -3.5718607902526855e-01 1.1306671798229218e-01</leafValues></_>
        <_>
          <internalNodes>
            0 -1 15 -94414595 -801762243 1717629657 -804299603
            -612836854 1071172254 459192319 -91570181</internalNodes>
          <leafValues>
            -1.5882103145122528e-01 2.5274670124053955e-01</leafValues></_>
        <_>
          <internalNodes>
            0 -1 402 -1969815782 -1819108048 -137412755 -347493604
            474547705 948569219 2078212484 431295572</internalNodes>
          <leafValues>
            -3.1448981165885925e-01 1.1855429410934448e-01</leafValues></_>
        <_>
          <internalNodes>
            0 -1 367 -51440546 114223780 1369561136 -1417767518
            -21335880 1218508720 1946961856 -92474638</internalNodes>
          <leafValues>
            -2.5835847854614258e-01 1.4232593774795532e-01</leafValues></_>
        <_>
          <internalNodes>
            0 -1 112 -418907674 -1458522996 614760670 -794156680
            1946097671 1836129046 1004955086 1035985859</internalNodes>
          <leafValues>
            -2.1019317209720612e-01 1.7804260551929474e-01</leafValues></_>
        <_>
          <internalNodes>
            0 -1 58 -1870677213 2069446847 277216760 -1195163254
            -733657064 2033472793 -488117729 -1334330505</internalNodes>
          <leafValues>
            -2.6008537411689758e-01 1.4563165605068207e-01</leafValues></_>
        <_>
          <internalNodes>
            0 -1 228 -2136047437 -1618156616 -779092481 -544492571
            325607101 -1895887973 617294409 213729812</internalNodes>
          <leafValues>
            -3.1885990500450134e-01 1.1051547527313232e-01</leafValues></_>
        <_>
          <internalNodes>
            0 -1 159 -576460293 -288539672 63820643 1200878193
            -1279282446 -1917061804 -746653773 -69487209</internalNodes>
          <leafValues>
            -1.0650867968797684e-01 3.3853277564048767e-01</leafValues></_>
        <_>
          <internalNodes>
            0 -1 441 -1231355389 -1306881526 1343896134 1383870639
            -917630462 -150321055 1343820871 1811593560</internalNodes>
          <leafValues>
            -2.5507587194442749e-01 1.5010073781013489e-01</leafValues></_>
        <_>
          <internalNodes>
            0 -1 210 -2019678956 -1366881442 918812080 -365279556
            -193538808 1834150155 -4299520 -227779364</internalNodes>
          <leafValues>
            -3.3582392334938049e-01 1.0297997295856476e-01</leafValues></_>
        <_>
          <internalNodes>
            0 -1 469 1189653795 750801490 664976670 -272320278 390749009
            1218134034 822192214 1404310982</internalNodes>
          <leafValues>
            -2.9397451877593994e-01 1.2846235930919647e-01</leafValues></_>
        <_>
          <internalNodes>
            0 -1 77 -1699115367 -1086740262 -1069559343 -1706571
            -1147996456 -1345854818 -1232284677 -8529911</internalNodes>
          <leafValues>
            -1.1931971460580826e-01 3.1542336940765381e-01</leafValues></_>
        <_>
          <internalNodes>
            0 -1 320 1376986181 -1266232576 -2003229607 4493910
            1429285409 203202912 2090891420 538046255</internalNodes>
          <leafValues>
            -3.9897516369819641e-01 8.7150588631629944e-02</leafValues></_>
        <_>
          <internalNodes>
            0 -1 216 1079315141 2101929675 -1488753825 726859889
            -2079046966 -62797112 1774725739 -1438553585</internalNodes>
          <leafValues>
            -2.4193386733531952e-01 1.5556173026561737e-01</leafValues></_>
        <_>
          <internalNodes>
            0 -1 474 -775143342 -101704966 -1757166153 1969504612
            1451499461 -224565112 1378396716 -762828256</internalNodes>
          <leafValues>
            -2.2559687495231628e-01 1.6426238417625427e-01</leafValues></_>
        <_>
          <internalNodes>
            0 -1 121 -1370566993 -783640191 537859344 1549714560
            550144170 -465425716 1693404514 -262114510</internalNodes>
          <leafValues>
            -2.4024508893489838e-01 1.5981554985046387e-01</leafValues></_>
        <_>
          <internalNodes>
            0 -1 420 -564469342 168001696 1444485171 -238842478
            344530627 -1489461087 406934707 -580553739</internalNodes>
          <leafValues>
            -2.5482428073883057e-01 1.4754529297351837e-01</leafValues></_>
        <_>
          <internalNodes>
            0 -1 335 1727991048 893062423 -378344017 -1892192585
            548760948 -571588964 -35893746 -29032837</internalNodes>
          <leafValues>
            -1.8135660886764526e-01 2.1226179599761963e-01</leafValues></_>
        <_>
          <internalNodes>
            0 -1 308 986323534 1770486911 -1576863284 1944673971
            -556011151 -897517070 -424059470 -1822689887</internalNodes>
          <leafValues>
            -1.9841583073139191e-01 1.9018666446208954e-01</leafValues></_>
        <_>
          <internalNodes>
            0 -1 141 -883985921 -530583506 1157646621 1168415 1152874987
            1643884856 495650165 662665754</internalNodes>
          <leafValues>
            -2.1736000478267670e-01 1.8137896060943604e-01</leafValues></_>
        <_>
          <internalNodes>
            0 -1 356 -813892859 331513836 -47911962 -1208027628
            1971940117 1067219433 -1128980912 753729252</internalNodes>
          <leafValues>
            -2.5641736388206482e-01 1.5321187674999237e-01</leafValues></_>
        <_>
          <internalNodes>
            0 -1 233 -1366540512 1150220781 -241265346 910077862
            -866175684 -979457529 -786072261 -452173460</internalNodes>
          <leafValues>
            -2.4538053572177887e-01 1.5358458459377289e-01</leafValues></_>
        <_>
          <internalNodes>
            0 -1 26 2104825939 2029984210 1412308923 1598636280
            -272962422 -546562306 -1839285058 -74793254</internalNodes>
          <leafValues>
            -1.3003836572170258e-01 2.9418867826461792e-01</leafValues></_>
        <_>
          <internalNodes>
            0 -1 245 577119106 -1367936485 1997977282 -420063024
            636538593 -1121083922 2115467140 -428780698</internalNodes>
          <leafValues>
            -2.8108340501785278e-01 1.3548827171325684e-01</leafValues></_>
        <_>
          <internalNodes>
            0 -1 135 1561198583 386003537 83924615 1409665611 1142002571
            106144709 1300836005 465343</internalNodes>
          <leafValues>
            -4.0503647923469543e-01 9.6738584339618683e-02</leafValues></_>
        <_>
          <internalNodes>
            0 -1 257 -1477672172 -2039569611 -285282305 369085137
            -1401463507 -1802399 -756198657 -1015555477</internalNodes>
          <leafValues>
            -1.7533849179744720e-01 2.2936485707759857e-01</leafValues></_>
        <_>
          <internalNodes>
            0 -1 459 243462805 -1656775496 19675422 -1216180875
            758608290 2144811394 266076134 2141150645</internalNodes>
          <leafValues>
            -2.0543430745601654e-01 1.8302874267101288e-01</leafValues></_></weakClassifiers></_>
    <!-- stage 14 -->
    <_>
      <maxWeakCount>38</maxWeakCount>
      <stageThreshold>-1.3032832145690918e+00</stageThreshold>
      <weakClassifiers>
        <_>
          <internalNodes>
            0 -1 203 -1349634236 -272114689 -153299083 -18887945
            -405086257 -8853331 -69471765 -5</internalNodes>
          <leafValues>
            -4.0837863087654114e-01 6.4661063253879547e-02</leafValues></_>
        <_>
          <internalNodes>
            0 -1 73 -537201185 -2381583 -50215475 2077196560 -331621907
            577996985 134294443 2131471040</internalNodes>
          <leafValues>
            -2.8006494045257568e-01 1.6995058953762054e-01</leafValues></_>
        <_>
          <internalNodes>
            0 -1 189 -711458825 -553916449 -268435977 -19631 -303054917
            -18034754 -17025105 -976259317</internalNodes>
          <leafValues>
            -1.3986310362815857e-01 3.0377534031867981e-01</leafValues></_>
        <_>
          <internalNodes>
            0 -1 458 982704890 195248264 319852817 1534038513
            -1098711880 235655880 909373559 2132775013</internalNodes>
          <leafValues>
            -2.4955101311206818e-01 1.6253234446048737e-01</leafValues></_>
        <_>
          <internalNodes>
            0 -1 318 -552343905 2131173515 -2130627584 1595223138
            1409380227 -1719438707 -582959701 428548128</internalNodes>
          <leafValues>
            -3.9370754361152649e-01 1.3546040654182434e-01</leafValues></_>
        <_>
          <internalNodes>
            0 -1 311 -2098570996 -244521585 306356212 -1042685267
            2077910807 -275449164 -1356144592 -1076303624</internalNodes>
          <leafValues>
            -2.1715155243873596e-01 1.6934709250926971e-01</leafValues></_>
        <_>
          <internalNodes>
            0 -1 47 -686165281 1904185883 50338079 -2061640420
            -695745281 1089904720 -1677636129 539119712</internalNodes>
          <leafValues>
            -3.3170902729034424e-01 1.1957170814275742e-01</leafValues></_>
        <_>
          <internalNodes>
            0 -1 4 1540208351 1124180949 1361854971 -2136203151
            541851534 -528436728 810125709 1444357310</internalNodes>
          <leafValues>
            -2.7672761678695679e-01 1.4238941669464111e-01</leafValues></_>
        <_>
          <internalNodes>
            0 -1 447 -40429498 -69236501 1080324703 1917141183 -16776698
            -15784886 1343126094 -632622545</internalNodes>
          <leafValues>
            -1.8414279818534851e-01 2.2661530971527100e-01</leafValues></_>
        <_>
          <internalNodes>
            0 -1 361 1702299910 893331522 -728335266 554808903 780272388
            -1087155901 -70392433 -1569472749</internalNodes>
          <leafValues>
            -2.1060122549533844e-01 1.9018481671810150e-01</leafValues></_>
        <_>
          <internalNodes>
            0 -1 128 -1416891693 -2018514232 1652021203 -213789599
            -1161898824 -1894815958 -1622486029 -605035071</internalNodes>
          <leafValues>
            -1.5861120820045471e-01 2.5488257408142090e-01</leafValues></_>
        <_>
          <internalNodes>
            0 -1 436 2109959953 1068619575 -268702158 -1342182453
            -1116348879 -4325507 -312611739 -923664396</internalNodes>
          <leafValues>
            -1.7235241830348969e-01 2.1598346531391144e-01</leafValues></_>
        <_>
          <internalNodes>
            0 -1 343 -139725317 -1079387636 -553578028 -1378930627
            1429980913 730070155 2046829773 -1935285514</internalNodes>
          <leafValues>
            -1.7382331192493439e-01 2.1319879591464996e-01</leafValues></_>
        <_>
          <internalNodes>
            0 -1 32 1493682992 825422386 -1056340108 113243394 2340325
            -1948811053 96762370 -1057667102</internalNodes>
          <leafValues>
            -2.7841329574584961e-01 1.2755376100540161e-01</leafValues></_>
        <_>
          <internalNodes>
            0 -1 0 -542306051 -541114120 1108231371 1082595582 -21198326
            -1710710714 134412283 429588411</internalNodes>
          <leafValues>
            -1.9154600799083710e-01 1.8659685552120209e-01</leafValues></_>
        <_>
          <internalNodes>
            0 -1 181 -369963009 503220987 1946091258 1069214714
            -86458115 -500388 -1622093637 -16614630</internalNodes>
          <leafValues>
            -1.2760417163372040e-01 2.9382690787315369e-01</leafValues></_>
        <_>
          <internalNodes>
            0 -1 440 -995848545 -1310026753 1802972797 -34533531
            16056289 -1363681801 -591929349 -271223085</internalNodes>
          <leafValues>
            -1.5436708927154541e-01 2.3335196077823639e-01</leafValues></_>
        <_>
          <internalNodes>
            0 -1 376 -522607508 939832354 35080958 542433642 1241662172
            -1190689526 -289645012 273722958</internalNodes>
          <leafValues>
            -4.8733928799629211e-01 7.9403892159461975e-02</leafValues></_>
        <_>
          <internalNodes>
            0 -1 69 -1136808272 532699167 -1946105672 596109535
            -120438520 -76478106 -1539717016 678951791</internalNodes>
          <leafValues>
            -2.6372984051704407e-01 1.3928221166133881e-01</leafValues></_>
        <_>
          <internalNodes>
            0 -1 278 -295752425 -1366375702 -1987864266 -358781402
            -808485577 -840090385 2144204607 2484261</internalNodes>
          <leafValues>
            -2.6775982975959778e-01 1.3082340359687805e-01</leafValues></_>
        <_>
          <internalNodes>
            0 -1 218 -492631936 -2069152273 -427465424 167965265
            -2086581609 470307888 1702014864 172003911</internalNodes>
          <leafValues>
            -2.8778171539306641e-01 1.1539470404386520e-01</leafValues></_>
        <_>
          <internalNodes>
            0 -1 291 117333021 773777455 -1608667298 709029223
            2027691940 1977351143 996619268 1053090660</internalNodes>
          <leafValues>
            -3.1514018774032593e-01 1.0985703766345978e-01</leafValues></_>
        <_>
          <internalNodes>
            0 -1 29 526141293 1384393803 1476715159 625813973 105056090
            24510993 1985024899 4399641</internalNodes>
          <leafValues>
            -6.6373288631439209e-01 5.4725803434848785e-02</leafValues></_>
        <_>
          <internalNodes>
            0 -1 307 649047317 37730679 -173159363 800970303 1470856228
            998459831 1871669828 -996811434</internalNodes>
          <leafValues>
            -2.4105054140090942e-01 1.4445737004280090e-01</leafValues></_>
        <_>
          <internalNodes>
            0 -1 27 822097200 -9421277 76263741 502016320 -1306340458
            1929248826 -1775308644 42609920</internalNodes>
          <leafValues>
            -3.5328331589698792e-01 9.5802173018455505e-02</leafValues></_>
        <_>
          <internalNodes>
            0 -1 327 522139611 -1628151858 -37667856 -1897084424
            964966358 -86901544 1299320832 1690826416</internalNodes>
          <leafValues>
            -2.4364472925662994e-01 1.4551013708114624e-01</leafValues></_>
        <_>
          <internalNodes>
            0 -1 195 727648808 65544311 1472542660 305295452 163967280
            647116616 233720945 338716725</internalNodes>
          <leafValues>
            -3.9398980140686035e-01 8.2509465515613556e-02</leafValues></_>
        <_>
          <internalNodes>
            0 -1 354 -927058643 2007011159 -1228686698 2678638
            -637904793 -574045198 -55576024 229636721</internalNodes>
          <leafValues>
            -2.2105483710765839e-01 1.6022904217243195e-01</leafValues></_>
        <_>
          <internalNodes>
            0 -1 468 -68286091 1035648939 1878990847 -1078829778
            2126004091 -1363427329 -38459905 1575318764</internalNodes>
          <leafValues>
            -1.7734502255916595e-01 1.9346462190151215e-01</leafValues></_>
        <_>
          <internalNodes>
            0 -1 207 553069838 -1461818785 -202804908 -889583634
            587087556 -12686556 480997437 -1270809278</internalNodes>
          <leafValues>
            -2.7429598569869995e-01 1.1892624944448471e-01</leafValues></_>
        <_>
          <internalNodes>
            0 -1 317 -2041054458 840160531 -1140486563 -1094348606
            -1650932493 -1407591934 434911974 -226039053</internalNodes>
          <leafValues>
            -1.8494184315204620e-01 1.8516826629638672e-01</leafValues></_>
        <_>
          <internalNodes>
            0 -1 119 -1462124548 -1423824255 -956034511 -1185392371
            65157940 126329124 -1234812389 -943517597</internalNodes>
          <leafValues>
            -2.3220150172710419e-01 1.4684966206550598e-01</leafValues></_>
        <_>
          <internalNodes>
            0 -1 477 -1353050902 1928220792 1083099819 -798682906
            -1081075194 -1744044024 1948447050 1478031339</internalNodes>
          <leafValues>
            -2.6994723081588745e-01 1.2760563194751740e-01</leafValues></_>
        <_>
          <internalNodes>
            0 -1 247 -1962252374 168664595 1145440532 944783316
            871543705 -338138443 1326842013 -394518412</internalNodes>
          <leafValues>
            -2.6019337773323059e-01 1.4165325462818146e-01</leafValues></_>
        <_>
          <internalNodes>
            0 -1 428 1726369758 1600004614 1101174983 929127760
            -494733097 442908717 1110898798 1784891986</internalNodes>
          <leafValues>
            -1.9831736385822296e-01 1.7924650013446808e-01</leafValues></_>
        <_>
          <internalNodes>
            0 -1 265 -752502148 -71758465 -336708999 988544895
            -1375814721 83555765 -1518871691 -1894277408</internalNodes>
          <leafValues>
            -1.5727744996547699e-01 2.2242593765258789e-01</leafValues></_>
        <_>
          <internalNodes>
            0 -1 13 1544937247 -1752050689 1224770825 924800325
            -1358029101 303529835 50637446 19071401</internalNodes>
          <leafValues>
            -4.7134664654731750e-01 8.1631742417812347e-02</leafValues></_>
        <_>
          <internalNodes>
            0 -1 193 575549106 1601958684 -1452576305 -339512
            -1870877833 -152929317 1822269257 -1393000459</internalNodes>
          <leafValues>
            -2.5702407956123352e-01 1.3785734772682190e-01</leafValues></_></weakClassifiers></_>
    <!-- stage 15 -->
    <_>
      <maxWeakCount>42</maxWeakCount>
      <stageThreshold>-1.3463605642318726e+00</stageThreshold>
      <weakClassifiers>
        <_>
          <internalNodes>
            0 -1 201 -1492462120 -525445377 -1223632496 -654774562
            -340658193 -897065520 -11471890 -67436609</internalNodes>
          <leafValues>
            -4.1767352819442749e-01 4.2918454855680466e-03</leafValues></_>
        <_>
          <internalNodes>
            0 -1 111 -42789 -740356038 403009791 1348432383 -1682191734
            -30915494 -367067137 -74712837</internalNodes>
          <leafValues>
            -1.1840487271547318e-01 3.8602650165557861e-01</leafValues></_>
        <_>
          <internalNodes>
            0 -1 71 -546854093 -537040418 1879310239 327273087
            -243203022 -74811181 -10359621 2051242559</internalNodes>
          <leafValues>
            -2.4821008741855621e-01 1.5322431921958923e-01</leafValues></_>
        <_>
          <internalNodes>
            0 -1 115 -846769161 -1317072753 -670006967 858594205
            -99697997 -88831367 1571658635 1158013230</internalNodes>
          <leafValues>
            -3.5343536734580994e-01 1.1165388673543930e-01</leafValues></_>
        <_>
          <internalNodes>
            0 -1 284 -204735922 -3361090 -1913770881 1646955581
            -1342561999 -1228083598 -235428623 -1280630768</internalNodes>
          <leafValues>
            -1.4413186907768250e-01 2.4743205308914185e-01</leafValues></_>
        <_>
          <internalNodes>
            0 -1 81 -1682210134 -1995462648 290059091 1259460801
            -1883582326 -1970765063 624158658 1393528985</internalNodes>
          <leafValues>
            -2.6052340865135193e-01 1.4179717004299164e-01</leafValues></_>
        <_>
          <internalNodes>
            0 -1 341 579961769 689024 -2076179695 98485899 1936979418
            381911699 126242961 165538063</internalNodes>
          <leafValues>
            -5.4034137725830078e-01 6.7685581743717194e-02</leafValues></_>
        <_>
          <internalNodes>
            0 -1 475 -42791 -67681221 -1853300129 1407179515 -713942838
            -25273288 1248521871 -552021061</internalNodes>
          <leafValues>
            -1.1633487045764923e-01 3.0046275258064270e-01</leafValues></_>
        <_>
          <internalNodes>
            0 -1 50 -628247964 278106679 -518878440 -649279430
            1444872477 -100105753 1859652624 -697185498</internalNodes>
          <leafValues>
            -2.3912337422370911e-01 1.3778221607208252e-01</leafValues></_>
        <_>
          <internalNodes>
            0 -1 79 -1710556455 -974186304 -1977284111 1601007761
            -1229262087 -2012811776 1062199807 2135544305</internalNodes>
          <leafValues>
            -1.4631275832653046e-01 2.3196803033351898e-01</leafValues></_>
        <_>
          <internalNodes>
            0 -1 249 1649069060 1779074671 756155455 982942842 901766556
            128912844 2142968240 -51446940</internalNodes>
          <leafValues>
            -2.1095615625381470e-01 1.6569733619689941e-01</leafValues></_>
        <_>
          <internalNodes>
            0 -1 414 -235929693 389641647 -1880100865 -1489111282
            -595603568 1970654548 -16835001 -235422133</internalNodes>
          <leafValues>
            -1.4957727491855621e-01 2.4224814772605896e-01</leafValues></_>
        <_>
          <internalNodes>
            0 -1 222 1565234791 -724848417 -1543448505 889665111
            -682818933 1884802647 88183515 456198834</internalNodes>
          <leafValues>
            -2.9811328649520874e-01 1.2333425879478455e-01</leafValues></_>
        <_>
          <internalNodes>
            0 -1 256 -2105791740 1789720574 1845375789 -1221214403
            1877429023 -270614689 -428229 -307241093</internalNodes>
          <leafValues>
            -1.6560465097427368e-01 2.2757950425148010e-01</leafValues></_>
        <_>
          <internalNodes>
            0 -1 448 -1980501317 -1422945664 205520944 -610430527
            -105907462 71405696 1935258146 1599330786</internalNodes>
          <leafValues>
            -1.7962802946567535e-01 1.8800988793373108e-01</leafValues></_>
        <_>
          <internalNodes>
            0 -1 313 1029627683 1016788922 2124280763 -1832985450
            511159217 1878730935 804814448 -327352332</internalNodes>
          <leafValues>
            -1.8711133301258087e-01 1.7687962949275970e-01</leafValues></_>
        <_>
          <internalNodes>
            0 -1 99 -1460670801 652197802 -150996953 707196828 35899343
            -1334394897 1962364446 -61759822</internalNodes>
          <leafValues>
            -1.7890268564224243e-01 1.8881806731224060e-01</leafValues></_>
        <_>
          <internalNodes>
