<?xml version="1.0"?>
<opencv_storage>
<cascade>
  <stageType>BOOST</stageType>
  <featureType>HAAR</featureType>
  <height>24</height>
  <width>24</width>
  <stageParams>
    <boostType>GAB</boostType>
    <minHitRate>9.9500000476837158e-01</minHitRate>
    <maxFalseAlarm>5.0000000000000000e-01</maxFalseAlarm>
    <weightTrimRate>9.4999999999999996e-01</weightTrimRate>
    <maxDepth>1</maxDepth>
    <maxWeakCount>100</maxWeakCount></stageParams>
  <featureParams>
    <maxCatCount>0</maxCatCount>
    <featSize>1</featSize>
    <mode>ALL</mode></featureParams>
  <stageNum>15</stageNum>
  <stages>
    <!-- stage 0 -->
    <_>
      <maxWeakCount>6</maxWeakCount>
      <stageThreshold>-2.5157868862152100e+00</stageThreshold>
      <weakClassifiers>
        <_>
          <internalNodes>
            0 -1 7 -3.2354551553726196e-01</internalNodes>
          <leafValues>
            3.6161616444587708e-01 -9.3385827541351318e-01</leafValues></_>
        <_>
          <internalNodes>
            0 -1 37 -2.3013085126876831e-01</internalNodes>
          <leafValues>
            5.5880367755889893e-01 -8.9091044664382935e-01</leafValues></_>
        <_>
          <internalNodes>
            0 -1 18 -2.2023860365152359e-02</internalNodes>
          <leafValues>
            5.4571598768234253e-01 -6.4344424009323120e-01</leafValues></_>
        <_>
          <internalNodes>
            0 -1 66 2.7296300977468491e-02</internalNodes>
          <leafValues>
            -4.6753069758415222e-01 6.9369089603424072e-01</leafValues></_>
        <_>
          <internalNodes>
            0 -1 173 4.5440578833222389e-03</internalNodes>
          <leafValues>
            -7.2201138734817505e-01 2.7322936058044434e-01</leafValues></_>
        <_>
          <internalNodes>
            0 -1 68 -4.3979197740554810e-02</internalNodes>
          <leafValues>
            5.5566126108169556e-01 -3.0774593353271484e-01</leafValues></_></weakClassifiers></_>
    <!-- stage 1 -->
    <_>
      <maxWeakCount>7</maxWeakCount>
      <stageThreshold>-2.2156548500061035e+00</stageThreshold>
      <weakClassifiers>
        <_>
          <internalNodes>
            0 -1 277 -5.0609335303306580e-02</internalNodes>
          <leafValues>
            2.6714801788330078e-01 -8.3650690317153931e-01</leafValues></_>
        <_>
          <internalNodes>
            0 -1 16 -5.2384451031684875e-02</internalNodes>
          <leafValues>
            4.0901267528533936e-01 -7.3226863145828247e-01</leafValues></_>
        <_>
          <internalNodes>
            0 -1 36 -1.8440917134284973e-01</internalNodes>
          <leafValues>
            3.4663885831832886e-01 -7.8334575891494751e-01</leafValues></_>
        <_>
          <internalNodes>
            0 -1 215 6.7894615232944489e-02</internalNodes>
          <leafValues>
            -6.5749675035476685e-01 3.9272904396057129e-01</leafValues></_>
        <_>
          <internalNodes>
            0 -1 98 -3.0412781983613968e-02</internalNodes>
          <leafValues>
            5.2613228559494019e-01 -3.9982649683952332e-01</leafValues></_>
        <_>
          <internalNodes>
            0 -1 89 -3.9892952889204025e-02</internalNodes>
          <leafValues>
            5.0010555982589722e-01 -4.5183771848678589e-01</leafValues></_>
        <_>
          <internalNodes>
            0 -1 59 -1.2365303933620453e-02</internalNodes>
          <leafValues>
            5.1564276218414307e-01 -2.7438673377037048e-01</leafValues></_></weakClassifiers></_>
    <!-- stage 2 -->
    <_>
      <maxWeakCount>10</maxWeakCount>
      <stageThreshold>-2.3019869327545166e+00</stageThreshold>
      <weakClassifiers>
        <_>
          <internalNodes>
            0 -1 9 -3.2957726716995239e-01</internalNodes>
          <leafValues>
            -1.8871837854385376e-01 -9.0728753805160522e-01</leafValues></_>
        <_>
          <internalNodes>
            0 -1 86 5.3863324224948883e-02</internalNodes>
          <leafValues>
            -6.8242812156677246e-01 3.0166712403297424e-01</leafValues></_>
        <_>
          <internalNodes>
            0 -1 138 -3.1219635158777237e-02</internalNodes>
          <leafValues>
            5.4768466949462891e-01 -5.0754219293594360e-01</leafValues></_>
        <_>
          <internalNodes>
            0 -1 212 -1.5969391167163849e-01</internalNodes>
          <leafValues>
            4.7594404220581055e-01 -5.1137787103652954e-01</leafValues></_>
        <_>
          <internalNodes>
            0 -1 25 -1.0746402665972710e-02</internalNodes>
          <leafValues>
            4.1294369101524353e-01 -4.7906154394149780e-01</leafValues></_>
        <_>
          <internalNodes>
            0 -1 5 -5.9922242164611816e-01</internalNodes>
          <leafValues>
            2.4626827239990234e-01 -5.5516684055328369e-01</leafValues></_>
        <_>
          <internalNodes>
            0 -1 101 -1.2762289494276047e-02</internalNodes>
          <leafValues>
            4.7902366518974304e-01 -2.5957486033439636e-01</leafValues></_>
        <_>
          <internalNodes>
            0 -1 64 -8.8941358029842377e-02</internalNodes>
          <leafValues>
            4.1428387165069580e-01 -2.9709053039550781e-01</leafValues></_>
        <_>
          <internalNodes>
            0 -1 97 -1.6270191408693790e-03</internalNodes>
          <leafValues>
            -7.2395616769790649e-01 1.4462262392044067e-01</leafValues></_>
        <_>
          <internalNodes>
            0 -1 197 2.3103322018869221e-04</internalNodes>
          <leafValues>
            1.2231606245040894e-01 -6.9494152069091797e-01</leafValues></_></weakClassifiers></_>
    <!-- stage 3 -->
    <_>
      <maxWeakCount>11</maxWeakCount>
      <stageThreshold>-2.1034750938415527e+00</stageThreshold>
      <weakClassifiers>
        <_>
          <internalNodes>
            0 -1 9 -2.8752779960632324e-01</internalNodes>
          <leafValues>
            -3.2140573859214783e-01 -9.3218672275543213e-01</leafValues></_>
        <_>
          <internalNodes>
            0 -1 81 -3.9337463676929474e-02</internalNodes>
          <leafValues>
            1.8003149330615997e-01 -7.0446383953094482e-01</leafValues></_>
        <_>
          <internalNodes>
            0 -1 3 -1.1034566909074783e-02</internalNodes>
          <leafValues>
            4.7089496254920959e-01 -4.7761580348014832e-01</leafValues></_>
        <_>
          <internalNodes>
            0 -1 19 -2.5990633293986320e-02</internalNodes>
          <leafValues>
            4.0546751022338867e-01 -4.6493676304817200e-01</leafValues></_>
        <_>
          <internalNodes>
            0 -1 100 -4.0344032645225525e-01</internalNodes>
          <leafValues>
            3.6567860841751099e-01 -6.2977552413940430e-01</leafValues></_>
        <_>
          <internalNodes>
            0 -1 50 -5.0132121890783310e-02</internalNodes>
          <leafValues>
            2.8596124053001404e-01 -4.4543755054473877e-01</leafValues></_>
        <_>
          <internalNodes>
            0 -1 117 1.3196815270930529e-03</internalNodes>
          <leafValues>
            -6.7895388603210449e-01 1.7416746914386749e-01</leafValues></_>
        <_>
          <internalNodes>
            0 -1 261 -2.4537511169910431e-02</internalNodes>
          <leafValues>
            4.5988395810127258e-01 -2.8018233180046082e-01</leafValues></_>
        <_>
          <internalNodes>
            0 -1 196 3.4563796361908317e-04</internalNodes>
          <leafValues>
            1.8528369069099426e-01 -5.9407001733779907e-01</leafValues></_>
        <_>
          <internalNodes>
            0 -1 264 -9.2646311968564987e-03</internalNodes>
          <leafValues>
            4.0756791830062866e-01 -2.5696197152137756e-01</leafValues></_>
        <_>
          <internalNodes>
            0 -1 22 -3.4306859597563744e-03</internalNodes>
          <leafValues>
            1.5379746258258820e-01 -6.5483516454696655e-01</leafValues></_></weakClassifiers></_>
    <!-- stage 4 -->
    <_>
      <maxWeakCount>14</maxWeakCount>
      <stageThreshold>-2.3332548141479492e+00</stageThreshold>
      <weakClassifiers>
        <_>
          <internalNodes>
            0 -1 0 -2.4830298498272896e-02</internalNodes>
          <leafValues>
            -1.2778905034065247e-01 -8.0597800016403198e-01</leafValues></_>
        <_>
          <internalNodes>
            0 -1 46 -1.2957596778869629e-01</internalNodes>
          <leafValues>
            2.0455278456211090e-01 -6.5497034788131714e-01</leafValues></_>
        <_>
          <internalNodes>
            0 -1 103 -7.3145944625139236e-03</internalNodes>
          <leafValues>
            3.3682933449745178e-01 -6.0748016834259033e-01</leafValues></_>
        <_>
          <internalNodes>
            0 -1 198 -2.5599576532840729e-02</internalNodes>
          <leafValues>
            2.8413018584251404e-01 -4.9047324061393738e-01</leafValues></_>
        <_>
          <internalNodes>
            0 -1 8 -1.7134571075439453e-01</internalNodes>
          <leafValues>
            3.4191781282424927e-01 -4.3550217151641846e-01</leafValues></_>
        <_>
          <internalNodes>
            0 -1 180 3.7430279189720750e-04</internalNodes>
          <leafValues>
            1.6816018521785736e-01 -6.7126840353012085e-01</leafValues></_>
        <_>
          <internalNodes>
            0 -1 47 -1.2173348106443882e-02</internalNodes>
          <leafValues>
            3.0758717656135559e-01 -3.3279871940612793e-01</leafValues></_>
        <_>
          <internalNodes>
            0 -1 219 7.8074063640087843e-04</internalNodes>
          <leafValues>
            1.7171393334865570e-01 -6.1281627416610718e-01</leafValues></_>
        <_>
          <internalNodes>
            0 -1 13 -5.1868729293346405e-02</internalNodes>
          <leafValues>
            1.9663375616073608e-01 -4.4123908877372742e-01</leafValues></_>
        <_>
          <internalNodes>
            0 -1 234 3.6035355878993869e-04</internalNodes>
          <leafValues>
            1.4103095233440399e-01 -6.5097558498382568e-01</leafValues></_>
        <_>
          <internalNodes>
            0 -1 234 -3.8964021950960159e-04</internalNodes>
          <leafValues>
            -5.8784300088882446e-01 1.4794449508190155e-01</leafValues></_>
        <_>
          <internalNodes>
            0 -1 90 -6.6963620483875275e-03</internalNodes>
          <leafValues>
            4.4600120186805725e-01 -2.4108964204788208e-01</leafValues></_>
        <_>
          <internalNodes>
            0 -1 131 2.0755315199494362e-02</internalNodes>
          <leafValues>
            -6.1039406061172485e-01 1.5096354484558105e-01</leafValues></_>
        <_>
          <internalNodes>
            0 -1 207 -3.2551385811530054e-04</internalNodes>
          <leafValues>
            -6.4176261425018311e-01 1.1904348433017731e-01</leafValues></_></weakClassifiers></_>
    <!-- stage 5 -->
    <_>
      <maxWeakCount>15</maxWeakCount>
      <stageThreshold>-2.1380496025085449e+00</stageThreshold>
      <weakClassifiers>
        <_>
          <internalNodes>
            0 -1 33 -6.8085798993706703e-03</internalNodes>
          <leafValues>
            -1.7757008969783783e-01 -8.0697053670883179e-01</leafValues></_>
        <_>
          <internalNodes>
            0 -1 156 -7.8434795141220093e-03</internalNodes>
          <leafValues>
            1.6353774070739746e-01 -6.4929193258285522e-01</leafValues></_>
        <_>
          <internalNodes>
            0 -1 273 -1.3214915990829468e-02</internalNodes>
          <leafValues>
            4.6916723251342773e-01 -3.5106137394905090e-01</leafValues></_>
        <_>
          <internalNodes>
            0 -1 73 -3.2409434206783772e-03</internalNodes>
          <leafValues>
            3.1158778071403503e-01 -4.7285184264183044e-01</leafValues></_>
        <_>
          <internalNodes>
            0 -1 26 -4.9546092748641968e-02</internalNodes>
          <leafValues>
            2.4426114559173584e-01 -6.6121554374694824e-01</leafValues></_>
        <_>
          <internalNodes>
            0 -1 106 -6.8677842617034912e-02</internalNodes>
          <leafValues>
            1.9259150326251984e-01 -5.5993509292602539e-01</leafValues></_>
        <_>
          <internalNodes>
            0 -1 35 -2.8238350152969360e-01</internalNodes>
          <leafValues>
            3.0056759715080261e-01 -3.7370625138282776e-01</leafValues></_>
        <_>
          <internalNodes>
            0 -1 162 -5.0559226656332612e-04</internalNodes>
          <leafValues>
            -5.9207946062088013e-01 1.4636990427970886e-01</leafValues></_>
        <_>
          <internalNodes>
            0 -1 162 3.5559787647798657e-04</internalNodes>
          <leafValues>
            1.6011898219585419e-01 -5.0298231840133667e-01</leafValues></_>
        <_>
          <internalNodes>
            0 -1 102 -1.1965553276240826e-02</internalNodes>
          <leafValues>
            3.4137603640556335e-01 -2.5458180904388428e-01</leafValues></_>
        <_>
          <internalNodes>
            0 -1 137 -1.7900068312883377e-02</internalNodes>
          <leafValues>
            4.1656026244163513e-01 -2.4156010150909424e-01</leafValues></_>
        <_>
          <internalNodes>
            0 -1 203 2.3515052453149110e-04</internalNodes>
          <leafValues>
            1.5246492624282837e-01 -5.9715074300765991e-01</leafValues></_>
        <_>
          <internalNodes>
            0 -1 78 2.9568042373284698e-04</internalNodes>
          <leafValues>
            1.0051664710044861e-01 -6.7985975742340088e-01</leafValues></_>
        <_>
          <internalNodes>
            0 -1 276 -2.9411558061838150e-03</internalNodes>
          <leafValues>
            5.9905362129211426e-01 -1.4836280047893524e-01</leafValues></_>
        <_>
          <internalNodes>
            0 -1 270 -3.0392468906939030e-03</internalNodes>
          <leafValues>
            4.6236026287078857e-01 -1.8300952017307281e-01</leafValues></_></weakClassifiers></_>
    <!-- stage 6 -->
    <_>
      <maxWeakCount>22</maxWeakCount>
      <stageThreshold>-2.2996211051940918e+00</stageThreshold>
      <weakClassifiers>
        <_>
          <internalNodes>
            0 -1 9 -3.8544088602066040e-01</internalNodes>
          <leafValues>
            -3.4520980715751648e-01 -8.4039366245269775e-01</leafValues></_>
        <_>
          <internalNodes>
            0 -1 110 1.7954178474610671e-05</internalNodes>
          <leafValues>
            -5.3591209650039673e-01 2.0197871327400208e-01</leafValues></_>
        <_>
          <internalNodes>
            0 -1 37 -2.4039536714553833e-01</internalNodes>
          <leafValues>
            1.7715281248092651e-01 -5.9574079513549805e-01</leafValues></_>
        <_>
          <internalNodes>
            0 -1 30 -1.0713762603700161e-02</internalNodes>
          <leafValues>
            3.0332574248313904e-01 -4.3939238786697388e-01</leafValues></_>
        <_>
          <internalNodes>
            0 -1 152 8.2102958112955093e-03</internalNodes>
          <leafValues>
            -5.3727382421493530e-01 2.1394859254360199e-01</leafValues></_>
        <_>
          <internalNodes>
            0 -1 232 -3.4308576141484082e-04</internalNodes>
          <leafValues>
            -7.1691596508026123e-01 1.3179948925971985e-01</leafValues></_>
        <_>
          <internalNodes>
            0 -1 262 -1.0542459785938263e-02</internalNodes>
          <leafValues>
            3.7734270095825195e-01 -2.4241219460964203e-01</leafValues></_>
        <_>
          <internalNodes>
            0 -1 133 -6.5316382097080350e-04</internalNodes>
          <leafValues>
            -6.5782594680786133e-01 1.2882681190967560e-01</leafValues></_>
        <_>
          <internalNodes>
            0 -1 58 1.8595397472381592e-02</internalNodes>
          <leafValues>
            -1.2822109460830688e-01 6.1444228887557983e-01</leafValues></_>
        <_>
          <internalNodes>
            0 -1 2 -1.9675957038998604e-02</internalNodes>
          <leafValues>
            4.1148471832275391e-01 -1.7303822934627533e-01</leafValues></_>
        <_>
          <internalNodes>
            0 -1 60 -1.8838550895452499e-02</internalNodes>
          <leafValues>
            2.3821189999580383e-01 -3.8195824623107910e-01</leafValues></_>
        <_>
          <internalNodes>
            0 -1 209 1.9832685939036310e-04</internalNodes>
          <leafValues>
            1.2591110169887543e-01 -5.6595855951309204e-01</leafValues></_>
        <_>
          <internalNodes>
            0 -1 161 2.5886937510222197e-04</internalNodes>
          <leafValues>
            9.9595688283443451e-02 -6.2371879816055298e-01</leafValues></_>
        <_>
          <internalNodes>
            0 -1 220 -2.2365991026163101e-03</internalNodes>
          <leafValues>
            8.8860049843788147e-02 -6.3532531261444092e-01</leafValues></_>
        <_>
          <internalNodes>
            0 -1 82 -1.0690853931009769e-02</internalNodes>
          <leafValues>
            4.2288565635681152e-01 -1.7175902426242828e-01</leafValues></_>
        <_>
          <internalNodes>
            0 -1 176 -2.6781330816447735e-03</internalNodes>
          <leafValues>
            1.2459230422973633e-01 -5.6660175323486328e-01</leafValues></_>
        <_>
          <internalNodes>
            0 -1 113 2.9896252090111375e-04</internalNodes>
          <leafValues>
            9.0324617922306061e-02 -6.4474487304687500e-01</leafValues></_>
        <_>
          <internalNodes>
            0 -1 157 2.3695229901932180e-04</internalNodes>
          <leafValues>
            9.4365209341049194e-02 -5.7345783710479736e-01</leafValues></_>
        <_>
          <internalNodes>
            0 -1 178 -1.2277567293494940e-03</internalNodes>
          <leafValues>
            -6.7664849758148193e-01 7.9956807196140289e-02</leafValues></_>
        <_>
          <internalNodes>
            0 -1 248 -1.0884508956223726e-03</internalNodes>
          <leafValues>
            -4.2038446664810181e-01 1.2917190790176392e-01</leafValues></_>
        <_>
          <internalNodes>
            0 -1 71 -1.0855612345039845e-03</internalNodes>
          <leafValues>
            2.7527710795402527e-01 -2.4866081774234772e-01</leafValues></_>
        <_>
          <internalNodes>
            0 -1 121 7.1785589680075645e-03</internalNodes>
          <leafValues>
            -1.7087627947330475e-01 4.4730654358863831e-01</leafValues></_></weakClassifiers></_>
    <!-- stage 7 -->
    <_>
      <maxWeakCount>24</maxWeakCount>
      <stageThreshold>-2.2169013023376465e+00</stageThreshold>
      <weakClassifiers>
        <_>
          <internalNodes>
            0 -1 111 2.5145593099296093e-04</internalNodes>
          <leafValues>
            -8.4639084339141846e-01 -3.5918673872947693e-01</leafValues></_>
        <_>
          <internalNodes>
            0 -1 21 -1.7606798559427261e-02</internalNodes>
          <leafValues>
            1.1682497709989548e-01 -6.0636913776397705e-01</leafValues></_>
        <_>
          <internalNodes>
            0 -1 163 -6.3031315803527832e-02</internalNodes>
          <leafValues>
            2.0443758368492126e-01 -5.2807199954986572e-01</leafValues></_>
        <_>
          <internalNodes>
            0 -1 62 5.8985508978366852e-02</internalNodes>
          <leafValues>
            -5.0522530078887939e-01 2.4500866234302521e-01</leafValues></_>
        <_>
          <internalNodes>
            0 -1 51 -8.4564551711082458e-02</internalNodes>
          <leafValues>
            2.3290561139583588e-01 -5.2132171392440796e-01</leafValues></_>
        <_>
          <internalNodes>
            0 -1 49 -4.1647352278232574e-02</internalNodes>
          <leafValues>
            3.5430580377578735e-01 -2.5486570596694946e-01</leafValues></_>
        <_>
          <internalNodes>
            0 -1 125 -2.9388902476057410e-04</internalNodes>
          <leafValues>
            -5.1045280694961548e-01 1.5480878949165344e-01</leafValues></_>
        <_>
          <internalNodes>
            0 -1 142 3.7826254265382886e-04</internalNodes>
          <leafValues>
            1.2809896469116211e-01 -5.1093029975891113e-01</leafValues></_>
        <_>
          <internalNodes>
            0 -1 3 -2.4771219119429588e-02</internalNodes>
          <leafValues>
            3.7059777975082397e-01 -1.7394645512104034e-01</leafValues></_>
        <_>
          <internalNodes>
            0 -1 282 -9.6201524138450623e-03</internalNodes>
          <leafValues>
            3.6530777812004089e-01 -1.5872302651405334e-01</leafValues></_>
        <_>
          <internalNodes>
            0 -1 27 -9.0123843401670456e-03</internalNodes>
          <leafValues>
            1.4164309203624725e-01 -4.5949515700340271e-01</leafValues></_>
        <_>
          <internalNodes>
            0 -1 236 -1.7775988089852035e-04</internalNodes>
          <leafValues>
            -6.0654574632644653e-01 9.9793374538421631e-02</leafValues></_>
        <_>
          <internalNodes>
            0 -1 280 -1.9039717735722661e-03</internalNodes>
          <leafValues>
            4.6353590488433838e-01 -1.3027112185955048e-01</leafValues></_>
        <_>
          <internalNodes>
            0 -1 279 3.9986739866435528e-03</internalNodes>
          <leafValues>
            -1.9442456960678101e-01 3.5945504903793335e-01</leafValues></_>
        <_>
          <internalNodes>
            0 -1 221 -1.5767698641866446e-04</internalNodes>
          <leafValues>
            -5.4735964536666870e-01 1.0464117676019669e-01</leafValues></_>
        <_>
          <internalNodes>
            0 -1 57 -6.2003321945667267e-03</internalNodes>
          <leafValues>
            2.3276117444038391e-01 -2.3062579333782196e-01</leafValues></_>
        <_>
          <internalNodes>
            0 -1 245 2.1765427663922310e-04</internalNodes>
          <leafValues>
            1.0740767419338226e-01 -5.2394115924835205e-01</leafValues></_>
        <_>
          <internalNodes>
            0 -1 91 -2.8539970517158508e-03</internalNodes>
          <leafValues>
            2.3727364838123322e-01 -2.5046175718307495e-01</leafValues></_>
        <_>
          <internalNodes>
            0 -1 11 1.9749072380363941e-03</internalNodes>
          <leafValues>
            -1.1060441285371780e-01 4.9262279272079468e-01</leafValues></_>
        <_>
          <internalNodes>
            0 -1 278 5.3352005779743195e-03</internalNodes>
          <leafValues>
            -6.4271397888660431e-02 7.4294590950012207e-01</leafValues></_>
        <_>
          <internalNodes>
            0 -1 210 -2.7339358348399401e-03</internalNodes>
          <leafValues>
            1.8499639630317688e-01 -3.2495522499084473e-01</leafValues></_>
        <_>
          <internalNodes>
            0 -1 166 -2.2494592121802270e-04</internalNodes>
          <leafValues>
            -5.8041775226593018e-01 8.5600756108760834e-02</leafValues></_>
        <_>
          <internalNodes>
            0 -1 165 1.5244886162690818e-04</internalNodes>
          <leafValues>
            9.6573896706104279e-02 -5.1297199726104736e-01</leafValues></_>
        <_>
          <internalNodes>
            0 -1 28 -4.2043253779411316e-03</internalNodes>
          <leafValues>
            2.5052651762962341e-01 -2.1675741672515869e-01</leafValues></_></weakClassifiers></_>
    <!-- stage 8 -->
    <_>
      <maxWeakCount>24</maxWeakCount>
      <stageThreshold>-2.1372592449188232e+00</stageThreshold>
      <weakClassifiers>
        <_>
          <internalNodes>
            0 -1 144 5.5284006521105766e-04</internalNodes>
          <leafValues>
            -8.4153771400451660e-01 -4.1240626573562622e-01</leafValues></_>
        <_>
          <internalNodes>
            0 -1 31 -3.5526692867279053e-02</internalNodes>
          <leafValues>
            9.2669837176799774e-02 -5.6577467918395996e-01</leafValues></_>
        <_>
          <internalNodes>
            0 -1 254 -1.7654202878475189e-01</internalNodes>
          <leafValues>
            4.0755763649940491e-01 -2.7637115120887756e-01</leafValues></_>
        <_>
          <internalNodes>
            0 -1 230 -3.7177858757786453e-05</internalNodes>
          <leafValues>
            2.3811475932598114e-01 -3.3600756525993347e-01</leafValues></_>
        <_>
          <internalNodes>
            0 -1 217 -9.2799998819828033e-03</internalNodes>
          <leafValues>
            -7.2372019290924072e-01 1.5840366482734680e-01</leafValues></_>
        <_>
          <internalNodes>
            0 -1 114 -4.0229983278550208e-04</internalNodes>
          <leafValues>
            -4.9807503819465637e-01 1.1823879927396774e-01</leafValues></_>
        <_>
          <internalNodes>
            0 -1 104 -4.1277008131146431e-03</internalNodes>
          <leafValues>
            2.4056668579578400e-01 -2.8266930580139160e-01</leafValues></_>
        <_>
          <internalNodes>
            0 -1 118 -4.2786151170730591e-03</internalNodes>
          <leafValues>
            3.1169778108596802e-01 -2.2537188231945038e-01</leafValues></_>
        <_>
          <internalNodes>
            0 -1 151 2.5020376779139042e-03</internalNodes>
          <leafValues>
            -6.7855221033096313e-01 9.3742623925209045e-02</leafValues></_>
        <_>
          <internalNodes>
            0 -1 245 -2.4292223679367453e-04</internalNodes>
          <leafValues>
            -5.6732761859893799e-01 1.1250328272581100e-01</leafValues></_>
        <_>
          <internalNodes>
            0 -1 20 -4.1450921446084976e-02</internalNodes>
          <leafValues>
            1.2469021975994110e-01 -4.6722829341888428e-01</leafValues></_>
        <_>
          <internalNodes>
            0 -1 229 -5.6268792832270265e-04</internalNodes>
          <leafValues>
            -5.0654238462448120e-01 1.0818990319967270e-01</leafValues></_>
        <_>
          <internalNodes>
            0 -1 227 -7.0894887903705239e-04</internalNodes>
          <leafValues>
            1.1216736584901810e-01 -4.9592837691307068e-01</leafValues></_>
        <_>
          <internalNodes>
            0 -1 139 -6.8773649632930756e-02</internalNodes>
          <leafValues>
            -5.3282374143600464e-01 1.0797972977161407e-01</leafValues></_>
        <_>
          <internalNodes>
            0 -1 237 -2.3457384668290615e-03</internalNodes>
          <leafValues>
            2.0378378033638000e-01 -2.7465283870697021e-01</leafValues></_>
        <_>
          <internalNodes>
            0 -1 150 2.0429260621313006e-04</internalNodes>
          <leafValues>
            1.1111009120941162e-01 -5.2128553390502930e-01</leafValues></_>
        <_>
          <internalNodes>
            0 -1 53 2.2911122068762779e-03</internalNodes>
          <leafValues>
            -3.0704540014266968e-01 1.8547354638576508e-01</leafValues></_>
        <_>
          <internalNodes>
            0 -1 105 -2.4481951259076595e-03</internalNodes>
          <leafValues>
            6.5448194742202759e-01 -8.9360162615776062e-02</leafValues></_>
        <_>
          <internalNodes>
            0 -1 126 3.5596289671957493e-04</internalNodes>
          <leafValues>
            1.2843781709671021e-01 -5.2505153417587280e-01</leafValues></_>
        <_>
          <internalNodes>
            0 -1 84 1.6145609319210052e-02</internalNodes>
          <leafValues>
            -1.1142043769359589e-01 5.3378760814666748e-01</leafValues></_>
        <_>
          <internalNodes>
            0 -1 218 2.1694184397347271e-04</internalNodes>
          <leafValues>
            9.8668672144412994e-02 -6.1041802167892456e-01</leafValues></_>
        <_>
          <internalNodes>
            0 -1 44 -3.4809592179954052e-03</internalNodes>
          <leafValues>
            4.3913543224334717e-01 -1.4497484266757965e-01</leafValues></_>
        <_>
          <internalNodes>
            0 -1 135 1.8809913308359683e-04</internalNodes>
          <leafValues>
            1.1553755402565002e-01 -4.8466905951499939e-01</leafValues></_>
        <_>
          <internalNodes>
            0 -1 38 -5.4113287478685379e-03</internalNodes>
          <leafValues>
            2.1971872448921204e-01 -2.4074892699718475e-01</leafValues></_></weakClassifiers></_>
    <!-- stage 9 -->
    <_>
      <maxWeakCount>29</maxWeakCount>
      <stageThreshold>-2.1731498241424561e+00</stageThreshold>
      <weakClassifiers>
        <_>
          <internalNodes>
            0 -1 95 3.9068338082870468e-05</internalNodes>
          <leafValues>
            -8.3220452070236206e-01 -3.7781167030334473e-01</leafValues></_>
        <_>
          <internalNodes>
            0 -1 241 -8.8339275680482388e-04</internalNodes>
          <leafValues>
            5.9430342167615891e-02 -5.3270530700683594e-01</leafValues></_>
        <_>
          <internalNodes>
            0 -1 10 -3.6930716037750244e-01</internalNodes>
          <leafValues>
            1.7657960951328278e-01 -4.7788023948669434e-01</leafValues></_>
        <_>
          <internalNodes>
            0 -1 32 -4.4743837788701057e-03</internalNodes>
          <leafValues>
            4.2725172638893127e-01 -1.9004349410533905e-01</leafValues></_>
        <_>
          <internalNodes>
            0 -1 67 3.4204125404357910e-02</internalNodes>
          <leafValues>
            -2.8813889622688293e-01 2.9399129748344421e-01</leafValues></_>
        <_>
          <internalNodes>
            0 -1 4 -2.9621347784996033e-02</internalNodes>
          <leafValues>
            4.3538349866867065e-01 -1.8196445703506470e-01</leafValues></_>
        <_>
          <internalNodes>
            0 -1 80 5.0596115179359913e-03</internalNodes>
          <leafValues>
            1.1566588282585144e-01 -6.0508477687835693e-01</leafValues></_>
        <_>
          <internalNodes>
            0 -1 243 1.6783320461399853e-04</internalNodes>
          <leafValues>
            1.0424260795116425e-01 -6.5465718507766724e-01</leafValues></_>
        <_>
          <internalNodes>
            0 -1 284 6.2006185762584209e-03</internalNodes>
          <leafValues>
            -2.0551942288875580e-01 2.9571983218193054e-01</leafValues></_>
        <_>
          <internalNodes>
            0 -1 174 5.4222403559833765e-04</internalNodes>
          <leafValues>
            1.1838124692440033e-01 -5.1545375585556030e-01</leafValues></_>
        <_>
          <internalNodes>
            0 -1 269 -5.8859167620539665e-03</internalNodes>
          <leafValues>
            4.4551202654838562e-01 -1.3884291052818298e-01</leafValues></_>
        <_>
          <internalNodes>
            0 -1 285 -2.6978410314768553e-03</internalNodes>
          <leafValues>
            4.9980965256690979e-01 -1.1294819414615631e-01</leafValues></_>
        <_>
          <internalNodes>
            0 -1 146 1.7627794295549393e-04</internalNodes>
          <leafValues>
            1.1285753548145294e-01 -5.4739731550216675e-01</leafValues></_>
        <_>
          <internalNodes>
            0 -1 23 6.4325719140470028e-03</internalNodes>
          <leafValues>
            -1.7022605240345001e-01 3.5190662741661072e-01</leafValues></_>
        <_>
          <internalNodes>
            0 -1 205 -1.0609976743580773e-04</internalNodes>
          <leafValues>
            2.1478992700576782e-01 -2.5207829475402832e-01</leafValues></_>
        <_>
          <internalNodes>
            0 -1 265 -1.0603204369544983e-02</internalNodes>
          <leafValues>
            7.1193271875381470e-01 -8.0099955201148987e-02</leafValues></_>
        <_>
          <internalNodes>
            0 -1 112 2.0747480448335409e-04</internalNodes>
          <leafValues>
            1.1848893761634827e-01 -5.3892278671264648e-01</leafValues></_>
        <_>
          <internalNodes>
            0 -1 256 -2.5755711249075830e-04</internalNodes>
          <leafValues>
            -5.0613784790039062e-01 9.8630033433437347e-02</leafValues></_>
        <_>
          <internalNodes>
            0 -1 177 1.1866765271406621e-04</internalNodes>
          <leafValues>
            1.1197805404663086e-01 -4.1642916202545166e-01</leafValues></_>
        <_>
          <internalNodes>
            0 -1 250 1.5482394956052303e-03</internalNodes>
          <leafValues>
            -9.9986679852008820e-02 5.1416492462158203e-01</leafValues></_>
        <_>
          <internalNodes>
            0 -1 228 -1.9008435308933258e-02</internalNodes>
          <leafValues>
            1.4540968835353851e-01 -3.7093949317932129e-01</leafValues></_>
        <_>
          <internalNodes>
            0 -1 99 -2.7384259738028049e-03</internalNodes>
          <leafValues>
            2.9369610548019409e-01 -1.8316897749900818e-01</leafValues></_>
        <_>
          <internalNodes>
            0 -1 130 -3.9372238097712398e-04</internalNodes>
          <leafValues>
            -4.8825052380561829e-01 1.1290179193019867e-01</leafValues></_>
        <_>
          <internalNodes>
            0 -1 79 -1.8358629313297570e-04</internalNodes>
          <leafValues>
            1.6143852472305298e-01 -2.7014631032943726e-01</leafValues></_>
        <_>
          <internalNodes>
            0 -1 214 2.3760650306940079e-02</internalNodes>
          <leafValues>
            -5.3785109519958496e-01 8.3646915853023529e-02</leafValues></_>
        <_>
          <internalNodes>
            0 -1 168 3.8413095474243164e-01</internalNodes>
          <leafValues>
            5.8976374566555023e-02 -6.9124329090118408e-01</leafValues></_>
        <_>
          <internalNodes>
            0 -1 202 -8.6960475891828537e-04</internalNodes>
          <leafValues>
            -3.9672011137008667e-01 1.0745493322610855e-01</leafValues></_>
        <_>
          <internalNodes>
            0 -1 141 -2.7371356263756752e-03</internalNodes>
          <leafValues>
            1.8119923770427704e-01 -2.5046661496162415e-01</leafValues></_>
        <_>
          <internalNodes>
            0 -1 122 2.1328646689653397e-02</internalNodes>
          <leafValues>
            -8.8189452886581421e-02 6.5675377845764160e-01</leafValues></_></weakClassifiers></_>
    <!-- stage 10 -->
    <_>
      <maxWeakCount>25</maxWeakCount>
      <stageThreshold>-2.0328793525695801e+00</stageThreshold>
      <weakClassifiers>
        <_>
          <internalNodes>
            0 -1 124 2.8643276891671121e-04</internalNodes>
          <leafValues>
            -8.3160221576690674e-01 -3.8766354322433472e-01</leafValues></_>
        <_>
          <internalNodes>
            0 -1 17 7.6506352052092552e-03</internalNodes>
          <leafValues>
            -3.6937841773033142e-01 2.7436080574989319e-01</leafValues></_>
        <_>
          <internalNodes>
            0 -1 107 -4.0264847484650090e-05</internalNodes>
          <leafValues>
            1.7798559367656708e-01 -4.2436280846595764e-01</leafValues></_>
        <_>
          <internalNodes>
            0 -1 260 -9.6299257129430771e-03</internalNodes>
          <leafValues>
            2.2121445834636688e-01 -3.1948670744895935e-01</leafValues></_>
        <_>
          <internalNodes>
            0 -1 208 -4.4745709747076035e-03</internalNodes>
          <leafValues>
            1.5877008438110352e-01 -6.5871268510818481e-01</leafValues></_>
        <_>
          <internalNodes>
            0 -1 63 -1.8746437272056937e-03</internalNodes>
          <leafValues>
            2.8103259205818176e-01 -2.7381366491317749e-01</leafValues></_>
        <_>
          <internalNodes>
            0 -1 140 -6.9358814507722855e-03</internalNodes>
          <leafValues>
            3.1956133246421814e-01 -2.1662722527980804e-01</leafValues></_>
        <_>
          <internalNodes>
            0 -1 194 2.1719469805248082e-04</internalNodes>
          <leafValues>
            1.1481719464063644e-01 -5.9977191686630249e-01</leafValues></_>
        <_>
          <internalNodes>
            0 -1 76 2.0194475655443966e-04</internalNodes>
          <leafValues>
            1.0008743405342102e-01 -5.9023374319076538e-01</leafValues></_>
        <_>
          <internalNodes>
            0 -1 12 -1.2262821197509766e-02</internalNodes>
          <leafValues>
            2.7386030554771423e-01 -2.1706099808216095e-01</leafValues></_>
        <_>
          <internalNodes>
            0 -1 281 3.4633015748113394e-03</internalNodes>
          <leafValues>
            -1.5688027441501617e-01 3.7453240156173706e-01</leafValues></_>
        <_>
          <internalNodes>
            0 -1 135 -4.0095188887789845e-04</internalNodes>
          <leafValues>
            -6.7932218313217163e-01 8.8592171669006348e-02</leafValues></_>
        <_>
          <internalNodes>
            0 -1 195 2.1723381360061467e-04</internalNodes>
          <leafValues>
            1.0285100340843201e-01 -4.9767485260963440e-01</leafValues></_>
        <_>
          <internalNodes>
            0 -1 216 1.7937729717232287e-04</internalNodes>
          <leafValues>
            1.2174384295940399e-01 -4.2448884248733521e-01</leafValues></_>
        <_>
          <internalNodes>
            0 -1 175 -1.6479823971167207e-03</internalNodes>
          <leafValues>
            1.8853549659252167e-01 -2.8270548582077026e-01</leafValues></_>
        <_>
          <internalNodes>
            0 -1 167 -4.5387521386146545e-03</internalNodes>
          <leafValues>
            2.8046324849128723e-01 -2.0841650664806366e-01</leafValues></_>
        <_>
          <internalNodes>
            0 -1 251 -3.5831439308822155e-03</internalNodes>
          <leafValues>
            4.9470314383506775e-01 -1.0961157083511353e-01</leafValues></_>
        <_>
          <internalNodes>
            0 -1 188 2.2121195797808468e-04</internalNodes>
          <leafValues>
            1.1224992573261261e-01 -4.9165290594100952e-01</leafValues></_>
        <_>
          <internalNodes>
            0 -1 186 -3.6616555007640272e-05</internalNodes>
          <leafValues>
            2.0784120261669159e-01 -2.6325866580009460e-01</leafValues></_>
        <_>
          <internalNodes>
            0 -1 187 1.8684791575651616e-04</internalNodes>
          <leafValues>
            8.9993640780448914e-02 -5.1846593618392944e-01</leafValues></_>
        <_>
          <internalNodes>
            0 -1 259 -2.5854737032204866e-04</internalNodes>
          <leafValues>
            2.2323273122310638e-01 -2.1625488996505737e-01</leafValues></_>
        <_>
          <internalNodes>
            0 -1 211 1.3657571980729699e-04</internalNodes>
          <leafValues>
            1.1014456301927567e-01 -4.5192509889602661e-01</leafValues></_>
        <_>
          <internalNodes>
            0 -1 239 -4.8870282626012340e-05</internalNodes>
          <leafValues>
            1.4709214866161346e-01 -3.4190452098846436e-01</leafValues></_>
        <_>
          <internalNodes>
            0 -1 164 1.7261962639167905e-03</internalNodes>
          <leafValues>
            -4.4152492284774780e-01 1.2350919097661972e-01</leafValues></_>
        <_>
          <internalNodes>
            0 -1 255 -2.6059837546199560e-03</internalNodes>
          <leafValues>
            6.8807142972946167e-01 -8.6171902716159821e-02</leafValues></_></weakClassifiers></_>
    <!-- stage 11 -->
    <_>
      <maxWeakCount>27</maxWeakCount>
      <stageThreshold>-2.0730543136596680e+00</stageThreshold>
      <weakClassifiers>
        <_>
          <internalNodes>
            0 -1 145 2.1544857881963253e-03</internalNodes>
          <leafValues>
            -8.2602924108505249e-01 -3.9821028709411621e-01</leafValues></_>
        <_>
          <internalNodes>
            0 -1 14 -3.2391354441642761e-02</internalNodes>
          <leafValues>
            6.7288920283317566e-02 -5.5632424354553223e-01</leafValues></_>
        <_>
          <internalNodes>
            0 -1 184 2.9387355316430330e-03</internalNodes>
          <leafValues>
            -5.3029650449752808e-01 1.6491448879241943e-01</leafValues></_>
        <_>
          <internalNodes>
            0 -1 4 -1.7070196568965912e-02</internalNodes>
          <leafValues>
            2.8803759813308716e-01 -2.4451829493045807e-01</leafValues></_>
        <_>
          <internalNodes>
            0 -1 225 1.1659639858407900e-04</internalNodes>
          <leafValues>
            1.6423009335994720e-01 -4.5433521270751953e-01</leafValues></_>
        <_>
          <internalNodes>
            0 -1 41 -1.6305013559758663e-04</internalNodes>
          <leafValues>
            1.6966536641120911e-01 -3.9343973994255066e-01</leafValues></_>
        <_>
          <internalNodes>
            0 -1 127 1.3508278876543045e-02</internalNodes>
          <leafValues>
            7.0694498717784882e-02 -8.0411159992218018e-01</leafValues></_>
        <_>
          <internalNodes>
            0 -1 96 -2.6513112243264914e-03</internalNodes>
          <leafValues>
            1.8496115505695343e-01 -3.5231631994247437e-01</leafValues></_>
        <_>
          <internalNodes>
            0 -1 172 4.6551218256354332e-03</internalNodes>
          <leafValues>
            -4.9095734953880310e-01 1.2055569142103195e-01</leafValues></_>
        <_>
          <internalNodes>
            0 -1 123 -1.6289585619233549e-04</internalNodes>
          <leafValues>
            -5.4345715045928955e-01 8.9684866368770599e-02</leafValues></_>
        <_>
          <internalNodes>
            0 -1 170 -7.0831913035362959e-04</internalNodes>
          <leafValues>
            2.5663408637046814e-01 -2.2482328116893768e-01</leafValues></_>
        <_>
          <internalNodes>
            0 -1 275 -5.3736362606287003e-03</internalNodes>
          <leafValues>
            2.5491818785667419e-01 -2.2148808836936951e-01</leafValues></_>
        <_>
          <internalNodes>
            0 -1 154 8.1721385940909386e-03</internalNodes>
          <leafValues>
            9.5496587455272675e-02 -5.7257562875747681e-01</leafValues></_>
        <_>
          <internalNodes>
            0 -1 142 -4.4947199057787657e-04</internalNodes>
          <leafValues>
            -5.1032400131225586e-01 8.4626108407974243e-02</leafValues></_>
        <_>
          <internalNodes>
            0 -1 65 -1.3375310227274895e-03</internalNodes>
          <leafValues>
            2.0049032568931580e-01 -2.3291222751140594e-01</leafValues></_>
        <_>
          <internalNodes>
            0 -1 253 -6.7422296851873398e-03</internalNodes>
          <leafValues>
            3.2712680101394653e-01 -1.4655365049839020e-01</leafValues></_>
        <_>
          <internalNodes>
            0 -1 213 2.3780334740877151e-03</internalNodes>
          <leafValues>
            -1.0999827831983566e-01 5.3844392299652100e-01</leafValues></_>
        <_>
          <internalNodes>
            0 -1 179 1.5750192687846720e-04</internalNodes>
          <leafValues>
            1.0990411788225174e-01 -5.0892543792724609e-01</leafValues></_>
        <_>
          <internalNodes>
            0 -1 77 5.1824888214468956e-04</internalNodes>
          <leafValues>
            -4.6806949377059937e-01 1.0197383910417557e-01</leafValues></_>
        <_>
          <internalNodes>
            0 -1 93 -3.2442756928503513e-03</internalNodes>
          <leafValues>
            2.2931869328022003e-01 -2.3689527809619904e-01</leafValues></_>
        <_>
          <internalNodes>
            0 -1 88 -3.7987411487847567e-03</internalNodes>
          <leafValues>
            6.2797826528549194e-01 -1.1052002757787704e-01</leafValues></_>
        <_>
          <internalNodes>
            0 -1 43 -9.3148043379187584e-04</internalNodes>
          <leafValues>
            2.3183761537075043e-01 -2.4296495318412781e-01</leafValues></_>
        <_>
          <internalNodes>
            0 -1 223 -9.1310459538362920e-05</internalNodes>
          <leafValues>
            -3.8861468434333801e-01 1.3568903505802155e-01</leafValues></_>
        <_>
          <internalNodes>
            0 -1 40 -4.2400637175887823e-04</internalNodes>
          <leafValues>
            2.2830168902873993e-01 -2.1282061934471130e-01</leafValues></_>
        <_>
          <internalNodes>
            0 -1 199 1.9941880600526929e-04</internalNodes>
          <leafValues>
            9.5369726419448853e-02 -5.1710122823715210e-01</leafValues></_>
        <_>
          <internalNodes>
            0 -1 206 -1.5084707411006093e-03</internalNodes>
          <leafValues>
            3.2162547111511230e-01 -1.4892055094242096e-01</leafValues></_>
        <_>
          <internalNodes>
            0 -1 267 -1.1012835893779993e-03</internalNodes>
          <leafValues>
            2.8951054811477661e-01 -1.7204652726650238e-01</leafValues></_></weakClassifiers></_>
    <!-- stage 12 -->
    <_>
      <maxWeakCount>28</maxWeakCount>
      <stageThreshold>-1.9655293226242065e+00</stageThreshold>
      <weakClassifiers>
        <_>
          <internalNodes>
            0 -1 158 -4.7742584138177335e-04</internalNodes>
          <leafValues>
            -4.8993730545043945e-01 -8.3927255868911743e-01</leafValues></_>
        <_>
          <internalNodes>
            0 -1 147 2.0328050013631582e-03</internalNodes>
          <leafValues>
            -4.5001119375228882e-01 8.4244549274444580e-02</leafValues></_>
        <_>
          <internalNodes>
            0 -1 183 -1.7369791865348816e-02</internalNodes>
          <leafValues>
            1.1924580484628677e-01 -5.3817975521087646e-01</leafValues></_>
        <_>
          <internalNodes>
            0 -1 24 -1.8075518310070038e-02</internalNodes>
          <leafValues>
            1.3328893482685089e-01 -6.1310243606567383e-01</leafValues></_>
        <_>
          <internalNodes>
            0 -1 52 -3.0014908406883478e-04</internalNodes>
          <leafValues>
            1.4034427702426910e-01 -4.6611288189888000e-01</leafValues></_>
        <_>
          <internalNodes>
            0 -1 189 1.8470070790499449e-04</internalNodes>
          <leafValues>
            1.1557669192552567e-01 -5.0364500284194946e-01</leafValues></_>
        <_>
          <internalNodes>
            0 -1 189 -2.2191507741808891e-04</internalNodes>
          <leafValues>
            -4.6825739741325378e-01 1.2883502244949341e-01</leafValues></_>
        <_>
          <internalNodes>
            0 -1 240 -6.2599694356322289e-03</internalNodes>
          <leafValues>
            2.6560747623443604e-01 -2.2799357771873474e-01</leafValues></_>
        <_>
          <internalNodes>
            0 -1 182 -1.3295544777065516e-03</internalNodes>
          <leafValues>
            2.3820289969444275e-01 -2.2726899385452271e-01</leafValues></_>
        <_>
          <internalNodes>
            0 -1 171 -1.4818692579865456e-02</internalNodes>
          <leafValues>
            -7.4938404560089111e-01 7.4582606554031372e-02</leafValues></_>
        <_>
          <internalNodes>
            0 -1 244 -1.3380464224610478e-04</internalNodes>
          <leafValues>
            -4.4637176394462585e-01 9.6055343747138977e-02</leafValues></_>
        <_>
          <internalNodes>
            0 -1 244 1.0677638056222349e-04</internalNodes>
          <leafValues>
            1.1410158872604370e-01 -4.1380780935287476e-01</leafValues></_>
        <_>
          <internalNodes>
            0 -1 272 -4.7979420050978661e-03</internalNodes>
          <leafValues>
            3.3660566806793213e-01 -1.3786850869655609e-01</leafValues></_>
        <_>
          <internalNodes>
            0 -1 136 -2.1005398593842983e-04</internalNodes>
          <leafValues>
            -4.6616512537002563e-01 9.8289959132671356e-02</leafValues></_>
        <_>
          <internalNodes>
            0 -1 55 6.5131910145282745e-02</internalNodes>
          <leafValues>
            -3.7197071313858032e-01 1.1542177945375443e-01</leafValues></_>
        <_>
          <internalNodes>
            0 -1 246 7.8812983701936901e-05</internalNodes>
          <leafValues>
            -1.4160846173763275e-01 3.0347433686256409e-01</leafValues></_>
        <_>
          <internalNodes>
            0 -1 200 2.7287553530186415e-04</internalNodes>
          <leafValues>
            9.9586553871631622e-02 -4.6076965332031250e-01</leafValues></_>
        <_>
          <internalNodes>
            0 -1 266 -9.8444963805377483e-04</internalNodes>
          <leafValues>
            4.1985097527503967e-01 -1.0706181079149246e-01</leafValues></_>
        <_>
          <internalNodes>
            0 -1 201 2.3987825261428952e-04</internalNodes>
          <leafValues>
            1.0251639783382416e-01 -4.2131888866424561e-01</leafValues></_>
        <_>
          <internalNodes>
            0 -1 29 -7.7631087042391300e-03</internalNodes>
          <leafValues>
            4.4999280571937561e-01 -1.0509609431028366e-01</leafValues></_>
        <_>
          <internalNodes>
            0 -1 159 -3.8920508814044297e-05</internalNodes>
          <leafValues>
            1.6736353933811188e-01 -2.4956284463405609e-01</leafValues></_>
        <_>
          <internalNodes>
            0 -1 283 -1.2541312025859952e-03</internalNodes>
          <leafValues>
            5.3774273395538330e-01 -7.7786616981029510e-02</leafValues></_>
        <_>
          <internalNodes>
            0 -1 274 -1.0256180539727211e-03</internalNodes>
          <leafValues>
            2.0871342718601227e-01 -1.9458296895027161e-01</leafValues></_>
        <_>
          <internalNodes>
            0 -1 193 -1.3006298104301095e-04</internalNodes>
          <leafValues>
            1.5403613448143005e-01 -2.6672992110252380e-01</leafValues></_>
        <_>
          <internalNodes>
            0 -1 92 -4.3514105491340160e-03</internalNodes>
          <leafValues>
            2.5487270951271057e-01 -1.6366295516490936e-01</leafValues></_>
        <_>
          <internalNodes>
            0 -1 134 -1.2651418801397085e-03</internalNodes>
          <leafValues>
            1.1890293657779694e-01 -3.7221807241439819e-01</leafValues></_>
        <_>
          <internalNodes>
            0 -1 87 -5.0656823441386223e-03</internalNodes>
          <leafValues>
            3.4078022837638855e-01 -1.2767107784748077e-01</leafValues></_>
        <_>
          <internalNodes>
            0 -1 48 2.9150366783142090e-02</internalNodes>
          <leafValues>
            -1.0855402052402496e-01 4.2923679947853088e-01</leafValues></_></weakClassifiers></_>
    <!-- stage 13 -->
    <_>
      <maxWeakCount>26</maxWeakCount>
      <stageThreshold>-1.8434605598449707e+00</stageThreshold>
      <weakClassifiers>
        <_>
          <internalNodes>
            0 -1 75 8.2527571066748351e-05</internalNodes>
          <leafValues>
            -8.3170253038406372e-01 -4.9800798296928406e-01</leafValues></_>
        <_>
          <internalNodes>
            0 -1 231 -7.6633593998849392e-03</internalNodes>
          <leafValues>
            3.5930816084146500e-02 -5.0970333814620972e-01</leafValues></_>
        <_>
          <internalNodes>
            0 -1 34 -6.4874049276113510e-03</internalNodes>
          <leafValues>
            4.2256915569305420e-01 -1.8799564242362976e-01</leafValues></_>
        <_>
          <internalNodes>
            0 -1 74 -5.0050066784024239e-04</internalNodes>
          <leafValues>
            1.9159346818923950e-01 -3.6699852347373962e-01</leafValues></_>
        <_>
          <internalNodes>
            0 -1 160 -2.1317301434464753e-04</internalNodes>
          <leafValues>
            -5.5033028125762939e-01 1.5117768943309784e-01</leafValues></_>
        <_>
          <internalNodes>
            0 -1 119 -4.0875552222132683e-03</internalNodes>
          <leafValues>
            3.2420375943183899e-01 -1.9503526389598846e-01</leafValues></_>
        <_>
          <internalNodes>
            0 -1 190 1.5748749137856066e-04</internalNodes>
          <leafValues>
            1.3571426272392273e-01 -4.3822515010833740e-01</leafValues></_>
        <_>
          <internalNodes>
            0 -1 247 2.0317215239629149e-04</internalNodes>
          <leafValues>
            7.9883471131324768e-02 -6.3364851474761963e-01</leafValues></_>
        <_>
          <internalNodes>
            0 -1 116 1.1008472647517920e-03</internalNodes>
          <leafValues>
            -5.5061322450637817e-01 9.3103788793087006e-02</leafValues></_>
        <_>
          <internalNodes>
            0 -1 56 -1.0510181309655309e-03</internalNodes>
          <leafValues>
            1.4414365589618683e-01 -3.6870944499969482e-01</leafValues></_>
        <_>
          <internalNodes>
            0 -1 247 -2.2169196745380759e-04</internalNodes>
          <leafValues>
            -4.5819056034088135e-01 1.0551321506500244e-01</leafValues></_>
        <_>
          <internalNodes>
            0 -1 252 9.6587918233126402e-04</internalNodes>
          <leafValues>
            -4.7527998685836792e-01 9.3219138681888580e-02</leafValues></_>
        <_>
          <internalNodes>
            0 -1 191 -8.3681504474952817e-04</internalNodes>
          <leafValues>
            2.6828888058662415e-01 -2.2742085158824921e-01</leafValues></_>
        <_>
          <internalNodes>
            0 -1 192 2.4004328995943069e-02</internalNodes>
          <leafValues>
            6.2005173414945602e-02 -8.3948159217834473e-01</leafValues></_>
        <_>
          <internalNodes>
            0 -1 120 7.1506146341562271e-03</internalNodes>
          <leafValues>
            -1.5853048861026764e-01 3.3111637830734253e-01</leafValues></_>
        <_>
          <internalNodes>
            0 -1 42 -7.9514703247696161e-04</internalNodes>
          <leafValues>
            1.9912408292293549e-01 -2.6792436838150024e-01</leafValues></_>
        <_>
          <internalNodes>
            0 -1 115 3.5982448025606573e-04</internalNodes>
          <leafValues>
            -2.0359943807125092e-01 2.5607854127883911e-01</leafValues></_>
        <_>
          <internalNodes>
            0 -1 271 -2.5864508934319019e-03</internalNodes>
          <leafValues>
            5.2280128002166748e-01 -9.4948768615722656e-02</leafValues></_>
        <_>
          <internalNodes>
            0 -1 6 1.2345789000391960e-03</internalNodes>
          <leafValues>
            -1.3812957704067230e-01 3.5733097791671753e-01</leafValues></_>
        <_>
          <internalNodes>
            0 -1 70 -6.2671126797795296e-03</internalNodes>
          <leafValues>
            4.1278898715972900e-01 -1.2797614932060242e-01</leafValues></_>
        <_>
          <internalNodes>
            0 -1 69 1.7308671958744526e-03</internalNodes>
          <leafValues>
            1.9872529804706573e-01 -2.4791732430458069e-01</leafValues></_>
        <_>
          <internalNodes>
            0 -1 143 1.1255007848376408e-04</internalNodes>
          <leafValues>
            1.3123711943626404e-01 -3.6537730693817139e-01</leafValues></_>
        <_>
          <internalNodes>
            0 -1 39 8.5508439224213362e-04</internalNodes>
          <leafValues>
            -2.2570930421352386e-01 2.1803992986679077e-01</leafValues></_>
        <_>
          <internalNodes>
            0 -1 258 1.6443028580397367e-03</internalNodes>
          <leafValues>
            -2.0258441567420959e-01 2.2906994819641113e-01</leafValues></_>
        <_>
          <internalNodes>
            0 -1 185 -2.7106335619464517e-04</internalNodes>
          <leafValues>
            -5.4084771871566772e-01 7.9446353018283844e-02</leafValues></_>
        <_>
          <internalNodes>
            0 -1 235 1.1429538950324059e-02</internalNodes>
          <leafValues>
            -7.7081859111785889e-02 6.9718605279922485e-01</leafValues></_></weakClassifiers></_>
    <!-- stage 14 -->
    <_>
      <maxWeakCount>31</maxWeakCount>
      <stageThreshold>-2.0171022415161133e+00</stageThreshold>
      <weakClassifiers>
        <_>
          <internalNodes>
            0 -1 242 1.9139231881126761e-04</internalNodes>
          <leafValues>
            -8.2350027561187744e-01 -5.1467710733413696e-01</leafValues></_>
        <_>
          <internalNodes>
            0 -1 15 -2.4412088096141815e-02</internalNodes>
          <leafValues>
            2.3876518011093140e-02 -4.8914638161659241e-01</leafValues></_>
        <_>
          <internalNodes>
            0 -1 238 -9.7635202109813690e-05</internalNodes>
          <leafValues>
            -5.9214848279953003e-01 9.6169456839561462e-02</leafValues></_>
        <_>
          <internalNodes>
            0 -1 222 -2.7685187524184585e-04</internalNodes>
          <leafValues>
            -5.3099155426025391e-01 1.4334924519062042e-01</leafValues></_>
        <_>
          <internalNodes>
            0 -1 169 -5.4510636255145073e-04</internalNodes>
          <leafValues>
            1.5731149911880493e-01 -3.5167747735977173e-01</leafValues></_>
        <_>
          <internalNodes>
            0 -1 226 1.6127144044730812e-04</internalNodes>
          <leafValues>
            1.2811264395713806e-01 -4.0281599760055542e-01</leafValues></_>
        <_>
          <internalNodes>
            0 -1 1 6.6966125741600990e-03</internalNodes>
          <leafValues>
            -1.3420675694942474e-01 3.7571370601654053e-01</leafValues></_>
        <_>
          <internalNodes>
            0 -1 132 -1.5604117652401328e-03</internalNodes>
          <leafValues>
            1.9885054230690002e-01 -2.6384469866752625e-01</leafValues></_>
        <_>
          <internalNodes>
            0 -1 149 -1.5939477831125259e-02</internalNodes>
          <leafValues>
            -5.4535639286041260e-01 8.2639016211032867e-02</leafValues></_>
        <_>
          <internalNodes>
            0 -1 155 -1.1141948401927948e-02</internalNodes>
          <leafValues>
            -6.3572227954864502e-01 6.3239499926567078e-02</leafValues></_>
        <_>
          <internalNodes>
            0 -1 148 5.6652403436601162e-03</internalNodes>
          <leafValues>
            -3.3495208621025085e-01 1.4430966973304749e-01</leafValues></_>
        <_>
          <internalNodes>
            0 -1 224 -2.4548219516873360e-03</internalNodes>
          <leafValues>
            2.8696382045745850e-01 -1.5835115313529968e-01</leafValues></_>
        <_>
          <internalNodes>
            0 -1 129 -1.2865217286162078e-04</internalNodes>
          <leafValues>
            -4.6895140409469604e-01 1.0065887123346329e-01</leafValues></_>
        <_>
          <internalNodes>
            0 -1 72 -1.1264563072472811e-03</internalNodes>
          <leafValues>
            2.0384538173675537e-01 -2.3777516186237335e-01</leafValues></_>
        <_>
          <internalNodes>
            0 -1 128 -2.4958176072686911e-04</internalNodes>
          <leafValues>
            -4.9641332030296326e-01 9.3068823218345642e-02</leafValues></_>
        <_>
          <internalNodes>
            0 -1 249 -2.6858015917241573e-03</internalNodes>
          <leafValues>
            5.7211297750473022e-01 -8.4411151707172394e-02</leafValues></_>
        <_>
          <internalNodes>
            0 -1 263 1.0778717114590108e-04</internalNodes>
          <leafValues>
            1.3631972670555115e-01 -3.6573269963264465e-01</leafValues></_>
        <_>
          <internalNodes>
            0 -1 204 -3.8035832403693348e-05</internalNodes>
          <leafValues>
            1.9651362299919128e-01 -2.1381667256355286e-01</leafValues></_>
        <_>
          <internalNodes>
            0 -1 83 9.2455913545563817e-05</internalNodes>
          <leafValues>
            1.1200864613056183e-01 -3.9361077547073364e-01</leafValues></_>
        <_>
          <internalNodes>
            0 -1 181 -1.4670691452920437e-03</internalNodes>
          <leafValues>
            1.9691182672977448e-01 -2.2722916305065155e-01</leafValues></_>
        <_>
          <internalNodes>
            0 -1 94 -1.4794123172760010e-01</internalNodes>
          <leafValues>
            6.5350687503814697e-01 -6.6521622240543365e-02</leafValues></_>
        <_>
          <internalNodes>
            0 -1 108 -1.6465122462250292e-04</internalNodes>
          <leafValues>
            -3.6719456315040588e-01 1.2596344947814941e-01</leafValues></_>
        <_>
          <internalNodes>
            0 -1 153 5.1760226488113403e-03</internalNodes>
          <leafValues>
            -1.1534903198480606e-01 4.1361233592033386e-01</leafValues></_>
        <_>
          <internalNodes>
            0 -1 257 -2.0943698473274708e-04</internalNodes>
          <leafValues>
            -4.4978412985801697e-01 9.6249438822269440e-02</leafValues></_>
        <_>
          <internalNodes>
            0 -1 61 -3.8148176827235147e-05</internalNodes>
          <leafValues>
            1.4574864506721497e-01 -2.7032592892646790e-01</leafValues></_>
        <_>
          <internalNodes>
            0 -1 109 5.5458780843764544e-04</internalNodes>
          <leafValues>
            9.5472164452075958e-02 -4.1372144222259521e-01</leafValues></_>
        <_>
          <internalNodes>
            0 -1 54 -2.1620152983814478e-04</internalNodes>
          <leafValues>
            1.5035216510295868e-01 -2.5449103116989136e-01</leafValues></_>
        <_>
          <internalNodes>
            0 -1 45 -1.3098629424348474e-03</internalNodes>
          <leafValues>
            2.9208788275718689e-01 -1.4330299198627472e-01</leafValues></_>
        <_>
          <internalNodes>
            0 -1 85 1.1807771399617195e-02</internalNodes>
          <leafValues>
            -1.0733996331691742e-01 3.9122882485389709e-01</leafValues></_>
        <_>
          <internalNodes>
            0 -1 233 -3.2459624344483018e-04</internalNodes>
          <leafValues>
            -6.4288544654846191e-01 6.4167700707912445e-02</leafValues></_>
        <_>
          <internalNodes>
            0 -1 268 -1.7732526175677776e-03</internalNodes>
          <leafValues>
            5.6898218393325806e-01 -7.7064394950866699e-02</leafValues></_></weakClassifiers></_></stages>
  <features>
    <_>
      <rects>
        <_>
          0 0 4 14 -1.</_>
        <_>
          0 0 2 7 2.</_>
        <_>
          2 7 2 7 2.</_></rects>
      <tilted>0</tilted></_>
    <_>
      <rects>
        <_>
          0 0 5 6 -1.</_>
        <_>
          0 3 5 3 2.</_></rects>
      <tilted>0</tilted></_>
    <_>
      <rects>
        <_>
          0 0 12 4 -1.</_>
        <_>
          0 0 6 2 2.</_>
        <_>
          6 2 6 2 2.</_></rects>
      <tilted>0</tilted></_>
    <_>
      <rects>
        <_>
          0 0 14 4 -1.</_>
        <_>
          0 0 7 2 2.</_>
        <_>
          7 2 7 2 2.</_></rects>
      <tilted>0</tilted></_>
    <_>
      <rects>
        <_>
          0 0 16 4 -1.</_>
        <_>
          0 0 8 2 2.</_>
        <_>
          8 2 8 2 2.</_></rects>
      <tilted>0</tilted></_>
    <_>
      <rects>
        <_>
          0 0 24 24 -1.</_>
        <_>
          8 8 8 8 9.</_></rects>
      <tilted>0</tilted></_>
    <_>
      <rects>
        <_>
          0 0 9 2 -1.</_>
        <_>
          0 1 9 1 2.</_></rects>
      <tilted>0</tilted></_>
    <_>
      <rects>
        <_>
          0 2 24 20 -1.</_>
        <_>
          6 2 12 20 2.</_></rects>
      <tilted>0</tilted></_>
    <_>
      <rects>
        <_>
          0 3 9 21 -1.</_>
        <_>
          3 10 3 7 9.</_></rects>
      <tilted>0</tilted></_>
    <_>
      <rects>
        <_>
          0 3 24 19 -1.</_>
        <_>
          6 3 12 19 2.</_></rects>
      <tilted>0</tilted></_>
    <_>
      <rects>
        <_>
          0 3 24 19 -1.</_>
        <_>
          8 3 8 19 3.</_></rects>
      <tilted>0</tilted></_>
    <_>
      <rects>
        <_>
          0 4 2 14 -1.</_>
        <_>
          1 4 1 14 2.</_></rects>
      <tilted>0</tilted></_>
    <_>
      <rects>
        <_>
          0 4 4 12 -1.</_>
        <_>
          0 4 2 6 2.</_>
        <_>
          2 10 2 6 2.</_></rects>
      <tilted>0</tilted></_>
    <_>
      <rects>
        <_>
          0 4 15 17 -1.</_>
        <_>
          5 4 5 17 3.</_></rects>
      <tilted>0</tilted></_>
    <_>
      <rects>
        <_>
          0 5 6 12 -1.</_>
        <_>
          2 9 2 4 9.</_></rects>
      <tilted>0</tilted></_>
    <_>
      <rects>
        <_>
          0 5 8 13 -1.</_>
        <_>
          2 5 4 13 2.</_></rects>
      <tilted>0</tilted></_>
    <_>
      <rects>
        <_>
          0 5 6 15 -1.</_>
        <_>
          3 5 3 15 2.</_></rects>
      <tilted>0</tilted></_>
    <_>
      <rects>
        <_>
          0 6 3 11 -1.</_>
        <_>
          1 6 1 11 3.</_></rects>
      <tilted>0</tilted></_>
    <_>
      <rects>
        <_>
          0 6 4 12 -1.</_>
        <_>
          2 6 2 12 2.</_></rects>
      <tilted>0</tilted></_>
    <_>
      <rects>
        <_>
          0 6 9 12 -1.</_>
        <_>
          3 6 3 12 3.</_></rects>
      <tilted>0</tilted></_>
    <_>
      <rects>
        <_>
          0 6 12 14 -1.</_>
        <_>
          6 6 6 14 2.</_></rects>
      <tilted>0</tilted></_>
    <_>
      <rects>
        <_>
          0 7 4 9 -1.</_>
        <_>
          2 7 2 9 2.</_></rects>
      <tilted>0</tilted></_>
    <_>
      <rects>
        <_>
          0 7 12 11 -1.</_>
        <_>
          6 7 6 11 2.</_></rects>
      <tilted>0</tilted></_>
    <_>
      <rects>
        <_>
          0 8 4 14 -1.</_>
        <_>
          1 8 2 14 2.</_></rects>
      <tilted>0</tilted></_>
    <_>
      <rects>
        <_>
          0 10 14 11 -1.</_>
        <_>
          7 10 7 11 2.</_></rects>
      <tilted>0</tilted></_>
    <_>
      <rects>
        <_>
          0 11 9 7 -1.</_>
        <_>
          3 11 3 7 3.</_></rects>
      <tilted>0</tilted></_>
    <_>
      <rects>
        <_>
          0 11 15 12 -1.</_>
        <_>
          5 15 5 4 9.</_></rects>
      <tilted>0</tilted></_>
    <_>
      <rects>
        <_>
          0 11 14 7 -1.</_>
        <_>
          7 11 7 7 2.</_></rects>
      <tilted>0</tilted></_>
    <_>
      <rects>
        <_>
          1 2 4 19 -1.</_>
        <_>
          2 2 2 19 2.</_></rects>
      <tilted>0</tilted></_>
    <_>
      <rects>
        <_>
          1 4 2 8 -1.</_>
        <_>
          1 4 1 4 2.</_>
        <_>
          2 8 1 4 2.</_></rects>
      <tilted>0</tilted></_>
    <_>
      <rects>
        <_>
          1 5 6 14 -1.</_>
        <_>
          3 5 2 14 3.</_></rects>
      <tilted>0</tilted></_>
    <_>
      <rects>
        <_>
          1 5 9 14 -1.</_>
        <_>
          4 5 3 14 3.</_></rects>
      <tilted>0</tilted></_>
    <_>
      <rects>
        <_>
          1 9 3 6 -1.</_>
        <_>
          2 9 1 6 3.</_></rects>
      <tilted>0</tilted></_>
    <_>
      <rects>
        <_>
          1 9 4 7 -1.</_>
        <_>
          2 9 2 7 2.</_></rects>
      <tilted>0</tilted></_>
    <_>
      <rects>
        <_>
          1 10 3 9 -1.</_>
        <_>
          2 10 1 9 3.</_></rects>
      <tilted>0</tilted></_>
    <_>
      <rects>
        <_>
          2 0 18 24 -1.</_>
        <_>
          2 6 18 12 2.</_></rects>
      <tilted>0</tilted></_>
    <_>
      <rects>
        <_>
          2 0 19 24 -1.</_>
        <_>
          2 6 19 12 2.</_></rects>
      <tilted>0</tilted></_>
    <_>
      <rects>
        <_>
          2 0 20 24 -1.</_>
        <_>
          2 6 20 12 2.</_></rects>
      <tilted>0</tilted></_>
    <_>
      <rects>
        <_>
          2 3 5 9 -1.</_>
        <_>
          2 6 5 3 3.</_></rects>
      <tilted>0</tilted></_>
    <_>
      <rects>
        <_>
          2 4 10 2 -1.</_>
        <_>
          2 4 5 1 2.</_>
        <_>
          7 5 5 1 2.</_></rects>
      <tilted>0</tilted></_>
    <_>
      <rects>
        <_>
          2 5 3 4 -1.</_>
        <_>
          2 6 3 2 2.</_></rects>
      <tilted>0</tilted></_>
    <_>
      <rects>
        <_>
          2 9 4 3 -1.</_>
        <_>
          3 9 2 3 2.</_></rects>
      <tilted>0</tilted></_>
    <_>
      <rects>
        <_>
          2 11 3 11 -1.</_>
        <_>
          3 11 1 11 3.</_></rects>
      <tilted>0</tilted></_>
    <_>
      <rects>
        <_>
          2 15 12 4 -1.</_>
        <_>
          2 16 12 2 2.</_></rects>
      <tilted>0</tilted></_>
    <_>
      <rects>
        <_>
          2 16 4 4 -1.</_>
        <_>
          2 16 2 2 2.</_>
        <_>
          4 18 2 2 2.</_></rects>
      <tilted>0</tilted></_>
    <_>
      <rects>
        <_>
          2 17 3 4 -1.</_>
        <_>
          2 18 3 2 2.</_></rects>
      <tilted>0</tilted></_>
    <_>
      <rects>
        <_>
          2 17 21 6 -1.</_>
        <_>
          9 19 7 2 9.</_></rects>
      <tilted>0</tilted></_>
    <_>
      <rects>
        <_>
          2 17 16 6 -1.</_>
        <_>
          2 19 16 2 3.</_></rects>
      <tilted>0</tilted></_>
    <_>
      <rects>
        <_>
          2 18 10 6 -1.</_>
        <_>
          2 18 5 3 2.</_>
        <_>
          7 21 5 3 2.</_></rects>
      <tilted>0</tilted></_>
    <_>
      <rects>
        <_>
          2 20 20 2 -1.</_>
        <_>
          7 20 10 2 2.</_></rects>
      <tilted>0</tilted></_>
    <_>
      <rects>
        <_>
          3 0 3 24 -1.</_>
        <_>
          3 6 3 12 2.</_></rects>
      <tilted>0</tilted></_>
    <_>
      <rects>
        <_>
          3 0 18 9 -1.</_>
        <_>
          9 3 6 3 9.</_></rects>
      <tilted>0</tilted></_>
    <_>
      <rects>
        <_>
          3 3 1 12 -1.</_>
        <_>
          3 9 1 6 2.</_></rects>
      <tilted>0</tilted></_>
    <_>
      <rects>
        <_>
          3 3 6 14 -1.</_>
        <_>
          3 3 3 7 2.</_>
        <_>
          6 10 3 7 2.</_></rects>
      <tilted>0</tilted></_>
    <_>
      <rects>
        <_>
          3 5 4 3 -1.</_>
        <_>
          4 5 2 3 2.</_></rects>
      <tilted>0</tilted></_>
    <_>
      <rects>
        <_>
          3 6 16 18 -1.</_>
        <_>
          3 15 16 9 2.</_></rects>
      <tilted>0</tilted></_>
    <_>
      <rects>
        <_>
          3 10 6 10 -1.</_>
        <_>
          3 10 3 5 2.</_>
        <_>
          6 15 3 5 2.</_></rects>
      <tilted>0</tilted></_>
    <_>
      <rects>
        <_>
          3 11 10 3 -1.</_>
        <_>
          2 12 10 1 3.</_></rects>
      <tilted>1</tilted></_>
    <_>
      <rects>
        <_>
          3 14 7 3 -1.</_>
        <_>
          2 15 7 1 3.</_></rects>
      <tilted>1</tilted></_>
    <_>
      <rects>
        <_>
          3 15 7 2 -1.</_>
        <_>
          3 15 7 1 2.</_></rects>
      <tilted>1</tilted></_>
    <_>
      <rects>
        <_>
          3 15 14 9 -1.</_>
        <_>
          3 18 14 3 3.</_></rects>
      <tilted>0</tilted></_>
    <_>
      <rects>
        <_>
          3 16 3 3 -1.</_>
        <_>
          4 17 1 1 9.</_></rects>
      <tilted>0</tilted></_>
    <_>
      <rects>
        <_>
          3 16 17 8 -1.</_>
        <_>
          3 20 17 4 2.</_></rects>
      <tilted>0</tilted></_>
    <_>
      <rects>
        <_>
          3 18 8 4 -1.</_>
        <_>
          3 18 4 2 2.</_>
        <_>
          7 20 4 2 2.</_></rects>
      <tilted>0</tilted></_>
    <_>
      <rects>
        <_>
          3 18 18 6 -1.</_>
        <_>
          9 20 6 2 9.</_></rects>
      <tilted>0</tilted></_>
    <_>
      <rects>
        <_>
          3 18 9 4 -1.</_>
        <_>
          3 19 9 2 2.</_></rects>
      <tilted>0</tilted></_>
    <_>
      <rects>
        <_>
          3 19 16 4 -1.</_>
        <_>
          3 21 16 2 2.</_></rects>
      <tilted>0</tilted></_>
    <_>
      <rects>
        <_>
          3 19 17 4 -1.</_>
        <_>
          3 21 17 2 2.</_></rects>
      <tilted>0</tilted></_>
    <_>
      <rects>
        <_>
          4 0 16 12 -1.</_>
        <_>
          4 3 16 6 2.</_></rects>
      <tilted>0</tilted></_>
    <_>
      <rects>
        <_>
          4 1 2 4 -1.</_>
        <_>
          4 1 1 4 2.</_></rects>
      <tilted>1</tilted></_>
    <_>
      <rects>
        <_>
          4 1 13 3 -1.</_>
        <_>
          4 2 13 1 3.</_></rects>
      <tilted>0</tilted></_>
    <_>
      <rects>
        <_>
          4 2 6 4 -1.</_>
        <_>
          4 3 6 2 2.</_></rects>
      <tilted>0</tilted></_>
    <_>
      <rects>
        <_>
          4 2 7 4 -1.</_>
        <_>
          4 3 7 2 2.</_></rects>
      <tilted>0</tilted></_>
    <_>
      <rects>
        <_>
          4 4 6 2 -1.</_>
        <_>
          6 6 2 2 3.</_></rects>
      <tilted>1</tilted></_>
    <_>
      <rects>
        <_>
          4 5 9 6 -1.</_>
        <_>
          4 7 9 2 3.</_></rects>
      <tilted>0</tilted></_>
    <_>
      <rects>
        <_>
          4 7 12 11 -1.</_>
        <_>
          7 7 6 11 2.</_></rects>
      <tilted>0</tilted></_>
    <_>
      <rects>
        <_>
          4 8 1 3 -1.</_>
        <_>
          4 9 1 1 3.</_></rects>
      <tilted>0</tilted></_>
    <_>
      <rects>
        <_>
          4 8 4 4 -1.</_>
        <_>
          4 8 2 4 2.</_></rects>
      <tilted>1</tilted></_>
    <_>
      <rects>
        <_>
          4 10 1 3 -1.</_>
        <_>
          4 11 1 1 3.</_></rects>
      <tilted>0</tilted></_>
    <_>
      <rects>
        <_>
          4 10 3 9 -1.</_>
        <_>
          5 10 1 9 3.</_></rects>
      <tilted>0</tilted></_>
    <_>
      <rects>
        <_>
          4 11 8 1 -1.</_>
        <_>
          4 11 4 1 2.</_></rects>
      <tilted>1</tilted></_>
    <_>
      <rects>
        <_>
          4 12 15 12 -1.</_>
        <_>
          4 15 15 6 2.</_></rects>
      <tilted>0</tilted></_>
    <_>
      <rects>
        <_>
          4 14 7 3 -1.</_>
        <_>
          3 15 7 1 3.</_></rects>
      <tilted>1</tilted></_>
    <_>
      <rects>
        <_>
          4 15 2 2 -1.</_>
        <_>
          4 15 1 1 2.</_>
        <_>
          5 16 1 1 2.</_></rects>
      <tilted>0</tilted></_>
    <_>
      <rects>
        <_>
          4 15 5 3 -1.</_>
        <_>
          3 16 5 1 3.</_></rects>
      <tilted>1</tilted></_>
    <_>
      <rects>
        <_>
          4 15 6 3 -1.</_>
        <_>
          3 16 6 1 3.</_></rects>
      <tilted>1</tilted></_>
    <_>
      <rects>
        <_>
          4 18 15 6 -1.</_>
        <_>
          4 21 15 3 2.</_></rects>
      <tilted>0</tilted></_>
    <_>
      <rects>
        <_>
          4 19 6 4 -1.</_>
        <_>
          4 19 3 2 2.</_>
        <_>
          7 21 3 2 2.</_></rects>
      <tilted>0</tilted></_>
    <_>
      <rects>
        <_>
          5 0 4 5 -1.</_>
        <_>
          5 0 2 5 2.</_></rects>
      <tilted>1</tilted></_>
    <_>
      <rects>
        <_>
          5 0 13 12 -1.</_>
        <_>
          5 4 13 4 3.</_></rects>
      <tilted>0</tilted></_>
    <_>
      <rects>
        <_>
          5 1 12 4 -1.</_>
        <_>
          5 2 12 2 2.</_></rects>
      <tilted>0</tilted></_>
    <_>
      <rects>
        <_>
          5 2 5 6 -1.</_>
        <_>
          5 4 5 2 3.</_></rects>
      <tilted>0</tilted></_>
    <_>
      <rects>
        <_>
          5 2 15 3 -1.</_>
        <_>
          5 3 15 1 3.</_></rects>
      <tilted>0</tilted></_>
    <_>
      <rects>
        <_>
          5 2 17 4 -1.</_>
        <_>
          5 3 17 2 2.</_></rects>
      <tilted>0</tilted></_>
    <_>
      <rects>
        <_>
          5 3 12 18 -1.</_>
        <_>
          9 9 4 6 9.</_></rects>
      <tilted>0</tilted></_>
    <_>
      <rects>
        <_>
          5 6 12 12 -1.</_>
        <_>
          8 6 6 12 2.</_></rects>
      <tilted>0</tilted></_>
    <_>
      <rects>
        <_>
          5 8 6 14 -1.</_>
        <_>
          5 8 3 7 2.</_>
        <_>
          8 15 3 7 2.</_></rects>
      <tilted>0</tilted></_>
    <_>
      <rects>
        <_>
          5 10 6 1 -1.</_>
        <_>
          8 10 3 1 2.</_></rects>
      <tilted>0</tilted></_>
    <_>
      <rects>
        <_>
          5 15 14 9 -1.</_>
        <_>
          5 18 14 3 3.</_></rects>
      <tilted>0</tilted></_>
    <_>
      <rects>
        <_>
          5 20 9 3 -1.</_>
        <_>
          5 21 9 1 3.</_></rects>
      <tilted>0</tilted></_>
    <_>
      <rects>
        <_>
          6 0 18 24 -1.</_>
        <_>
          12 8 6 8 9.</_></rects>
      <tilted>0</tilted></_>
    <_>
      <rects>
        <_>
          6 0 11 6 -1.</_>
        <_>
          6 2 11 2 3.</_></rects>
      <tilted>0</tilted></_>
    <_>
      <rects>
        <_>
          6 0 12 6 -1.</_>
        <_>
          6 2 12 2 3.</_></rects>
      <tilted>0</tilted></_>
    <_>
      <rects>
        <_>
          6 1 12 8 -1.</_>
        <_>
          6 3 12 4 2.</_></rects>
      <tilted>0</tilted></_>
    <_>
      <rects>
        <_>
          6 2 12 4 -1.</_>
        <_>
          6 3 12 2 2.</_></rects>
      <tilted>0</tilted></_>
    <_>
      <rects>
        <_>
          6 3 2 5 -1.</_>
        <_>
          6 3 1 5 2.</_></rects>
      <tilted>1</tilted></_>
    <_>
      <rects>
        <_>
          6 3 18 15 -1.</_>
        <_>
          12 3 6 15 3.</_></rects>
      <tilted>0</tilted></_>
    <_>
      <rects>
        <_>
          6 4 5 4 -1.</_>
        <_>
          6 5 5 2 2.</_></rects>
      <tilted>0</tilted></_>
    <_>
      <rects>
        <_>
          6 6 2 1 -1.</_>
        <_>
          7 6 1 1 2.</_></rects>
      <tilted>0</tilted></_>
    <_>
      <rects>
        <_>
          6 6 3 3 -1.</_>
        <_>
          7 7 1 1 9.</_></rects>
      <tilted>0</tilted></_>
    <_>
      <rects>
        <_>
          6 6 12 1 -1.</_>
        <_>
          9 9 6 1 2.</_></rects>
      <tilted>1</tilted></_>
    <_>
      <rects>
        <_>
          6 6 12 12 -1.</_>
        <_>
          6 10 12 4 3.</_></rects>
      <tilted>0</tilted></_>
    <_>
      <rects>
        <_>
          6 7 1 3 -1.</_>
        <_>
          6 8 1 1 3.</_></rects>
      <tilted>0</tilted></_>
    <_>
      <rects>
        <_>
          6 8 1 3 -1.</_>
        <_>
          6 9 1 1 3.</_></rects>
      <tilted>0</tilted></_>
    <_>
      <rects>
        <_>
          6 8 1 2 -1.</_>
        <_>
          6 8 1 1 2.</_></rects>
      <tilted>1</tilted></_>
    <_>
      <rects>
        <_>
          6 12 6 2 -1.</_>
        <_>
          9 12 3 2 2.</_></rects>
      <tilted>0</tilted></_>
    <_>
      <rects>
        <_>
          6 14 18 1 -1.</_>
        <_>
          15 14 9 1 2.</_></rects>
      <tilted>0</tilted></_>
    <_>
      <rects>
        <_>
          6 17 18 1 -1.</_>
        <_>
          15 17 9 1 2.</_></rects>
      <tilted>0</tilted></_>
    <_>
      <rects>
        <_>
          6 19 11 4 -1.</_>
        <_>
          6 20 11 2 2.</_></rects>
      <tilted>0</tilted></_>
    <_>
      <rects>
        <_>
          6 20 11 3 -1.</_>
        <_>
          6 21 11 1 3.</_></rects>
      <tilted>0</tilted></_>
    <_>
      <rects>
        <_>
          6 20 13 4 -1.</_>
        <_>
          6 21 13 2 2.</_></rects>
      <tilted>0</tilted></_>
    <_>
      <rects>
        <_>
          7 0 4 7 -1.</_>
        <_>
          8 1 2 7 2.</_></rects>
      <tilted>1</tilted></_>
    <_>
      <rects>
        <_>
          7 0 6 7 -1.</_>
        <_>
          9 2 2 7 3.</_></rects>
      <tilted>1</tilted></_>
    <_>
      <rects>
        <_>
          7 5 2 2 -1.</_>
        <_>
          7 5 1 1 2.</_>
        <_>
          8 6 1 1 2.</_></rects>
      <tilted>0</tilted></_>
    <_>
      <rects>
        <_>
          7 5 12 2 -1.</_>
        <_>
          10 8 6 2 2.</_></rects>
      <tilted>1</tilted></_>
    <_>
      <rects>
        <_>
          7 6 1 2 -1.</_>
        <_>
          7 6 1 1 2.</_></rects>
      <tilted>1</tilted></_>
    <_>
      <rects>
        <_>
          7 6 1 3 -1.</_>
        <_>
          6 7 1 1 3.</_></rects>
      <tilted>1</tilted></_>
    <_>
      <rects>
        <_>
          7 6 10 6 -1.</_>
        <_>
          7 9 10 3 2.</_></rects>
      <tilted>0</tilted></_>
    <_>
      <rects>
        <_>
          7 7 1 3 -1.</_>
        <_>
          7 8 1 1 3.</_></rects>
      <tilted>0</tilted></_>
    <_>
      <rects>
        <_>
          7 7 2 2 -1.</_>
        <_>
          7 7 1 1 2.</_>
        <_>
          8 8 1 1 2.</_></rects>
      <tilted>0</tilted></_>
    <_>
      <rects>
        <_>
          7 8 1 2 -1.</_>
        <_>
          7 8 1 1 2.</_></rects>
      <tilted>1</tilted></_>
    <_>
      <rects>
        <_>
          7 10 13 14 -1.</_>
        <_>
          7 17 13 7 2.</_></rects>
      <tilted>0</tilted></_>
    <_>
      <rects>
        <_>
          7 11 6 9 -1.</_>
        <_>
          7 14 6 3 3.</_></rects>
      <tilted>0</tilted></_>
    <_>
      <rects>
        <_>
          7 16 4 2 -1.</_>
        <_>
          7 16 2 1 2.</_>
        <_>
          9 17 2 1 2.</_></rects>
      <tilted>0</tilted></_>
    <_>
      <rects>
        <_>
          7 16 9 6 -1.</_>
        <_>
          7 18 9 2 3.</_></rects>
      <tilted>0</tilted></_>
    <_>
      <rects>
        <_>
          7 17 3 1 -1.</_>
        <_>
          8 17 1 1 3.</_></rects>
      <tilted>0</tilted></_>
    <_>
      <rects>
        <_>
          7 17 2 2 -1.</_>
        <_>
          7 17 1 1 2.</_>
        <_>
          8 18 1 1 2.</_></rects>
      <tilted>0</tilted></_>
    <_>
      <rects>
        <_>
          7 18 11 6 -1.</_>
        <_>
          7 20 11 2 3.</_></rects>
      <tilted>0</tilted></_>
    <_>
      <rects>
        <_>
          8 0 6 8 -1.</_>
        <_>
          10 2 2 8 3.</_></rects>
      <tilted>1</tilted></_>
    <_>
      <rects>
        <_>
          8 0 6 24 -1.</_>
        <_>
          8 12 6 12 2.</_></rects>
      <tilted>0</tilted></_>
    <_>
      <rects>
        <_>
          8 1 3 8 -1.</_>
        <_>
          9 2 1 8 3.</_></rects>
      <tilted>1</tilted></_>
    <_>
      <rects>
        <_>
          8 2 3 8 -1.</_>
        <_>
          9 3 1 8 3.</_></rects>
      <tilted>1</tilted></_>
    <_>
      <rects>
        <_>
          8 5 1 3 -1.</_>
        <_>
          7 6 1 1 3.</_></rects>
      <tilted>1</tilted></_>
    <_>
      <rects>
        <_>
          8 5 3 3 -1.</_>
        <_>
          8 6 3 1 3.</_></rects>
      <tilted>0</tilted></_>
    <_>
      <rects>
        <_>
          8 5 5 6 -1.</_>
        <_>
          8 8 5 3 2.</_></rects>
      <tilted>0</tilted></_>
    <_>
      <rects>
        <_>
          8 5 7 12 -1.</_>
        <_>
          8 8 7 6 2.</_></rects>
      <tilted>0</tilted></_>
    <_>
      <rects>
        <_>
          8 6 2 2 -1.</_>
        <_>
          8 6 1 1 2.</_>
        <_>
          9 7 1 1 2.</_></rects>
      <tilted>0</tilted></_>
    <_>
      <rects>
        <_>
          8 6 10 12 -1.</_>
        <_>
          8 10 10 4 3.</_></rects>
      <tilted>0</tilted></_>
    <_>
      <rects>
        <_>
          8 11 14 8 -1.</_>
        <_>
          8 11 7 4 2.</_>
        <_>
          15 15 7 4 2.</_></rects>
      <tilted>0</tilted></_>
    <_>
      <rects>
        <_>
          8 12 6 9 -1.</_>
        <_>
          8 15 6 3 3.</_></rects>
      <tilted>0</tilted></_>
    <_>
      <rects>
        <_>
          8 15 1 3 -1.</_>
        <_>
          8 16 1 1 3.</_></rects>
      <tilted>0</tilted></_>
    <_>
      <rects>
        <_>
          8 15 16 3 -1.</_>
        <_>
          16 15 8 3 2.</_></rects>
      <tilted>0</tilted></_>
    <_>
      <rects>
        <_>
          8 17 14 4 -1.</_>
        <_>
          15 17 7 4 2.</_></rects>
      <tilted>0</tilted></_>
    <_>
      <rects>
        <_>
          9 0 3 8 -1.</_>
        <_>
          10 1 1 8 3.</_></rects>
      <tilted>1</tilted></_>
    <_>
      <rects>
        <_>
          9 0 4 18 -1.</_>
        <_>
          9 9 4 9 2.</_></rects>
      <tilted>0</tilted></_>
    <_>
      <rects>
        <_>
          9 2 7 4 -1.</_>
        <_>
          9 2 7 2 2.</_></rects>
      <tilted>1</tilted></_>
    <_>
      <rects>
        <_>
          9 3 12 10 -1.</_>
        <_>
          9 3 6 5 2.</_>
        <_>
          15 8 6 5 2.</_></rects>
      <tilted>0</tilted></_>
    <_>
      <rects>
        <_>
          9 4 1 3 -1.</_>
        <_>
          9 5 1 1 3.</_></rects>
      <tilted>0</tilted></_>
    <_>
      <rects>
        <_>
          9 4 4 5 -1.</_>
        <_>
          9 4 2 5 2.</_></rects>
      <tilted>1</tilted></_>
    <_>
      <rects>
        <_>
          9 4 4 3 -1.</_>
        <_>
          9 5 4 1 3.</_></rects>
      <tilted>0</tilted></_>
    <_>
      <rects>
        <_>
          9 5 3 1 -1.</_>
        <_>
          10 5 1 1 3.</_></rects>
      <tilted>0</tilted></_>
    <_>
      <rects>
        <_>
          9 5 1 3 -1.</_>
        <_>
          9 6 1 1 3.</_></rects>
      <tilted>0</tilted></_>
    <_>
      <rects>
        <_>
          9 5 1 3 -1.</_>
        <_>
          8 6 1 1 3.</_></rects>
      <tilted>1</tilted></_>
    <_>
      <rects>
        <_>
          9 5 15 13 -1.</_>
        <_>
          14 5 5 13 3.</_></rects>
      <tilted>0</tilted></_>
    <_>
      <rects>
        <_>
          9 5 14 1 -1.</_>
        <_>
          16 5 7 1 2.</_></rects>
      <tilted>0</tilted></_>
    <_>
      <rects>
        <_>
          9 15 2 2 -1.</_>
        <_>
          9 15 1 1 2.</_>
        <_>
          10 16 1 1 2.</_></rects>
      <tilted>0</tilted></_>
    <_>
      <rects>
        <_>
          9 17 2 1 -1.</_>
        <_>
          10 17 1 1 2.</_></rects>
      <tilted>0</tilted></_>
    <_>
      <rects>
        <_>
          9 19 9 4 -1.</_>
        <_>
          9 20 9 2 2.</_></rects>
      <tilted>0</tilted></_>
    <_>
      <rects>
        <_>
          10 0 14 19 -1.</_>
        <_>
          17 0 7 19 2.</_></rects>
      <tilted>0</tilted></_>
    <_>
      <rects>
        <_>
          10 3 10 4 -1.</_>
        <_>
          10 3 5 2 2.</_>
        <_>
          15 5 5 2 2.</_></rects>
      <tilted>0</tilted></_>
    <_>
      <rects>
        <_>
          10 6 8 2 -1.</_>
        <_>
          10 6 8 1 2.</_></rects>
      <tilted>1</tilted></_>
    <_>
      <rects>
        <_>
          10 7 6 8 -1.</_>
        <_>
          13 7 3 8 2.</_></rects>
      <tilted>0</tilted></_>
    <_>
      <rects>
        <_>
          10 8 14 3 -1.</_>
        <_>
          17 8 7 3 2.</_></rects>
      <tilted>0</tilted></_>
    <_>
      <rects>
        <_>
          10 11 14 8 -1.</_>
        <_>
          17 11 7 8 2.</_></rects>
      <tilted>0</tilted></_>
    <_>
      <rects>
        <_>
          10 16 5 3 -1.</_>
        <_>
          10 17 5 1 3.</_></rects>
      <tilted>0</tilted></_>
    <_>
      <rects>
        <_>
          11 0 3 6 -1.</_>
        <_>
          11 2 3 2 3.</_></rects>
      <tilted>0</tilted></_>
    <_>
      <rects>
        <_>
          11 0 8 14 -1.</_>
        <_>
          11 7 8 7 2.</_></rects>
      <tilted>0</tilted></_>
    <_>
      <rects>
        <_>
          11 3 1 3 -1.</_>
        <_>
          11 4 1 1 3.</_></rects>
      <tilted>0</tilted></_>
    <_>
      <rects>
        <_>
          11 4 1 3 -1.</_>
        <_>
          10 5 1 1 3.</_></rects>
      <tilted>1</tilted></_>
    <_>
      <rects>
        <_>
          11 5 2 2 -1.</_>
        <_>
          11 5 1 1 2.</_>
        <_>
          12 6 1 1 2.</_></rects>
      <tilted>0</tilted></_>
    <_>
      <rects>
        <_>
          11 5 3 2 -1.</_>
        <_>
          12 5 1 2 3.</_></rects>
      <tilted>0</tilted></_>
    <_>
      <rects>
        <_>
          11 5 6 4 -1.</_>
        <_>
          11 5 6 2 2.</_></rects>
      <tilted>1</tilted></_>
    <_>
      <rects>
        <_>
          11 7 4 11 -1.</_>
        <_>
          13 7 2 11 2.</_></rects>
      <tilted>0</tilted></_>
    <_>
      <rects>
        <_>
          11 7 12 5 -1.</_>
        <_>
          11 7 6 5 2.</_></rects>
      <tilted>1</tilted></_>
    <_>
      <rects>
        <_>
          11 11 10 10 -1.</_>
        <_>
          11 11 5 5 2.</_>
        <_>
          16 16 5 5 2.</_></rects>
      <tilted>0</tilted></_>
    <_>
      <rects>
        <_>
          11 14 1 3 -1.</_>
        <_>
          11 15 1 1 3.</_></rects>
      <tilted>0</tilted></_>
    <_>
      <rects>
        <_>
          11 16 1 4 -1.</_>
        <_>
          11 17 1 2 2.</_></rects>
      <tilted>0</tilted></_>
    <_>
      <rects>
        <_>
          11 16 2 2 -1.</_>
        <_>
          11 16 1 1 2.</_>
        <_>
          12 17 1 1 2.</_></rects>
      <tilted>0</tilted></_>
    <_>
      <rects>
        <_>
          11 18 1 3 -1.</_>
        <_>
          11 19 1 1 3.</_></rects>
      <tilted>0</tilted></_>
    <_>
      <rects>
        <_>
          11 20 3 1 -1.</_>
        <_>
          12 20 1 1 3.</_></rects>
      <tilted>0</tilted></_>
    <_>
      <rects>
        <_>
          12 3 1 3 -1.</_>
        <_>
          11 4 1 1 3.</_></rects>
      <tilted>1</tilted></_>
    <_>
      <rects>
        <_>
          12 4 4 12 -1.</_>
        <_>
          14 4 2 12 2.</_></rects>
      <tilted>0</tilted></_>
    <_>
      <rects>
        <_>
          12 4 6 8 -1.</_>
        <_>
          10 6 6 4 2.</_></rects>
      <tilted>1</tilted></_>
    <_>
      <rects>
        <_>
          12 5 7 3 -1.</_>
        <_>
          11 6 7 1 3.</_></rects>
      <tilted>1</tilted></_>
    <_>
      <rects>
        <_>
          12 6 3 1 -1.</_>
        <_>
          13 6 1 1 3.</_></rects>
      <tilted>0</tilted></_>
    <_>
      <rects>
        <_>
          12 6 2 3 -1.</_>
        <_>
          12 7 2 1 3.</_></rects>
      <tilted>0</tilted></_>
    <_>
      <rects>
        <_>
          12 6 3 3 -1.</_>
        <_>
          12 7 3 1 3.</_></rects>
      <tilted>0</tilted></_>
    <_>
      <rects>
        <_>
          12 7 1 3 -1.</_>
        <_>
          12 8 1 1 3.</_></rects>
      <tilted>0</tilted></_>
    <_>
      <rects>
        <_>
          12 7 12 10 -1.</_>
        <_>
          16 7 4 10 3.</_></rects>
      <tilted>0</tilted></_>
    <_>
      <rects>
        <_>
          12 13 1 3 -1.</_>
        <_>
          12 14 1 1 3.</_></rects>
      <tilted>0</tilted></_>
    <_>
      <rects>
        <_>
          12 14 2 3 -1.</_>
        <_>
          12 15 2 1 3.</_></rects>
      <tilted>0</tilted></_>
    <_>
      <rects>
        <_>
          12 15 2 3 -1.</_>
        <_>
          12 16 2 1 3.</_></rects>
      <tilted>0</tilted></_>
    <_>
      <rects>
        <_>
          12 16 3 3 -1.</_>
        <_>
          13 17 1 1 9.</_></rects>
      <tilted>0</tilted></_>
    <_>
      <rects>
        <_>
          12 17 1 3 -1.</_>
        <_>
          12 18 1 1 3.</_></rects>
      <tilted>0</tilted></_>
    <_>
      <rects>
        <_>
          13 7 3 6 -1.</_>
        <_>
          14 8 1 6 3.</_></rects>
      <tilted>1</tilted></_>
    <_>
      <rects>
        <_>
          13 7 4 2 -1.</_>
        <_>
          13 7 4 1 2.</_></rects>
      <tilted>1</tilted></_>
    <_>
      <rects>
        <_>
          13 11 4 8 -1.</_>
        <_>
          15 11 2 8 2.</_></rects>
      <tilted>0</tilted></_>
    <_>
      <rects>
        <_>
          13 12 1 4 -1.</_>
        <_>
          13 13 1 2 2.</_></rects>
      <tilted>0</tilted></_>
    <_>
      <rects>
        <_>
          13 14 8 2 -1.</_>
        <_>
          13 14 4 2 2.</_></rects>
      <tilted>1</tilted></_>
    <_>
      <rects>
        <_>
          13 15 3 1 -1.</_>
        <_>
          14 15 1 1 3.</_></rects>
      <tilted>0</tilted></_>
    <_>
      <rects>
        <_>
          13 15 3 9 -1.</_>
        <_>
          14 18 1 3 9.</_></rects>
      <tilted>0</tilted></_>
    <_>
      <rects>
        <_>
          13 18 3 1 -1.</_>
        <_>
          14 18 1 1 3.</_></rects>
      <tilted>0</tilted></_>
    <_>
      <rects>
        <_>
          14 0 9 21 -1.</_>
        <_>
          17 7 3 7 9.</_></rects>
      <tilted>0</tilted></_>
    <_>
      <rects>
        <_>
          14 0 6 4 -1.</_>
        <_>
          14 2 6 2 2.</_></rects>
      <tilted>0</tilted></_>
    <_>
      <rects>
        <_>
          14 3 10 13 -1.</_>
        <_>
          19 3 5 13 2.</_></rects>
      <tilted>0</tilted></_>
    <_>
      <rects>
        <_>
          14 3 10 15 -1.</_>
        <_>
          19 3 5 15 2.</_></rects>
      <tilted>0</tilted></_>
    <_>
      <rects>
        <_>
          14 6 3 2 -1.</_>
        <_>
          15 6 1 2 3.</_></rects>
      <tilted>0</tilted></_>
    <_>
      <rects>
        <_>
          14 6 6 4 -1.</_>
        <_>
          14 6 6 2 2.</_></rects>
      <tilted>1</tilted></_>
    <_>
      <rects>
        <_>
          14 8 1 3 -1.</_>
        <_>
          14 9 1 1 3.</_></rects>
      <tilted>0</tilted></_>
    <_>
      <rects>
        <_>
          14 8 3 3 -1.</_>
        <_>
          15 9 1 1 9.</_></rects>
      <tilted>0</tilted></_>
    <_>
      <rects>
        <_>
          14 8 10 2 -1.</_>
        <_>
          14 8 5 2 2.</_></rects>
      <tilted>1</tilted></_>
    <_>
      <rects>
        <_>
          14 15 2 2 -1.</_>
        <_>
          14 15 1 1 2.</_>
        <_>
          15 16 1 1 2.</_></rects>
      <tilted>0</tilted></_>
    <_>
      <rects>
        <_>
          14 17 1 3 -1.</_>
        <_>
          14 18 1 1 3.</_></rects>
      <tilted>0</tilted></_>
    <_>
      <rects>
        <_>
          14 17 2 2 -1.</_>
        <_>
          14 17 1 1 2.</_>
        <_>
          15 18 1 1 2.</_></rects>
      <tilted>0</tilted></_>
    <_>
      <rects>
        <_>
          14 17 8 4 -1.</_>
        <_>
          14 18 8 2 2.</_></rects>
      <tilted>0</tilted></_>
    <_>
      <rects>
        <_>
          14 18 3 1 -1.</_>
        <_>
          15 18 1 1 3.</_></rects>
      <tilted>0</tilted></_>
    <_>
      <rects>
        <_>
          14 18 2 2 -1.</_>
        <_>
          14 18 1 1 2.</_>
        <_>
          15 19 1 1 2.</_></rects>
      <tilted>0</tilted></_>
    <_>
      <rects>
        <_>
          15 0 1 10 -1.</_>
        <_>
          15 5 1 5 2.</_></rects>
      <tilted>0</tilted></_>
    <_>
      <rects>
        <_>
          15 0 5 18 -1.</_>
        <_>
          15 6 5 6 3.</_></rects>
      <tilted>0</tilted></_>
    <_>
      <rects>
        <_>
          15 6 3 1 -1.</_>
        <_>
          16 7 1 1 3.</_></rects>
      <tilted>1</tilted></_>
    <_>
      <rects>
        <_>
          15 7 2 4 -1.</_>
        <_>
          15 7 2 2 2.</_></rects>
      <tilted>1</tilted></_>
    <_>
      <rects>
        <_>
          15 7 9 5 -1.</_>
        <_>
          18 7 3 5 3.</_></rects>
      <tilted>0</tilted></_>
    <_>
      <rects>
        <_>
          15 8 1 3 -1.</_>
        <_>
          15 9 1 1 3.</_></rects>
      <tilted>0</tilted></_>
    <_>
      <rects>
        <_>
          15 9 1 3 -1.</_>
        <_>
          15 10 1 1 3.</_></rects>
      <tilted>0</tilted></_>
    <_>
      <rects>
        <_>
          15 9 2 3 -1.</_>
        <_>
          15 10 2 1 3.</_></rects>
      <tilted>0</tilted></_>
    <_>
      <rects>
        <_>
          15 11 8 4 -1.</_>
        <_>
          17 13 4 4 2.</_></rects>
      <tilted>1</tilted></_>
    <_>
      <rects>
        <_>
          15 12 1 2 -1.</_>
        <_>
          15 13 1 1 2.</_></rects>
      <tilted>0</tilted></_>
    <_>
      <rects>
        <_>
          15 16 5 6 -1.</_>
        <_>
          15 18 5 2 3.</_></rects>
      <tilted>0</tilted></_>
    <_>
      <rects>
        <_>
          15 18 1 2 -1.</_>
        <_>
          15 19 1 1 2.</_></rects>
      <tilted>0</tilted></_>
    <_>
      <rects>
        <_>
          15 18 3 1 -1.</_>
        <_>
          16 19 1 1 3.</_></rects>
      <tilted>1</tilted></_>
    <_>
      <rects>
        <_>
          16 0 8 3 -1.</_>
        <_>
          15 1 8 1 3.</_></rects>
      <tilted>1</tilted></_>
    <_>
      <rects>
        <_>
          16 3 4 8 -1.</_>
        <_>
          16 3 2 4 2.</_>
        <_>
          18 7 2 4 2.</_></rects>
      <tilted>0</tilted></_>
    <_>
      <rects>
        <_>
          16 4 4 12 -1.</_>
        <_>
          12 8 4 4 3.</_></rects>
      <tilted>1</tilted></_>
    <_>
      <rects>
        <_>
          16 7 1 2 -1.</_>
        <_>
          16 8 1 1 2.</_></rects>
      <tilted>0</tilted></_>
    <_>
      <rects>
        <_>
          16 8 2 2 -1.</_>
        <_>
          16 8 1 1 2.</_>
        <_>
          17 9 1 1 2.</_></rects>
      <tilted>0</tilted></_>
    <_>
      <rects>
        <_>
          16 12 1 3 -1.</_>
        <_>
          16 13 1 1 3.</_></rects>
      <tilted>0</tilted></_>
    <_>
      <rects>
        <_>
          16 13 4 3 -1.</_>
        <_>
          16 13 2 3 2.</_></rects>
      <tilted>1</tilted></_>
    <_>
      <rects>
        <_>
          16 14 1 3 -1.</_>
        <_>
          16 15 1 1 3.</_></rects>
      <tilted>0</tilted></_>
    <_>
      <rects>
        <_>
          16 14 3 3 -1.</_>
        <_>
          15 15 3 1 3.</_></rects>
      <tilted>1</tilted></_>
    <_>
      <rects>
        <_>
          16 19 3 4 -1.</_>
        <_>
          16 21 3 2 2.</_></rects>
      <tilted>0</tilted></_>
    <_>
      <rects>
        <_>
          16 20 4 2 -1.</_>
        <_>
          16 20 2 1 2.</_>
        <_>
          18 21 2 1 2.</_></rects>
      <tilted>0</tilted></_>
    <_>
      <rects>
        <_>
          16 20 5 4 -1.</_>
        <_>
          16 22 5 2 2.</_></rects>
      <tilted>0</tilted></_>
    <_>
      <rects>
        <_>
          17 0 1 6 -1.</_>
        <_>
          17 0 1 3 2.</_></rects>
      <tilted>1</tilted></_>
    <_>
      <rects>
        <_>
          17 0 6 3 -1.</_>
        <_>
          16 1 6 1 3.</_></rects>
      <tilted>1</tilted></_>
    <_>
      <rects>
        <_>
          17 1 6 21 -1.</_>
        <_>
          19 8 2 7 9.</_></rects>
      <tilted>0</tilted></_>
    <_>
      <rects>
        <_>
          17 1 7 2 -1.</_>
        <_>
          17 1 7 1 2.</_></rects>
      <tilted>1</tilted></_>
    <_>
      <rects>
        <_>
          17 7 1 3 -1.</_>
        <_>
          17 8 1 1 3.</_></rects>
      <tilted>0</tilted></_>
    <_>
      <rects>
        <_>
          17 8 1 3 -1.</_>
        <_>
          17 9 1 1 3.</_></rects>
      <tilted>0</tilted></_>
    <_>
      <rects>
        <_>
          17 11 2 12 -1.</_>
        <_>
          17 11 1 6 2.</_>
        <_>
          18 17 1 6 2.</_></rects>
      <tilted>0</tilted></_>
    <_>
      <rects>
        <_>
          17 14 2 4 -1.</_>
        <_>
          17 14 2 2 2.</_></rects>
      <tilted>1</tilted></_>
    <_>
      <rects>
        <_>
          18 0 4 6 -1.</_>
        <_>
          16 2 4 2 3.</_></rects>
      <tilted>1</tilted></_>
    <_>
      <rects>
        <_>
          18 0 6 6 -1.</_>
        <_>
          16 2 6 2 3.</_></rects>
      <tilted>1</tilted></_>
    <_>
      <rects>
        <_>
          18 1 6 4 -1.</_>
        <_>
          17 2 6 2 2.</_></rects>
      <tilted>1</tilted></_>
    <_>
      <rects>
        <_>
          18 15 1 3 -1.</_>
        <_>
          18 16 1 1 3.</_></rects>
      <tilted>0</tilted></_>
    <_>
      <rects>
        <_>
          18 17 6 6 -1.</_>
        <_>
          18 17 3 3 2.</_>
        <_>
          21 20 3 3 2.</_></rects>
      <tilted>0</tilted></_>
    <_>
      <rects>
        <_>
          19 0 5 4 -1.</_>
        <_>
          19 0 5 2 2.</_></rects>
      <tilted>1</tilted></_>
    <_>
      <rects>
        <_>
          19 3 4 1 -1.</_>
        <_>
          21 3 2 1 2.</_></rects>
      <tilted>0</tilted></_>
