<?xml version="1.0"?>
<opencv_storage>
<cascade>
  <stageType>BOOST</stageType>
  <featureType>LBP</featureType>
  <height>24</height>
  <width>24</width>
  <stageParams>
    <boostType>GAB</boostType>
    <minHitRate>9.9500000476837158e-01</minHitRate>
    <maxFalseAlarm>5.0000000000000000e-01</maxFalseAlarm>
    <weightTrimRate>9.4999999999999996e-01</weightTrimRate>
    <maxDepth>1</maxDepth>
    <maxWeakCount>100</maxWeakCount></stageParams>
  <featureParams>
    <maxCatCount>256</maxCatCount>
    <featSize>1</featSize></featureParams>
  <stageNum>15</stageNum>
  <stages>
    <!-- stage 0 -->
    <_>
      <maxWeakCount>4</maxWeakCount>
      <stageThreshold>-1.8857138156890869e+00</stageThreshold>
      <weakClassifiers>
        <_>
          <internalNodes>
            0 -1 18 -939333120 -2165768 -905848972 -1183268 -3150884
            -67403269 -832704548 -5393</internalNodes>
          <leafValues>
            -9.2889559268951416e-01 1.9904567301273346e-01</leafValues></_>
        <_>
          <internalNodes>
            0 -1 4 -1409244528 1054663390 -564896259 -1936394754
            -3146754 -71339014 -11281442 -19932418</internalNodes>
          <leafValues>
            -6.8500429391860962e-01 1.8981565535068512e-01</leafValues></_>
        <_>
          <internalNodes>
            0 -1 62 100706816 -5590378 209772100 -3344542 -70292476
            -30469 -79381556 -270537865</internalNodes>
          <leafValues>
            -7.5105571746826172e-01 2.2818709909915924e-01</leafValues></_>
        <_>
          <internalNodes>
            0 -1 143 -1442403824 -1174757412 521409943 1037423060
            -632459776 -1329611853 -1119552536 463469466</internalNodes>
          <leafValues>
            -5.0000095367431641e-01 2.8536707162857056e-01</leafValues></_></weakClassifiers></_>
    <!-- stage 1 -->
    <_>
      <maxWeakCount>6</maxWeakCount>
      <stageThreshold>-1.8957670927047729e+00</stageThreshold>
      <weakClassifiers>
        <_>
          <internalNodes>
            0 -1 17 -294654175 -1181713 -134770942 -2065 -135397387
            -201328641 -9349 -2049</internalNodes>
          <leafValues>
            -7.0850980281829834e-01 3.3997654914855957e-01</leafValues></_>
        <_>
          <internalNodes>
            0 -1 30 -330307808 -5439490 -293408928 -269549684 -10490420
            -71827459 -4194732 -131082</internalNodes>
          <leafValues>
            -7.2030520439147949e-01 2.7929589152336121e-01</leafValues></_>
        <_>
          <internalNodes>
            0 -1 15 1215111712 -1360101378 -1715896538 -268437532
            -100696656 -134352641 -201755877 -1025</internalNodes>
          <leafValues>
            -5.8013749122619629e-01 3.1947767734527588e-01</leafValues></_>
        <_>
          <internalNodes>
            0 -1 152 -1565907712 42477418 -1633784704 -1563020528
            -2134694076 105213200 1291018688 -1558571884</internalNodes>
          <leafValues>
            -6.6110676527023315e-01 3.0400425195693970e-01</leafValues></_>
        <_>
          <internalNodes>
            0 -1 174 -1432181598 11431396 -871476974 545402880
            -140652980 1362051 -1610553392 -1598908684</internalNodes>
          <leafValues>
            -4.8834368586540222e-01 3.6900284886360168e-01</leafValues></_>
        <_>
          <internalNodes>
            0 -1 119 1309551104 2104409086 -1794856092 -84017410
            -209716412 950479279 -1544449196 -168297502</internalNodes>
          <leafValues>
            -6.8342143297195435e-01 2.6303473114967346e-01</leafValues></_></weakClassifiers></_>
    <!-- stage 2 -->
    <_>
      <maxWeakCount>9</maxWeakCount>
      <stageThreshold>-1.1816033124923706e+00</stageThreshold>
      <weakClassifiers>
        <_>
          <internalNodes>
            0 -1 18 -553726304 -109652002 -430321900 -163890 -469763108
            -74075937 -1147151394 -1025</internalNodes>
          <leafValues>
            -8.3979159593582153e-01 -1.3606685400009155e-01</leafValues></_>
        <_>
          <internalNodes>
            0 -1 20 -835344896 -553656329 -538246138 -1545 -475167
            -1074136642 -4589074 -1073872929</internalNodes>
          <leafValues>
            -4.6789723634719849e-01 2.5938466191291809e-01</leafValues></_>
        <_>
          <internalNodes>
            0 -1 90 -66445300 -494531840 -163178426 -262402928
            -286961599 1880758290 1969624624 -1342039792</internalNodes>
          <leafValues>
            -4.6214303374290466e-01 2.5350883603096008e-01</leafValues></_>
        <_>
          <internalNodes>
            0 -1 28 1716309668 -296821122 1090453084 -823863732
            -562584580 1270712466 -141060 2055060478</internalNodes>
          <leafValues>
            -5.1917684078216553e-01 2.5097686052322388e-01</leafValues></_>
        <_>
          <internalNodes>
            0 -1 118 -111219168 -12391656 -479813648 -7079208 -1317552
            1811481278 -276956656 1933573118</internalNodes>
          <leafValues>
            -5.5343192815780640e-01 1.9815008342266083e-01</leafValues></_>
        <_>
          <internalNodes>
            0 -1 120 -1291713536 -493917688 -801071902 -761538192
            -1365048571 608242234 -2133856032 -698732460</internalNodes>
          <leafValues>
            -4.4536867737770081e-01 2.8191155195236206e-01</leafValues></_>
        <_>
          <internalNodes>
            0 -1 158 138820624 -1932640220 -531329070 307241209 13303872
            84443673 112779953 -1291937384</internalNodes>
          <leafValues>
            -4.8068717122077942e-01 2.2171463072299957e-01</leafValues></_>
        <_>
          <internalNodes>
            0 -1 13 1211034625 -1152501804 -459351562 -840120352
            1977475836 -510197605 -564134948 2120087863</internalNodes>
          <leafValues>
            -5.0244289636611938e-01 2.1061755716800690e-01</leafValues></_>
        <_>
          <internalNodes>
            0 -1 76 -1307268592 -349566720 283321306 -220462759
            -1592584128 592330760 294088768 -147455808</internalNodes>
          <leafValues>
            -4.2689552903175354e-01 2.4286885559558868e-01</leafValues></_></weakClassifiers></_>
    <!-- stage 3 -->
    <_>
      <maxWeakCount>13</maxWeakCount>
      <stageThreshold>-1.4195437431335449e+00</stageThreshold>
      <weakClassifiers>
        <_>
          <internalNodes>
            0 -1 7 -865677656 -286350370 -823329284 -319012130 -2116610
            -68189289 -101729286 -134222881</internalNodes>
          <leafValues>
            -7.6813608407974243e-01 -2.2070166468620300e-01</leafValues></_>
        <_>
          <internalNodes>
            0 -1 43 961624315 185287049 -652668045 2079711603
            -1147145477 -1920236839 -1215187981 1062709649</internalNodes>
          <leafValues>
            -4.2607375979423523e-01 2.2146412730216980e-01</leafValues></_>
        <_>
          <internalNodes>
            0 -1 6 614606336 -2071675924 -1898392066 -570494114
            -70193924 -537530167 -657442 2011659231</internalNodes>
          <leafValues>
            -5.2488750219345093e-01 1.7946733534336090e-01</leafValues></_>
        <_>
          <internalNodes>
            0 -1 96 747111936 1252541322 1385370832 -220252090 680722501
            1117651205 2011210852 -1287758992</internalNodes>
          <leafValues>
            -4.4972193241119385e-01 2.2146520018577576e-01</leafValues></_>
        <_>
          <internalNodes>
            0 -1 224 1945065983 -1076016532 1990412315 -1877001509
            -1842872245 -368305139 1509987311 448318463</internalNodes>
          <leafValues>
            -3.2114306092262268e-01 2.9522415995597839e-01</leafValues></_>
        <_>
          <internalNodes>
            0 -1 184 -1903683572 -963933169 -1049895182 -1300364654
            -1198864056 -1999792106 -24445998 -2102257224</internalNodes>
          <leafValues>
            -3.7139460444450378e-01 2.5499060750007629e-01</leafValues></_>
        <_>
          <internalNodes>
            0 -1 126 1549194272 2097825996 -290288720 -1272908
            -607192076 1153108126 -139599984 1509949342</internalNodes>
          <leafValues>
            -3.9398548007011414e-01 2.3704226315021515e-01</leafValues></_>
        <_>
          <internalNodes>
            0 -1 157 -1461319648 -1463213722 -733229632 -1301812325
            -1042198452 221921568 194684146 -604334916</internalNodes>
          <leafValues>
            -3.7686643004417419e-01 2.4401646852493286e-01</leafValues></_>
        <_>
          <internalNodes>
            0 -1 56 137268737 1070395770 772209950 767595004 2062370704
            -872425415 2062056990 -19285601</internalNodes>
          <leafValues>
            -4.8787167668342590e-01 1.9010996818542480e-01</leafValues></_>
        <_>
          <internalNodes>
            0 -1 200 700973568 -1594609538 810189436 583942733
            -1595098876 1134592130 -1546873947 -2101688324</internalNodes>
          <leafValues>
            -4.4571232795715332e-01 1.9399128854274750e-01</leafValues></_>
        <_>
          <internalNodes>
            0 -1 85 -1516632576 -517451712 877028560 -229895536
            -1701969148 -1563228158 872349956 -1296945116</internalNodes>
          <leafValues>
            -4.4462868571281433e-01 2.1251207590103149e-01</leafValues></_>
        <_>
          <internalNodes>
            0 -1 34 1279584480 1112050926 -131813172 1955915712
            -215969828 2134673148 -618599524 1714338796</internalNodes>
          <leafValues>
            -5.9520292282104492e-01 1.4961698651313782e-01</leafValues></_>
        <_>
          <internalNodes>
            0 -1 78 -1097856986 1845178238 1325299703 -573706503
            -1216465324 91635580 -1308852686 -4569877</internalNodes>
          <leafValues>
            -2.8896924853324890e-01 3.2142415642738342e-01</leafValues></_></weakClassifiers></_>
    <!-- stage 4 -->
    <_>
      <maxWeakCount>13</maxWeakCount>
      <stageThreshold>-1.6156951189041138e+00</stageThreshold>
      <weakClassifiers>
        <_>
          <internalNodes>
            0 -1 29 -435687519 -724066 -44695684 -9667628 -1106394116
            -71410375 -100860932 -287507596</internalNodes>
          <leafValues>
            -7.1221774816513062e-01 -1.8572257459163666e-01</leafValues></_>
        <_>
          <internalNodes>
            0 -1 211 393994235 -1347958135 -170566703 265680177
            -1121060097 -1425363215 -1082469417 2136331733</internalNodes>
          <leafValues>
            -4.0910577774047852e-01 2.2381313145160675e-01</leafValues></_>
        <_>
          <internalNodes>
            0 -1 86 -831468031 -69274690 -337118348 -2166798 -18911716
            -1140852003 -196780 -131849</internalNodes>
          <leafValues>
            -4.6709474921226501e-01 2.1645253896713257e-01</leafValues></_>
        <_>
          <internalNodes>
            0 -1 0 408376575 -167819817 1687376639 -530614817 1016743947
            -435263373 1849227853 135329407</internalNodes>
          <leafValues>
            -3.9802530407905579e-01 2.7005437016487122e-01</leafValues></_>
        <_>
          <internalNodes>
            0 -1 116 202312192 -666992689 2134661492 -203358505 -8553433
            -134349073 2134712030 -1007419413</internalNodes>
          <leafValues>
            -4.2571038007736206e-01 2.3083403706550598e-01</leafValues></_>
        <_>
          <internalNodes>
            0 -1 195 632425776 -17502209 -307896865 -1342545140
            -143188044 -1141146369 2074955772 225586512</internalNodes>
          <leafValues>
            -6.1516624689102173e-01 1.4193853735923767e-01</leafValues></_>
        <_>
          <internalNodes>
            0 -1 130 -572526809 -325091202 -1120600090 -1125656068
            -1141118132 1342081708 -1030518284 -996151554</internalNodes>
          <leafValues>
            -4.0453901886940002e-01 2.0880539715290070e-01</leafValues></_>
        <_>
          <internalNodes>
            0 -1 25 800411997 2046459607 1582265883 1490589933
            1543128584 -619757550 451434864 1209042288</internalNodes>
          <leafValues>
            -4.9141263961791992e-01 1.7197854816913605e-01</leafValues></_>
        <_>
          <internalNodes>
            0 -1 4 1812242984 1795057342 -291698929 -323702748
            -675432454 -55829 -69427538 -465609154</internalNodes>
          <leafValues>
            -4.7378894686698914e-01 1.6570480167865753e-01</leafValues></_>
        <_>
          <internalNodes>
            0 -1 162 -391735143 -433414681 1055713006 -533315852
            -1428095398 -1610612865 -704784385 -529343012</internalNodes>
          <leafValues>
            -2.6069596409797668e-01 3.2189139723777771e-01</leafValues></_>
        <_>
          <internalNodes>
            0 -1 185 -1601238520 42940329 1234477680 550916312
            -2002353400 10920226 -1152731248 -1640875879</internalNodes>
          <leafValues>
            -4.0888589620590210e-01 2.0673045516014099e-01</leafValues></_>
        <_>
          <internalNodes>
            0 -1 222 2128291167 -1627685121 -1359511809 -1703903749
            -1159892373 -1344356610 2046713691 -623317285</internalNodes>
          <leafValues>
            -2.7296301722526550e-01 3.1242370605468750e-01</leafValues></_>
        <_>
          <internalNodes>
            0 -1 43 -1242301569 260041720 -1082157081 1600517491
            -4196421 -1350308135 -1617119257 -614471487</internalNodes>
          <leafValues>
            -2.1420122683048248e-01 3.9484018087387085e-01</leafValues></_></weakClassifiers></_>
    <!-- stage 5 -->
    <_>
      <maxWeakCount>15</maxWeakCount>
      <stageThreshold>-1.6101566553115845e+00</stageThreshold>
      <weakClassifiers>
        <_>
          <internalNodes>
            0 -1 26 -16857439 -12708394 -292618492 -39013900 -558915844
            -382499657 -67846516 -18895947</internalNodes>
          <leafValues>
            -7.4852377176284790e-01 -2.3501616716384888e-01</leafValues></_>
        <_>
          <internalNodes>
            0 -1 170 -83890672 -26348577 -1026979183 -1481184669
            1121381184 -84754225 -53593520 -1815090305</internalNodes>
          <leafValues>
            -3.5832467675209045e-01 2.0967537164688110e-01</leafValues></_>
        <_>
          <internalNodes>
            0 -1 151 178259488 578821960 -622288352 985272608 447258707
            265687371 -1563647248 -1247233604</internalNodes>
          <leafValues>
            -4.5461809635162354e-01 1.7738647758960724e-01</leafValues></_>
        <_>
          <internalNodes>
            0 -1 73 1682336515 -640634569 225921844 1319433072 364210864
            -915174343 1906427984 -1426950317</internalNodes>
          <leafValues>
            -3.4152290225028992e-01 2.4145543575286865e-01</leafValues></_>
        <_>
          <internalNodes>
            0 -1 210 729749791 1056855477 -992347433 1124031485
            -1404547572 2066170894 568220490 1222302671</internalNodes>
          <leafValues>
            -3.8422986865043640e-01 2.2049181163311005e-01</leafValues></_>
        <_>
          <internalNodes>
            0 -1 156 -1364589566 -527551734 -289774700 309113332
            -1696534052 32049179 -2100108108 -1432747544</internalNodes>
          <leafValues>
            -3.4849503636360168e-01 2.2790181636810303e-01</leafValues></_>
        <_>
          <internalNodes>
            0 -1 2 -319904080 175555924 -200899752 -603144052 -2121730
            -63790265 -94447418 1844935006</internalNodes>
          <leafValues>
            -3.7692302465438843e-01 2.0564590394496918e-01</leafValues></_>
        <_>
          <internalNodes>
            0 -1 42 260913563 126214346 -939140271 1059014052
            -1231429729 -2122279278 1940219491 1834145121</internalNodes>
          <leafValues>
            -3.9935314655303955e-01 2.0400355756282806e-01</leafValues></_>
        <_>
          <internalNodes>
            0 -1 109 -2101198300 -320333850 -218740012 2091284720
            -1139100924 1098950657 -216346523 -1073740384</internalNodes>
          <leafValues>
            -4.2849016189575195e-01 1.7906530201435089e-01</leafValues></_>
        <_>
          <internalNodes>
            0 -1 16 -1907973632 -951650346 806996300 -1379018260
            -111543532 -609218310 -78615028 -67574785</internalNodes>
          <leafValues>
            -5.8826643228530884e-01 1.2832309305667877e-01</leafValues></_>
        <_>
          <internalNodes>
            0 -1 182 -1504828792 -1363114272 -39993150 8176256
            -1904555308 247237291 -755043884 -1266126612</internalNodes>
          <leafValues>
            -4.0390464663505554e-01 1.9977213442325592e-01</leafValues></_>
        <_>
          <internalNodes>
            0 -1 81 -1433468123 -158687985 -655976546 1354792149
            -1289207806 -1483148503 -1214061804 -176926124</internalNodes>
          <leafValues>
            -3.3852320909500122e-01 2.4550972878932953e-01</leafValues></_>
        <_>
          <internalNodes>
            0 -1 66 -891371998 -721677926 -289043636 -577948758
            -1985332844 -83361632 967146484 1878910900</internalNodes>
          <leafValues>
            -4.5767182111740112e-01 1.7890143394470215e-01</leafValues></_>
        <_>
          <internalNodes>
            0 -1 180 720249860 -2134113976 -670901784 548696559
            718059532 1668851778 404147333 -1556425796</internalNodes>
          <leafValues>
            -4.3423163890838623e-01 1.8551251292228699e-01</leafValues></_>
        <_>
          <internalNodes>
            0 -1 3 -1909424126 -1530909466 -539863850 -23806262 -1123336
            1508999105 538018510 1623598338</internalNodes>
          <leafValues>
            -5.1373255252838135e-01 1.5403772890567780e-01</leafValues></_></weakClassifiers></_>
    <!-- stage 6 -->
    <_>
      <maxWeakCount>17</maxWeakCount>
      <stageThreshold>-1.3231010437011719e+00</stageThreshold>
      <weakClassifiers>
        <_>
          <internalNodes>
            0 -1 64 2121248291 -544276994 2052500532 1734259938
            -104900044 -1179036945 -389677500 -1141918858</internalNodes>
          <leafValues>
            -7.1757924556732178e-01 -2.6867118477821350e-01</leafValues></_>
        <_>
          <internalNodes>
            0 -1 45 1608348415 -3326473 1985161979 1426001279 2065584724
            -583042532 1482316567 1481700587</internalNodes>
          <leafValues>
            -3.8564288616180420e-01 1.7050088942050934e-01</leafValues></_>
        <_>
          <internalNodes>
            0 -1 40 1783234542 782673918 -592507420 1996404696
            1809447900 1542424923 -236143148 1162142540</internalNodes>
          <leafValues>
            -5.5482298135757446e-01 1.2528976798057556e-01</leafValues></_>
        <_>
          <internalNodes>
            0 -1 187 691481463 142391985 1313040556 553547742
            -2000021210 217890364 -538181675 -2034307171</internalNodes>
          <leafValues>
            -3.1580150127410889e-01 2.4681238830089569e-01</leafValues></_>
        <_>
          <internalNodes>
            0 -1 212 -1649805441 -1351649111 -1861897805 490649045
            -1148268545 -1970684991 -1284377614 2118238420</internalNodes>
          <leafValues>
            -3.0242276191711426e-01 2.4862037599086761e-01</leafValues></_>
        <_>
          <internalNodes>
            0 -1 164 160320544 -1039895712 -164257648 -1562316082
            -1568308148 56902515 -192361296 -2144146276</internalNodes>
          <leafValues>
            -4.0899124741554260e-01 1.9061408936977386e-01</leafValues></_>
        <_>
          <internalNodes>
            0 -1 131 267333383 686441866 973593010 -700431366 838813023
            158089483 938067424 -1887511684</internalNodes>
          <leafValues>
            -3.7484687566757202e-01 1.9489647448062897e-01</leafValues></_>
        <_>
          <internalNodes>
            0 -1 93 -568399357 -40193065 670973764 -296946958 -86131884
            -1171716709 -94308608 -23085072</internalNodes>
          <leafValues>
            -4.1307628154754639e-01 1.9281868636608124e-01</leafValues></_>
        <_>
          <internalNodes>
            0 -1 190 -1362425016 709916878 -422397500 -522495028
            -1446212602 1091070143 -740392473 -1294273848</internalNodes>
          <leafValues>
            -3.4640651941299438e-01 2.2261831164360046e-01</leafValues></_>
        <_>
          <internalNodes>
            0 -1 168 -856752128 818579188 -289155276 -1744582136
            35601680 -85305124 -843087880 188186302</internalNodes>
          <leafValues>
            -4.2951270937919617e-01 1.8034294247627258e-01</leafValues></_>
        <_>
          <internalNodes>
            0 -1 161 -1415033912 -490021909 1951650644 -221211932
            -2034439573 25411726 -265301838 -2100140144</internalNodes>
          <leafValues>
            -3.4790056943893433e-01 2.1261680126190186e-01</leafValues></_>
        <_>
          <internalNodes>
            0 -1 223 96278967 -1478536747 1753514447 1656095990
            1058028105 856113611 1443760795 1249572315</internalNodes>
          <leafValues>
            -3.8157209753990173e-01 1.9940574467182159e-01</leafValues></_>
        <_>
          <internalNodes>
            0 -1 31 -274299516 1961765598 2057242821 1314536156
            -87720027 2140423076 1358778680 1953397886</internalNodes>
          <leafValues>
            -4.1005852818489075e-01 1.8215833604335785e-01</leafValues></_>
        <_>
          <internalNodes>
            0 -1 113 -1494481408 -1467209876 -2108406588 -227668748
            984297812 1091051856 375800192 -144030604</internalNodes>
          <leafValues>
            -4.5671883225440979e-01 1.6324858367443085e-01</leafValues></_>
        <_>
          <internalNodes>
            0 -1 70 1476570017 190753206 -393429218 -913528618
            -1566570084 -21266414 -1195080310 -51926093</internalNodes>
          <leafValues>
            -3.7534955143928528e-01 2.0239976048469543e-01</leafValues></_>
        <_>
          <internalNodes>
            0 -1 211 526114235 -1415165791 1831104962 1282781616
            -1114686481 -276154192 922767731 1578517877</internalNodes>
          <leafValues>
            -4.1110661625862122e-01 1.8157421052455902e-01</leafValues></_>
        <_>
          <internalNodes>
            0 -1 1 -2028894289 1749795066 142666918 116807894 1535722523
            2050179131 -1487993388 -1243621534</internalNodes>
          <leafValues>
            -4.5667633414268494e-01 1.7643579840660095e-01</leafValues></_></weakClassifiers></_>
    <!-- stage 7 -->
    <_>
      <maxWeakCount>19</maxWeakCount>
      <stageThreshold>-1.5201944112777710e+00</stageThreshold>
      <weakClassifiers>
        <_>
          <internalNodes>
            0 -1 122 -583992592 1966162973 382982106 290927729 203807470
            839454635 1375931642 1372792703</internalNodes>
          <leafValues>
            -6.1891114711761475e-01 -1.8731562793254852e-01</leafValues></_>
        <_>
          <internalNodes>
            0 -1 224 938693887 -1073910785 378785419 1120886271
            1419254347 -33006979 1480217262 1249401151</internalNodes>
          <leafValues>
            -4.0205886960029602e-01 1.3177046179771423e-01</leafValues></_>
        <_>
          <internalNodes>
            0 -1 11 201649664 -391220226 1719463030 -320044060 -804868
            -608484942 -1073947826 1457358351</internalNodes>
          <leafValues>
            -6.7184519767761230e-01 8.8750943541526794e-02</leafValues></_>
        <_>
          <internalNodes>
            0 -1 77 -1184430462 -10024023 -738299210 -12763725 637427224
            115343005 821999105 -13939335</internalNodes>
          <leafValues>
            -1.9392529129981995e-01 3.5291746258735657e-01</leafValues></_>
        <_>
          <internalNodes>
            0 -1 52 -1937147053 554652736 894761905 1006465377
            -1759659089 -1448976319 658993669 1062460277</internalNodes>
          <leafValues>
            -3.3656495809555054e-01 1.9874769449234009e-01</leafValues></_>
        <_>
          <internalNodes>
            0 -1 178 -440813792 -380333624 -468282416 713220340
            794272720 -495933226 597085872 134217720</internalNodes>
          <leafValues>
            -3.3722138404846191e-01 2.0453988015651703e-01</leafValues></_>
        <_>
          <internalNodes>
            0 -1 136 -617415508 297121517 251560926 -1752043926
            1926298858 392916943 252927983 -754748353</internalNodes>
          <leafValues>
            -2.2131943702697754e-01 3.2114657759666443e-01</leafValues></_>
        <_>
          <internalNodes>
            0 -1 102 -1976261085 -994925162 -451932380 -1997624630
            1072917028 1793723313 945076544 1411129956</internalNodes>
          <leafValues>
            -5.0039952993392944e-01 1.3325057923793793e-01</leafValues></_>
        <_>
          <internalNodes>
            0 -1 43 288475371 193659688 -1040875247 729096657 -71634206
            176655497 865186675 122708225</internalNodes>
          <leafValues>
            -4.5135879516601562e-01 1.3551954925060272e-01</leafValues></_>
        <_>
          <internalNodes>
            0 -1 138 778243136 649601058 1938544377 1373311710
            1009199140 625652510 1035117021 -606456579</internalNodes>
          <leafValues>
            -2.9315146803855896e-01 2.2570909559726715e-01</leafValues></_>
        <_>
          <internalNodes>
            0 -1 191 764358027 -2037951011 -233815016 281950618
            -1193190317 61475639 189459373 -1896163090</internalNodes>
          <leafValues>
            -2.7334225177764893e-01 2.4488082528114319e-01</leafValues></_>
        <_>
          <internalNodes>
            0 -1 33 -803805024 -52014850 -276988192 -823912122
            1091152880 -1867390829 -24002716 -285442476</internalNodes>
          <leafValues>
            -6.7647629976272583e-01 1.0659766942262650e-01</leafValues></_>
        <_>
          <internalNodes>
            0 -1 204 334976255 -1535619205 -122212681 14090169
            1568664478 -2077327761 479969278 -1989416962</internalNodes>
          <leafValues>
            -2.2257404029369354e-01 3.2422623038291931e-01</leafValues></_>
        <_>
          <internalNodes>
            0 -1 8 203590146 -1396641635 -2082979276 1018354141
            -684985380 -67776269 -221694627 299323441</internalNodes>
          <leafValues>
            -4.9175333976745605e-01 1.4080086350440979e-01</leafValues></_>
        <_>
          <internalNodes>
            0 -1 179 -1363278718 1811935088 -1359202432 1919123121
            -1888655475 -1892189058 767543274 -1814407750</internalNodes>
          <leafValues>
            -2.4988032877445221e-01 2.8933611512184143e-01</leafValues></_>
        <_>
          <internalNodes>
            0 -1 84 -1422507262 -13942926 2080028320 -81826198 771546903
            -429957275 922642096 -134601677</internalNodes>
          <leafValues>
            -2.4685873091220856e-01 2.9110351204872131e-01</leafValues></_>
        <_>
          <internalNodes>
            0 -1 19 1593270079 2046248155 1570063078 -253536809
            -38630901 -1147709414 404369150 1485370287</internalNodes>
          <leafValues>
            -2.8118541836738586e-01 2.5560173392295837e-01</leafValues></_>
        <_>
          <internalNodes>
            0 -1 139 -1577315768 -419150118 -259859264 -636757359
            -107314624 1124206943 -136659661 -2144331344</internalNodes>
          <leafValues>
            -4.0191730856895447e-01 1.8806451559066772e-01</leafValues></_>
        <_>
          <internalNodes>
            0 -1 148 1956758702 1402983560 831918382 2142757484
            -1543840306 1881594948 405440203 -1868857590</internalNodes>
          <leafValues>
            -2.5004622340202332e-01 3.0630543828010559e-01</leafValues></_></weakClassifiers></_>
    <!-- stage 8 -->
    <_>
      <maxWeakCount>19</maxWeakCount>
      <stageThreshold>-1.4318902492523193e+00</stageThreshold>
      <weakClassifiers>
        <_>
          <internalNodes>
            0 -1 213 858650559 -1895315207 -1315881263 192762965
            -1078923277 -1425833343 -1684939814 1598083237</internalNodes>
          <leafValues>
            -6.3131868839263916e-01 -2.4601227045059204e-01</leafValues></_>
        <_>
          <internalNodes>
            0 -1 63 -565391872 -750324810 1849543540 -1077536856
            -1426763812 1496881179 -89327012 -70149337</internalNodes>
          <leafValues>
            -6.0176736116409302e-01 5.1876921206712723e-02</leafValues></_>
        <_>
          <internalNodes>
            0 -1 137 981995264 199033489 -1232359420 1996382330
            316622366 573253967 1623122320 -1074078227</internalNodes>
          <leafValues>
            -2.9148921370506287e-01 2.1622096002101898e-01</leafValues></_>
        <_>
          <internalNodes>
            0 -1 206 714174781 -1416850552 -1492830937 191651621
            -1147160065 -1927099765 841459575 1516770517</internalNodes>
          <leafValues>
            -3.7511765956878662e-01 1.4995822310447693e-01</leafValues></_>
        <_>
          <internalNodes>
            0 -1 123 1542967501 1568111035 867640743 1494217727
            929371384 648746999 1299201631 290132567</internalNodes>
          <leafValues>
            -1.9888307154178619e-01 3.0602043867111206e-01</leafValues></_>
        <_>
          <internalNodes>
            0 -1 160 -2135146556 -1014716207 1716412373 -757544235
            -189539732 -1551147237 1890181316 -2147322696</internalNodes>
          <leafValues>
            -3.1535696983337402e-01 2.0423114299774170e-01</leafValues></_>
        <_>
          <internalNodes>
            0 -1 169 -830496207 -1157955586 2139094896 1002045402
            -944242735 -289476618 -159515172 -2019066053</internalNodes>
          <leafValues>
            -2.2894327342510223e-01 2.6915794610977173e-01</leafValues></_>
        <_>
          <internalNodes>
            0 -1 75 -39557500 -2572812 -369101196 -747574631 662597238
            -814268549 -1770522656 -212200284</internalNodes>
          <leafValues>
            -2.1266874670982361e-01 2.8553596138954163e-01</leafValues></_>
        <_>
          <internalNodes>
            0 -1 220 566642109 -248621921 1815931151 -561380358
            -1291562321 -1433645898 -1361507458 -1903679893</internalNodes>
          <leafValues>
            -2.7176052331924438e-01 2.3254704475402832e-01</leafValues></_>
        <_>
          <internalNodes>
            0 -1 127 1821552928 -652967528 -267568568 1033950172
            -1067979420 44824998 -834011264 261586720</internalNodes>
          <leafValues>
            -4.3988138437271118e-01 1.3595196604728699e-01</leafValues></_>
        <_>
          <internalNodes>
            0 -1 192 620572201 754609652 -67436997 577515261 -35202658
            1233076205 -1881422081 -2052422214</internalNodes>
          <leafValues>
            -2.4437373876571655e-01 2.7639424800872803e-01</leafValues></_>
        <_>
          <internalNodes>
            0 -1 145 -58939384 1400737950 -1383923940 1067749956
            992696836 -249984002 -1428619472 180267912</internalNodes>
          <leafValues>
            -4.9127689003944397e-01 1.3615620136260986e-01</leafValues></_>
        <_>
          <internalNodes>
            0 -1 98 139526176 103694338 -1063433626 -257138251
            2036924992 1180657944 -2098359520 -4579560</internalNodes>
          <leafValues>
            -3.9939725399017334e-01 1.6116943955421448e-01</leafValues></_>
        <_>
          <internalNodes>
            0 -1 207 -74926221 -1345743728 1753776278 409754084
            -1154744865 -635778872 1311684511 1582028117</internalNodes>
          <leafValues>
            -2.6343935728073120e-01 2.5916868448257446e-01</leafValues></_>
        <_>
          <internalNodes>
            0 -1 0 1381326299 -167952157 -2109581573 142465694
            -1447410678 1699236883 1133038319 446218151</internalNodes>
          <leafValues>
            -3.3291983604431152e-01 2.0472647249698639e-01</leafValues></_>
        <_>
          <internalNodes>
            0 -1 80 173408800 -1286016850 -1126758352 -174021274
            2045070132 -97303876 1805940368 2036590811</internalNodes>
          <leafValues>
            -5.9178459644317627e-01 1.0283128172159195e-01</leafValues></_>
        <_>
          <internalNodes>
            0 -1 35 -128728640 -1226174244 -268132570 -321988776
            -1834431860 -114097256 -221717684 -287511714</internalNodes>
          <leafValues>
            -4.2533013224601746e-01 1.5010663866996765e-01</leafValues></_>
        <_>
          <internalNodes>
            0 -1 141 736963135 200236991 1862254384 -84267137
            -1891631354 1324842815 -1480589313 -5292067</internalNodes>
          <leafValues>
            -2.3870785534381866e-01 3.0747756361961365e-01</leafValues></_>
        <_>
          <internalNodes>
            0 -1 68 -1418236127 713951336 1079205027 468140485 405103953
            -1690363838 591947537 458634836</internalNodes>
          <leafValues>
            -4.3503811955451965e-01 1.6759656369686127e-01</leafValues></_></weakClassifiers></_>
    <!-- stage 9 -->
    <_>
      <maxWeakCount>18</maxWeakCount>
      <stageThreshold>-1.2982975244522095e+00</stageThreshold>
      <weakClassifiers>
        <_>
          <internalNodes>
            0 -1 94 -111282202 -720562016 -227969066 -77637125
            -1231444315 253159687 -958480194 -739271349</internalNodes>
          <leafValues>
            -5.6459045410156250e-01 -1.4735186100006104e-01</leafValues></_>
        <_>
          <internalNodes>
            0 -1 9 772057600 148267744 1334269260 -877153826 2027418364
            -2529031 -619595933 989848569</internalNodes>
          <leafValues>
            -4.6707785129547119e-01 7.9049304127693176e-02</leafValues></_>
        <_>
          <internalNodes>
            0 -1 50 -823347612 -562142626 -296445788 1578549246
            -83373484 1343644974 1943859932 2138992222</internalNodes>
          <leafValues>
            -3.4603297710418701e-01 1.6578775644302368e-01</leafValues></_>
        <_>
          <internalNodes>
            0 -1 72 -1107839741 -46489619 -1124078532 2065350638
            -579133611 -58949634 1932356884 -717220556</internalNodes>
          <leafValues>
            -1.9865253567695618e-01 2.8917524218559265e-01</leafValues></_>
        <_>
          <internalNodes>
            0 -1 57 -656469229 -579267589 1848675471 1893530554
            961233504 926636578 1376277075 2678085</internalNodes>
          <leafValues>
            -3.6608627438545227e-01 1.6722600162029266e-01</leafValues></_>
        <_>
          <internalNodes>
            0 -1 48 1084911105 735871730 2117459748 -322110518
            -220013572 -102891463 -618267916 -120542380</internalNodes>
          <leafValues>
            -4.3757110834121704e-01 1.4822907745838165e-01</leafValues></_>
        <_>
          <internalNodes>
            0 -1 214 -1928727041 -1884566560 -916459073 1536454996
            782477307 -1885315159 415889369 167789728</internalNodes>
          <leafValues>
            -2.7599719166755676e-01 2.0833885669708252e-01</leafValues></_>
        <_>
          <internalNodes>
            0 -1 117 1845757440 -120160834 -1924319132 1764171695
            -1044553968 -643292693 -1473024708 2003036845</internalNodes>
          <leafValues>
            -4.8357886075973511e-01 1.3441544771194458e-01</leafValues></_>
        <_>
          <internalNodes>
            0 -1 199 -2039837815 -1565790420 -17078478 549100776
            -1879578978 -1493172354 -1090867557 -1795635763</internalNodes>
          <leafValues>
            -2.2991362214088440e-01 2.8454640507698059e-01</leafValues></_>
        <_>
          <internalNodes>
            0 -1 59 -1985134335 1673395663 -1420071824 -234927414
            820010541 1544601944 885412720 -239709328</internalNodes>
          <leafValues>
            -2.9456040263175964e-01 2.2862295806407928e-01</leafValues></_>
        <_>
          <internalNodes>
            0 -1 115 585043360 61150017 1618723120 1459452501 417076037
            573067620 381876630 -12633095</internalNodes>
          <leafValues>
            -2.8396910429000854e-01 2.2497628629207611e-01</leafValues></_>
        <_>
          <internalNodes>
            0 -1 27 -427514216 1183763172 1084526636 -889408796
            1460962728 988416466 -218866520 1819308364</internalNodes>
          <leafValues>
            -6.5124714374542236e-01 9.7712740302085876e-02</leafValues></_>
        <_>
          <internalNodes>
            0 -1 215 -1431306635 -588776463 1810988959 -293752872
            1855242209 -4982305 -818696196 -17791916</internalNodes>
          <leafValues>
            -2.3461383581161499e-01 2.7437359094619751e-01</leafValues></_>
        <_>
          <internalNodes>
            0 -1 140 1945668600 -919016068 192914346 964643887
            -2018203910 623664975 -478658838 51324479</internalNodes>
          <leafValues>
            -2.6053300499916077e-01 2.7884235978126526e-01</leafValues></_>
        <_>
          <internalNodes>
            0 -1 61 1718453760 1041035740 -61532318 463196505 1775792421
            -84363075 1888253301 905694171</internalNodes>
          <leafValues>
            -4.6287378668785095e-01 1.3571056723594666e-01</leafValues></_>
        <_>
          <internalNodes>
            0 -1 188 -825150659 -1366350650 1350898134 261089393
            -33643843 -1884892525 1578366705 -299339110</internalNodes>
          <leafValues>
            -2.4220353364944458e-01 2.6724097132682800e-01</leafValues></_>
        <_>
          <internalNodes>
            0 -1 101 -339268741 1333751599 -16844801 -134218569
            653749591 784224116 -1217958107 -143968325</internalNodes>
          <leafValues>
            -1.8767438828945160e-01 3.4742313623428345e-01</leafValues></_>
        <_>
          <internalNodes>
            0 -1 114 -331351384 1509187565 2000516104 488050884
            471272354 776145352 1522677707 276262251</internalNodes>
          <leafValues>
            -2.5812059640884399e-01 2.5151538848876953e-01</leafValues></_></weakClassifiers></_>
    <!-- stage 10 -->
    <_>
      <maxWeakCount>21</maxWeakCount>
      <stageThreshold>-1.3841501474380493e+00</stageThreshold>
      <weakClassifiers>
        <_>
          <internalNodes>
            0 -1 38 1069092819 1000014682 -336604325 530505655
            -1681266817 -1080564777 2044392421 -302189099</internalNodes>
          <leafValues>
            -6.1809855699539185e-01 -2.5258862972259521e-01</leafValues></_>
        <_>
          <internalNodes>
            0 -1 21 -164641 -637701960 -21083425 1353611374 1586125316
            2130450474 1779978142 141330057</internalNodes>
          <leafValues>
            -3.2409828901290894e-01 1.3300772011280060e-01</leafValues></_>
        <_>
          <internalNodes>
            0 -1 10 774178305 184221110 -954046498 -386117418 -42863924
            -100745031 2130049820 -789388085</internalNodes>
          <leafValues>
            -3.9059376716613770e-01 1.3162609934806824e-01</leafValues></_>
        <_>
          <internalNodes>
            0 -1 172 -191836420 -395674264 -286147597 842955484
            -29696065 1338015742 872085466 -1600123512</internalNodes>
          <leafValues>
            -2.0680062472820282e-01 2.6973861455917358e-01</leafValues></_>
        <_>
          <internalNodes>
            0 -1 144 1814957584 488153852 -1684068336 262793774
            -1890694384 184213949 1847963248 445565929</internalNodes>
          <leafValues>
            -5.5725008249282837e-01 1.1551129072904587e-01</leafValues></_>
        <_>
          <internalNodes>
            0 -1 167 -169143493 577733056 -646450214 570994766
            -883314212 1686470871 1349358048 -253924797</internalNodes>
          <leafValues>
            -2.6041015982627869e-01 2.1850201487541199e-01</leafValues></_>
        <_>
          <internalNodes>
            0 -1 181 562516235 583950342 -833058204 1257676781 183496267
            1613457949 -343489328 -1078306660</internalNodes>
          <leafValues>
            -3.0134087800979614e-01 1.8177449703216553e-01</leafValues></_>
        <_>
          <internalNodes>
            0 -1 146 -672994099 -667026156 -21107162 737514736
            -1322081000 1065016908 1044163812 -1401733381</internalNodes>
          <leafValues>
            -2.0312313735485077e-01 2.7793607115745544e-01</leafValues></_>
        <_>
          <internalNodes>
            0 -1 42 400390739 797301673 322164051 257773856 -1224623169
            -1898363741 -74878269 2135216252</internalNodes>
          <leafValues>
            -3.2625970244407654e-01 1.7500600218772888e-01</leafValues></_>
        <_>
          <internalNodes>
            0 -1 83 -134888917 -19669116 -16897436 -236051404
            -1083288320 -305201323 -335547104 -251635827</internalNodes>
          <leafValues>
            -2.0479381084442139e-01 2.7591538429260254e-01</leafValues></_>
        <_>
          <internalNodes>
            0 -1 69 -1610675085 -859426657 357647886 -1471221538
            2052719108 1465981295 446305073 5374164</internalNodes>
          <leafValues>
            -4.6345037221908569e-01 1.2385950982570648e-01</leafValues></_>
        <_>
          <internalNodes>
            0 -1 121 -634191992 1514493352 -50583459 1535606641
            -185241628 -976367753 1804351482 -2023523221</internalNodes>
          <leafValues>
            -2.2228658199310303e-01 2.6566216349601746e-01</leafValues></_>
        <_>
          <internalNodes>
            0 -1 197 5377600 2062220970 -1384074980 -1851992488
            826658048 -1359754723 -271628108 -2135815376</internalNodes>
          <leafValues>
            -4.2799010872840881e-01 1.3592052459716797e-01</leafValues></_>
        <_>
          <internalNodes>
            0 -1 112 -2040027349 -1664566235 188661711 -876414046
            -269275246 687568629 -2029664631 -86805882</internalNodes>
          <leafValues>
            -2.2920744121074677e-01 2.5552359223365784e-01</leafValues></_>
        <_>
          <internalNodes>
            0 -1 205 268121211 -1890774819 160022887 1659257477
            -639413733 -1845327206 130206316 13164411</internalNodes>
          <leafValues>
            -3.7078520655632019e-01 1.6295360028743744e-01</leafValues></_>
        <_>
          <internalNodes>
            0 -1 186 -2059267648 740632952 -86508670 1613976215
            -1630011826 624265223 -1803276361 -2044813383</internalNodes>
          <leafValues>
            -3.2328882813453674e-01 1.8095497786998749e-01</leafValues></_>
        <_>
          <internalNodes>
            0 -1 111 -67505928 1598914026 779857343 896995054 259246043
            1450072831 1042761628 -535989658</internalNodes>
          <leafValues>
            -2.0529568195343018e-01 3.0026510357856750e-01</leafValues></_>
        <_>
          <internalNodes>
            0 -1 100 184314200 1647138379 -171961230 920445558
            -2132799676 557001012 427155488 -1492225000</internalNodes>
          <leafValues>
            -3.8996350765228271e-01 1.5876449644565582e-01</leafValues></_>
        <_>
          <internalNodes>
            0 -1 198 -20759788 -749827362 -448605464 -100623525
            1269106864 1860429440 969586976 263258096</internalNodes>
          <leafValues>
            -4.1675430536270142e-01 1.4230126142501831e-01</leafValues></_>
        <_>
          <internalNodes>
            0 -1 202 137568796 -1518483729 -50348681 683436031
            -1405939809 788291446 -1342212421 -1710490193</internalNodes>
          <leafValues>
            -2.2509936988353729e-01 2.8805041313171387e-01</leafValues></_>
        <_>
          <internalNodes>
            0 -1 37 -804924736 -1073679434 1489177088 2127855492
            -745637580 410689719 -1160331420 502676294</internalNodes>
          <leafValues>
            -5.8012562990188599e-01 1.1015104502439499e-01</leafValues></_></weakClassifiers></_>
    <!-- stage 11 -->
    <_>
      <maxWeakCount>20</maxWeakCount>
      <stageThreshold>-1.2813767194747925e+00</stageThreshold>
      <weakClassifiers>
        <_>
          <internalNodes>
            0 -1 44 -1913126919 -1915751137 -1802123271 1335233258
            -1345601729 -811971930 -768937246 -134313</internalNodes>
          <leafValues>
            -5.9323602914810181e-01 -2.0867209136486053e-01</leafValues></_>
        <_>
          <internalNodes>
            0 -1 194 537797743 202523103 -659959698 7900348 -1434244540
            118713923 953383494 1381688575</internalNodes>
          <leafValues>
            -4.3688419461250305e-01 7.2609752416610718e-02</leafValues></_>
        <_>
          <internalNodes>
            0 -1 97 1644229216 -606563872 -825700556 801819928
            -901801008 230416872 1105002308 99481168</internalNodes>
          <leafValues>
            -4.6534818410873413e-01 1.0256421566009521e-01</leafValues></_>
        <_>
          <internalNodes>
            0 -1 166 90768936 674121506 -887700726 317079752 681466624
            792276646 320696052 819619820</internalNodes>
          <leafValues>
            -4.7740569710731506e-01 1.1903210729360580e-01</leafValues></_>
        <_>
          <internalNodes>
            0 -1 210 1775524091 -1279306714 1557303535 1389048797
            -121614770 2074101947 540470987 1347739021</internalNodes>
          <leafValues>
            -2.7849787473678589e-01 2.0844268798828125e-01</leafValues></_>
        <_>
          <internalNodes>
            0 -1 41 134946815 254345233 298799765 1047513312 -1417054981
            -1691666126 -245759040 488927285</internalNodes>
          <leafValues>
            -3.6615914106369019e-01 1.4307287335395813e-01</leafValues></_>
        <_>
          <internalNodes>
            0 -1 124 -773268006 -181721672 -94402 1069544817 1587817392
            129818477 -184589734 -1884078046</internalNodes>
          <leafValues>
            -2.0933485031127930e-01 2.6380535960197449e-01</leafValues></_>
        <_>
          <internalNodes>
            0 -1 55 73531937 -1466552073 -1506201802 -472591389
            2067748004 -89128806 -203040264 2079324859</internalNodes>
          <leafValues>
            -3.7329909205436707e-01 1.4703956246376038e-01</leafValues></_>
        <_>
          <internalNodes>
            0 -1 110 -56565813 -312029854 1610510186 -226628106
            -1486619052 1618476020 -1209666256 -751641499</internalNodes>
          <leafValues>
            -2.2509731352329254e-01 2.6036387681961060e-01</leafValues></_>
        <_>
          <internalNodes>
            0 -1 135 -1363792856 1716858843 -1069435804 -234558796
            919028527 611435051 -1196957500 -1594736356</internalNodes>
          <leafValues>
            -3.4969580173492432e-01 1.5711896121501923e-01</leafValues></_>
        <_>
          <internalNodes>
            0 -1 91 -666919111 486161431 1574149396 1300347396
            2147339824 -1422057293 1054686752 -1864682558</internalNodes>
          <leafValues>
            -2.3732031881809235e-01 2.3827561736106873e-01</leafValues></_>
        <_>
          <internalNodes>
            0 -1 36 -1004653020 309243416 -167210700 1281787510
            -364684028 897525043 1902910836 -311153030</internalNodes>
          <leafValues>
            -3.5969296097755432e-01 1.5119193494319916e-01</leafValues></_>
        <_>
          <internalNodes>
            0 -1 60 992827583 -1375301151 1964272896 2002612893
            717957393 264852008 926410503 893648700</internalNodes>
          <leafValues>
            -3.1383880972862244e-01 1.7873793840408325e-01</leafValues></_>
        <_>
          <internalNodes>
            0 -1 65 -1920414165 -407551568 -1340498214 -77875082
            -599424987 1204393944 722694497 -214403840</internalNodes>
          <leafValues>
            -2.5473248958587646e-01 2.3034085333347321e-01</leafValues></_>
        <_>
          <internalNodes>
            0 -1 208 1783328521 43161852 2082923857 143033886
            -1545733302 -1366785599 908311476 -2038106668</internalNodes>
          <leafValues>
            -3.1523913145065308e-01 1.7613369226455688e-01</leafValues></_>
        <_>
          <internalNodes>
            0 -1 171 -89609440 -582421857 -1521498484 -1088347642
            1679523584 -487421842 -25822412 83460010</internalNodes>
          <leafValues>
            -3.7027031183242798e-01 1.5600787103176117e-01</leafValues></_>
        <_>
          <internalNodes>
            0 -1 132 -1179381760 -517454056 -392047584 -798314403
            -56978508 709808232 -760548425 -1328391972</internalNodes>
          <leafValues>
            -2.8303277492523193e-01 2.0212781429290771e-01</leafValues></_>
        <_>
          <internalNodes>
            0 -1 165 92447746 -2030167987 -2041408238 -97827852
            846394120 590954094 -1765605386 -1677770836</internalNodes>
          <leafValues>
            -2.7576890587806702e-01 2.1668396890163422e-01</leafValues></_>
        <_>
          <internalNodes>
            0 -1 134 1525123132 -1126768476 1096583690 199940237
            1275166080 947940598 -632245331 -2045549489</internalNodes>
          <leafValues>
            -2.8555387258529663e-01 2.1049937605857849e-01</leafValues></_>
        <_>
          <internalNodes>
            0 -1 209 193668907 -1499872574 956751281 775458297
            -807787918 -1956167029 -1905017963 -2109830149</internalNodes>
          <leafValues>
            -2.8808748722076416e-01 2.1473149955272675e-01</leafValues></_></weakClassifiers></_>
    <!-- stage 12 -->
    <_>
      <maxWeakCount>21</maxWeakCount>
      <stageThreshold>-1.2510451078414917e+00</stageThreshold>
      <weakClassifiers>
        <_>
          <internalNodes>
            0 -1 203 -4195105 -1885740096 1636522335 752219257
            -1288111201 46375832 2030269911 1561445845</internalNodes>
          <leafValues>
            -6.1390173435211182e-01 -2.6080200076103210e-01</leafValues></_>
        <_>
          <internalNodes>
            0 -1 221 577312317 643762415 415951819 673725146 139988078
            -1915064231 1586056089 210296831</internalNodes>
          <leafValues>
            -3.9564540982246399e-01 1.0097215324640274e-01</leafValues></_>
        <_>
          <internalNodes>
            0 -1 58 1655489025 -297752866 -1359540892 -956515632
            -227175644 1475638204 -67322220 2127361748</internalNodes>
          <leafValues>
            -4.4990786910057068e-01 1.0799092799425125e-01</leafValues></_>
        <_>
          <internalNodes>
            0 -1 149 1883811588 -2139033000 228047540 523115148
            1106176000 1290897591 999194368 97124100</internalNodes>
          <leafValues>
            -5.2241832017898560e-01 1.1651715636253357e-01</leafValues></_>
        <_>
          <internalNodes>
            0 -1 201 548145450 787640318 -697651605 40533884 -2013808245
            90005363 -1107317526 -1903247361</internalNodes>
          <leafValues>
            -2.2508044540882111e-01 2.4450877308845520e-01</leafValues></_>
        <_>
          <internalNodes>
            0 -1 45 368177663 2145196511 1343300191 1457068287
            -348628897 -1456262050 426398223 1291744251</internalNodes>
          <leafValues>
            -2.4824228882789612e-01 2.0739166438579559e-01</leafValues></_>
        <_>
          <internalNodes>
            0 -1 108 182720102 161444703 2126868828 402574746 1060178292
            208739111 47161941 -2216777</internalNodes>
          <leafValues>
            -2.5002416968345642e-01 2.1299791336059570e-01</leafValues></_>
        <_>
          <internalNodes>
            0 -1 173 -2001205143 -924785314 -1249714554 175820876
            -1240744496 -763631587 -1310017806 -1338195044</internalNodes>
          <leafValues>
            -2.7507391571998596e-01 1.9268770515918732e-01</leafValues></_>
        <_>
          <internalNodes>
            0 -1 88 1278103040 -1083397194 168021828 -1134786124
            2064472592 179931313 -229837308 -1148051024</internalNodes>
          <leafValues>
            -7.6390546560287476e-01 6.8606995046138763e-02</leafValues></_>
        <_>
          <internalNodes>
            0 -1 32 -833640892 1854134522 1928645149 -960454042
            -890823472 1328243498 2129219720 928335990</internalNodes>
          <leafValues>
            -4.2011359333992004e-01 1.2269855290651321e-01</leafValues></_>
        <_>
          <internalNodes>
            0 -1 177 -1559941206 1612192116 -1231226182 -1174029192
            -1109866131 631416884 -1164786546 -1011142503</internalNodes>
          <leafValues>
            -2.5062337517738342e-01 2.2445829212665558e-01</leafValues></_>
        <_>
          <internalNodes>
            0 -1 103 -115287154 2100155424 -877481582 1975753178
            727770499 1429614773 -849131048 -1692989613</internalNodes>
          <leafValues>
            -2.1921993792057037e-01 2.6206406950950623e-01</leafValues></_>
        <_>
          <internalNodes>
            0 -1 211 467230651 797294723 -1006051893 1565909255
            -1188310533 -2088066655 63410611 2135278960</internalNodes>
          <leafValues>
            -3.1009048223495483e-01 1.8893648684024811e-01</leafValues></_>
        <_>
          <internalNodes>
            0 -1 218 -1364689547 -237055153 -2134833978 -1345320983
            -1551192187 -1735686673 -556893251 3207824</internalNodes>
          <leafValues>
            -4.2466047406196594e-01 1.3598528504371643e-01</leafValues></_>
        <_>
          <internalNodes>
            0 -1 147 -169245958 1475201716 1849514806 1777178634
            -818038566 -550961406 -315905073 -714914117</internalNodes>
          <leafValues>
            -1.9142617285251617e-01 2.9914465546607971e-01</leafValues></_>
        <_>
          <internalNodes>
            0 -1 23 -1431533056 138207300 2097958204 536224996
            -272119874 -1212724835 1326008560 1145455135</internalNodes>
          <leafValues>
            -4.2252260446548462e-01 1.3558775186538696e-01</leafValues></_>
        <_>
          <internalNodes>
            0 -1 49 167525680 368388676 -171733665 2120903873 839873877
            -40969698 2072056640 -112324084</internalNodes>
          <leafValues>
            -3.4598070383071899e-01 1.6947306692600250e-01</leafValues></_>
        <_>
          <internalNodes>
            0 -1 87 -1213864375 -192532313 -595421218 -623446531
            -371026574 -215352981 1882632196 -441429744</internalNodes>
          <leafValues>
            -2.3733954131603241e-01 2.4749988317489624e-01</leafValues></_>
        <_>
          <internalNodes>
            0 -1 74 1332735415 -710396481 242560858 -343368080 259569245
            -753873 -86134900 -2030049364</internalNodes>
          <leafValues>
            -2.0691902935504913e-01 2.9044890403747559e-01</leafValues></_>
        <_>
          <internalNodes>
            0 -1 219 59769361 24262364 356978591 -1470344226 974747925
            260688622 214562741 161516124</internalNodes>
          <leafValues>
            -4.9619069695472717e-01 1.2363463640213013e-01</leafValues></_>
        <_>
          <internalNodes>
            0 -1 47 534075421 -625650217 1805624637 1557033782 945029640
            -603767270 1208877860 1209062021</internalNodes>
          <leafValues>
            -3.9778095483779907e-01 1.4605477452278137e-01</leafValues></_></weakClassifiers></_>
    <!-- stage 13 -->
    <_>
      <maxWeakCount>22</maxWeakCount>
      <stageThreshold>-1.3613793849945068e+00</stageThreshold>
      <weakClassifiers>
        <_>
          <internalNodes>
            0 -1 14 -375862993 -641657355 672739679 -6991471 1921571327
            -1182236225 1502122683 -135187733</internalNodes>
          <leafValues>
            -5.5182397365570068e-01 -1.4019778370857239e-01</leafValues></_>
        <_>
          <internalNodes>
            0 -1 224 1428051005 -1076234804 1623027215 1624200283
            -698875381 -78812631 1210604077 36763869</internalNodes>
          <leafValues>
            -4.0916007757186890e-01 8.5365578532218933e-02</leafValues></_>
        <_>
          <internalNodes>
            0 -1 175 -325432112 -824037020 1209962464 1115487738
            -1656976996 -2079472322 -1186029130 -761654792</internalNodes>
          <leafValues>
            -2.4481877684593201e-01 1.9621726870536804e-01</leafValues></_>
        <_>
          <internalNodes>
            0 -1 163 -1395769336 -210620810 -527312860 -665239089
            -1647738548 1540085765 283824880 -1234280996</internalNodes>
          <leafValues>
            -2.3860032856464386e-01 2.2272311151027679e-01</leafValues></_>
        <_>
          <internalNodes>
            0 -1 53 1023859673 -1355082792 50853222 89108562 831912546
            196081753 864277013 528339317</internalNodes>
          <leafValues>
            -3.3328977227210999e-01 1.5550866723060608e-01</leafValues></_>
        <_>
          <internalNodes>
            0 -1 133 1478861888 1979456768 1387716972 1425666287
            1178905594 1856755538 689194206 -1868089601</internalNodes>
          <leafValues>
            -2.3449620604515076e-01 2.2304789721965790e-01</leafValues></_>
        <_>
          <internalNodes>
            0 -1 82 1311565825 -1519479882 -348689124 1204599270
            -413514992 -1959837639 541354512 1583111120</internalNodes>
          <leafValues>
            -4.7058078646659851e-01 1.0337518155574799e-01</leafValues></_>
        <_>
          <internalNodes>
            0 -1 95 -1390401968 2007350904 1645659086 1901718693
            2094206707 1557124940 -1527896837 -1843429025</internalNodes>
          <leafValues>
            -2.0789630711078644e-01 2.4385647475719452e-01</leafValues></_>
        <_>
          <internalNodes>
            0 -1 183 -1576328694 642447758 190169248 549739800
            -1179592694 255839200 213563056 7904664</internalNodes>
          <leafValues>
            -4.7292029857635498e-01 1.1073609441518784e-01</leafValues></_>
        <_>
          <internalNodes>
            0 -1 99 933383616 778896072 -57589484 1047010811 857934420
            8079388 2070217828 -678541980</internalNodes>
          <leafValues>
            -3.8309705257415771e-01 1.3308320939540863e-01</leafValues></_>
        <_>
          <internalNodes>
            0 -1 217 181296981 1863103326 -1869352626 1214570611
            243743089 -123821907 201308304 -1610548720</internalNodes>
          <leafValues>
            -3.9419615268707275e-01 1.3135705888271332e-01</leafValues></_>
        <_>
          <internalNodes>
            0 -1 155 -228014436 -239409248 -1888865603 41376984
            -1652369964 1682828790 702865311 -1852371649</internalNodes>
          <leafValues>
            -2.1272924542427063e-01 2.5896978378295898e-01</leafValues></_>
        <_>
          <internalNodes>
            0 -1 39 -616064794 1544553950 -598207010 1618399694
            1682537452 1530208516 1594785788 524247814</internalNodes>
          <leafValues>
            -3.4129983186721802e-01 1.6560076177120209e-01</leafValues></_>
        <_>
          <internalNodes>
            0 -1 67 68908811 -1515489152 -2080303037 893666070
            1225417493 -2122314997 1630625792 1063156417</internalNodes>
          <leafValues>
            -3.6708316206932068e-01 1.4948299527168274e-01</leafValues></_>
        <_>
          <internalNodes>
            0 -1 128 43516192 46487400 -167329566 1893101780 501879873
            1804168022 819606804 -1761210056</internalNodes>
          <leafValues>
            -4.3284207582473755e-01 1.2326302379369736e-01</leafValues></_>
        <_>
          <internalNodes>
            0 -1 154 841973387 795832106 922745582 -792905873 1061141710
            780104700 1040185051 -335581442</internalNodes>
          <leafValues>
            -1.8331363797187805e-01 3.0265423655509949e-01</leafValues></_>
        <_>
          <internalNodes>
            0 -1 12 168567296 741662150 -938119702 198006239 -215371436
            -1818746488 1943042591 2069588619</internalNodes>
          <leafValues>
            -5.9890037775039673e-01 9.1582886874675751e-02</leafValues></_>
        <_>
          <internalNodes>
            0 -1 89 -705692973 -3377153 -268437969 -205803922
            -1619554988 920026951 2010626000 -142248940</internalNodes>
          <leafValues>
            -1.6097821295261383e-01 3.6568185687065125e-01</leafValues></_>
        <_>
          <internalNodes>
            0 -1 176 -850674107 1878916989 -1686876532 803536888
            -281559577 -1392575202 2117909672 -1344012405</internalNodes>
          <leafValues>
            -1.7455849051475525e-01 3.3803695440292358e-01</leafValues></_>
        <_>
          <internalNodes>
            0 -1 46 1749134887 -1497001634 68806722 -460324638
            1470969971 1522049082 935424245 -265035467</internalNodes>
          <leafValues>
            -4.7026678919792175e-01 1.2015892565250397e-01</leafValues></_>
        <_>
          <internalNodes>
            0 -1 196 1240969013 574013438 -268828716 1912569817
            -1212949604 -1410072665 -203453795 -763610239</internalNodes>
          <leafValues>
            -2.1006613969802856e-01 2.7361896634101868e-01</leafValues></_>
        <_>
          <internalNodes>
            0 -1 106 794567172 1193696208 475272690 1533922149 43788549
            553791384 1990406384 -1755159264</internalNodes>
          <leafValues>
            -3.4531953930854797e-01 1.6937007009983063e-01</leafValues></_></weakClassifiers></_>
    <!-- stage 14 -->
    <_>
      <maxWeakCount>22</maxWeakCount>
      <stageThreshold>-1.2880759239196777e+00</stageThreshold>
      <weakClassifiers>
        <_>
          <internalNodes>
            0 -1 193 794792287 677294295 534103447 -1730235815
            -1972458547 -1895862757 -1888486465 -1897145925</internalNodes>
          <leafValues>
            -5.5692815780639648e-01 -1.9334311783313751e-01</leafValues></_>
        <_>
          <internalNodes>
            0 -1 129 -195559632 -562896532 1266931176 994466736
            1212115460 213877181 1643891732 635173580</internalNodes>
          <leafValues>
            -4.1439300775527954e-01 8.3071857690811157e-02</leafValues></_>
        <_>
          <internalNodes>
            0 -1 24 243662848 -1943632248 1141244862 -1562086858
            1792793532 -6247053 2068609932 1633854041</internalNodes>
          <leafValues>
            -6.3529187440872192e-01 6.7637234926223755e-02</leafValues></_>
        <_>
          <internalNodes>
            0 -1 92 -79759710 -582594412 -578563872 -221554366 362700580
            -1988128512 1322915700 -1222637136</internalNodes>
          <leafValues>
            -2.1254236996173859e-01 2.5612598657608032e-01</leafValues></_>
        <_>
          <internalNodes>
            0 -1 54 -1789047885 -34204451 -1207053369 1254899614
            500854874 -80671714 178142005 138430807</internalNodes>
          <leafValues>
            -3.6277174949645996e-01 1.2351054698228836e-01</leafValues></_>
        <_>
          <internalNodes>
            0 -1 71 -1863319757 -311553 1610597983 2073779707
            -1678268592 1333755772 843052789 -1060060112</internalNodes>
          <leafValues>
            -1.7412777245044708e-01 2.7877992391586304e-01</leafValues></_>
        <_>
          <internalNodes>
            0 -1 189 -423687964 -1026528374 1431523520 578730914
            -1869022578 178178696 548466926 -961265160</internalNodes>
          <leafValues>
            -2.3316855728626251e-01 2.0808391273021698e-01</leafValues></_>
        <_>
          <internalNodes>
            0 -1 5 -1473762782 -389283050 -1508839539 788945743
            1978757371 2141963248 -1264558625 1380807439</internalNodes>
          <leafValues>
            -3.4661561250686646e-01 1.5439993143081665e-01</leafValues></_>
        <_>
          <internalNodes>
            0 -1 216 -1415908897 -339557175 -2119975585 1180335089
            -610030599 -830404485 -221383237 1557156324</internalNodes>
          <leafValues>
            -2.2601681947708130e-01 2.1893194317817688e-01</leafValues></_>
        <_>
          <internalNodes>
            0 -1 142 1187778048 287303587 -1788819920 554419113
            2018024198 1409123066 -1603696128 1014187</internalNodes>
          <leafValues>
            -4.5691040158271790e-01 1.1768938601016998e-01</leafValues></_>
        <_>
          <internalNodes>
            0 -1 150 1811533208 859631173 -1754887528 -1614584344
            -1754097717 780464087 1042004078 153711355</internalNodes>
          <leafValues>
            -2.1766930818557739e-01 2.3456765711307526e-01</leafValues></_>
        <_>
          <internalNodes>
            0 -1 79 1211376640 -2016880266 -899856068 -929235992
            1246380284 674431752 -1379116724 -1227439312</internalNodes>
          <leafValues>
            -6.0627621412277222e-01 8.3004243671894073e-02</leafValues></_>
        <_>
          <internalNodes>
            0 -1 107 1019674658 1170355052 -996769196 -1212157067
            -1429611744 1664690759 926843716 -1795443480</internalNodes>
          <leafValues>
            -2.7782124280929565e-01 1.8083962798118591e-01</leafValues></_>
        <_>
          <internalNodes>
            0 -1 159 -1427792058 173836946 -281896476 572446911
            -103748275 -643571290 2039571684 -789888102</internalNodes>
          <leafValues>
            -3.0507427453994751e-01 1.6890531778335571e-01</leafValues></_>
        <_>
          <internalNodes>
            0 -1 105 1163046632 -1797758241 143878956 -106968583
            1449403008 1077578747 927824536 -1079127986</internalNodes>
          <leafValues>
            -2.2469522058963776e-01 2.3183879256248474e-01</leafValues></_>
        <_>
          <internalNodes>
            0 -1 19 -814195713 1587299579 1718740686 -396535713
            1490951695 -1152249644 1476840375 1217980637</internalNodes>
          <leafValues>
            -2.9527217149734497e-01 1.8001832067966461e-01</leafValues></_>
        <_>
          <internalNodes>
            0 -1 125 -255736664 -240264536 411577627 224646076
            2027977144 2789402 -2096607746 -1474669449</internalNodes>
          <leafValues>
            -2.4700325727462769e-01 2.1674852073192596e-01</leafValues></_>
        <_>
          <internalNodes>
            0 -1 22 -1891462390 1647950743 -1802378723 -572216405
            -682248300 -1078649025 1707458824 -868171723</internalNodes>
          <leafValues>
            -2.5741621851921082e-01 2.0769183337688446e-01</leafValues></_>
        <_>
          <internalNodes>
            0 -1 153 -1494471603 653987439 -554697498 289292004
            -1487742994 242904694 -268634133 -536871201</internalNodes>
          <leafValues>
            -1.7245189845561981e-01 3.2619193196296692e-01</leafValues></_>
        <_>
          <internalNodes>
            0 -1 51 -1067072926 1483640968 345554400 470743006
            -1207072268 -1181046747 -1061885068 920976324</internalNodes>
          <leafValues>
            -5.3023344278335571e-01 1.0944169759750366e-01</leafValues></_>
        <_>
          <internalNodes>
            0 -1 212 858880893 667906240 -547749438 121114640
            -1862105613 -2070699581 923030132 474350725</internalNodes>
          <leafValues>
            -4.3474557995796204e-01 1.2685619294643402e-01</leafValues></_>
        <_>
          <internalNodes>
            0 -1 104 1284427299 284702683 755607980 -1982733828
            2111261364 156813816 2053968988 -1756008094</internalNodes>
          <leafValues>
            -2.9717415571212769e-01 2.0270617306232452e-01</leafValues></_></weakClassifiers></_></stages>
  <features>
    <_>
      <rect>
        0 0 1 1</rect></_>
    <_>
      <rect>
        0 0 3 1</rect></_>
    <_>
      <rect>
        0 0 3 8</rect></_>
    <_>
      <rect>
        0 0 4 4</rect></_>
    <_>
      <rect>
        0 0 4 8</rect></_>
    <_>
      <rect>
        0 0 5 2</rect></_>
    <_>
      <rect>
        0 0 5 5</rect></_>
    <_>
      <rect>
        0 0 5 8</rect></_>
    <_>
      <rect>
        0 0 6 3</rect></_>
    <_>
      <rect>
        0 0 6 4</rect></_>
    <_>
      <rect>
        0 0 6 6</rect></_>
    <_>
      <rect>
        0 0 6 8</rect></_>
    <_>
      <rect>
        0 0 7 4</rect></_>
    <_>
      <rect>
        0 0 7 8</rect></_>
    <_>
      <rect>
        0 0 8 1</rect></_>
    <_>
      <rect>
        0 0 8 4</rect></_>
    <_>
      <rect>
        0 0 8 5</rect></_>
    <_>
      <rect>
        0 0 8 6</rect></_>
    <_>
      <rect>
        0 0 8 8</rect></_>
    <_>
      <rect>
        0 1 1 1</rect></_>
    <_>
      <rect>
        0 1 8 3</rect></_>
    <_>
      <rect>
        0 2 1 1</rect></_>
    <_>
      <rect>
        0 2 2 3</rect></_>
    <_>
      <rect>
        0 2 3 4</rect></_>
    <_>
      <rect>
        0 2 5 5</rect></_>
    <_>
      <rect>
        0 3 1 1</rect></_>
    <_>
      <rect>
        0 3 8 7</rect></_>
    <_>
      <rect>
        0 6 4 6</rect></_>
    <_>
      <rect>
        0 6 5 6</rect></_>
    <_>
      <rect>
        0 6 7 6</rect></_>
    <_>
      <rect>
        0 6 8 6</rect></_>
    <_>
      <rect>
        0 9 3 5</rect></_>
    <_>
      <rect>
        0 9 4 3</rect></_>
    <_>
      <rect>
        0 9 8 5</rect></_>
    <_>
      <rect>
        0 12 5 4</rect></_>
    <_>
      <rect>
        0 12 7 4</rect></_>
    <_>
      <rect>
        0 15 3 3</rect></_>
    <_>
      <rect>
        0 15 8 3</rect></_>
    <_>
      <rect>
        0 16 1 2</rect></_>
    <_>
      <rect>
        0 18 6 2</rect></_>
    <_>
      <rect>
        0 18 8 2</rect></_>
    <_>
      <rect>
        0 19 1 1</rect></_>
    <_>
      <rect>
        0 20 1 1</rect></_>
    <_>
      <rect>
        0 21 1 1</rect></_>
    <_>
      <rect>
        0 21 2 1</rect></_>
    <_>
      <rect>
        1 0 1 1</rect></_>
    <_>
      <rect>
        1 0 4 1</rect></_>
    <_>
      <rect>
        1 2 1 1</rect></_>
    <_>
      <rect>
        1 3 6 7</rect></_>
    <_>
      <rect>
        1 11 1 2</rect></_>
    <_>
      <rect>
        1 15 4 3</rect></_>
    <_>
      <rect>
        1 15 6 3</rect></_>
    <_>
      <rect>
        1 20 1 1</rect></_>
    <_>
      <rect>
        1 21 1 1</rect></_>
    <_>
      <rect>
        2 0 1 1</rect></_>
    <_>
      <rect>
        2 0 6 5</rect></_>
    <_>
      <rect>
        2 0 6 7</rect></_>
    <_>
      <rect>
        2 1 1 1</rect></_>
    <_>
      <rect>
        2 9 5 5</rect></_>
    <_>
      <rect>
        2 10 1 1</rect></_>
    <_>
      <rect>
        2 21 1 1</rect></_>
    <_>
      <rect>
        3 0 7 2</rect></_>
    <_>
      <rect>
        3 0 7 7</rect></_>
    <_>
      <rect>
        3 0 7 8</rect></_>
    <_>
      <rect>
        3 3 7 5</rect></_>
    <_>
      <rect>
        3 5 1 1</rect></_>
    <_>
      <rect>
        3 9 7 5</rect></_>
    <_>
      <rect>
        3 20 1 1</rect></_>
    <_>
      <rect>
        3 21 1 1</rect></_>
    <_>
      <rect>
        4 0 1 1</rect></_>
    <_>
      <rect>
        4 0 5 8</rect></_>
    <_>
      <rect>
        4 2 1 1</rect></_>
    <_>
      <rect>
        4 3 1 1</rect></_>
    <_>
      <rect>
        4 3 5 5</rect></_>
    <_>
      <rect>
        4 4 4 4</rect></_>
    <_>
      <rect>
        4 8 1 1</rect></_>
    <_>
      <rect>
        4 11 1 1</rect></_>
    <_>
      <rect>
        4 13 1 1</rect></_>
    <_>
      <rect>
        4 17 1 1</rect></_>
    <_>
      <rect>
        5 0 4 8</rect></_>
    <_>
      <rect>
        5 0 6 5</rect></_>
    <_>
      <rect>
        5 3 1 1</rect></_>
    <_>
      <rect>
        5 4 5 6</rect></_>
    <_>
      <rect>
        5 8 1 1</rect></_>
    <_>
      <rect>
        5 10 1 1</rect></_>
    <_>
      <rect>
        5 11 1 1</rect></_>
    <_>
      <rect>
        6 0 6 8</rect></_>
    <_>
      <rect>
        6 2 1 1</rect></_>
    <_>
      <rect>
        6 2 6 7</rect></_>
    <_>
      <rect>
        6 3 1 1</rect></_>
    <_>
      <rect>
        6 4 1 1</rect></_>
    <_>
      <rect>
        6 5 3 4</rect></_>
    <_>
      <rect>
        6 6 1 1</rect></_>
    <_>
      <rect>
        6 6 6 6</rect></_>
    <_>
      <rect>
        6 10 2 1</rect></_>
    <_>
      <rect>
        6 13 2 2</rect></_>
    <_>
      <rect>
        6 15 1 1</rect></_>
    <_>
      <rect>
        6 15 6 3</rect></_>
    <_>
      <rect>
        6 16 1 1</rect></_>
    <_>
      <rect>
        6 17 1 1</rect></_>
    <_>
      <rect>
        6 19 1 1</rect></_>
    <_>
      <rect>
        6 21 1 1</rect></_>
    <_>
      <rect>
        7 5 5 5</rect></_>
    <_>
      <rect>
        7 6 2 2</rect></_>
    <_>
      <rect>
        7 6 5 3</rect></_>
    <_>
      <rect>
        7 11 2 2</rect></_>
    <_>
      <rect>
        7 14 1 1</rect></_>
    <_>
      <rect>
        7 15 1 1</rect></_>
    <_>
      <rect>
        7 18 1 1</rect></_>
    <_>
      <rect>
        8 3 1 1</rect></_>
    <_>
      <rect>
        8 4 1 1</rect></_>
    <_>
      <rect>
        8 5 2 2</rect></_>
    <_>
      <rect>
        8 7 3 4</rect></_>
    <_>
      <rect>
        8 11 1 1</rect></_>
    <_>
      <rect>
        8 12 2 2</rect></_>
    <_>
      <rect>
        8 19 1 1</rect></_>
    <_>
      <rect>
        9 0 5 3</rect></_>
    <_>
      <rect>
        9 0 5 4</rect></_>
    <_>
      <rect>
        9 0 5 8</rect></_>
    <_>
      <rect>
        9 1 5 7</rect></_>
    <_>
      <rect>
        9 6 1 1</rect></_>
    <_>
      <rect>
        9 7 1 2</rect></_>
    <_>
      <rect>
        9 7 2 2</rect></_>
    <_>
      <rect>
        9 8 2 3</rect></_>
    <_>
      <rect>
        9 9 1 2</rect></_>
    <_>
      <rect>
        9 12 2 2</rect></_>
    <_>
      <rect>
        9 12 5 4</rect></_>
    <_>
      <rect>
        9 15 5 3</rect></_>
    <_>
      <rect>
        9 18 1 1</rect></_>
    <_>
      <rect>
        9 18 5 2</rect></_>
    <_>
      <rect>
        9 20 5 1</rect></_>
    <_>
      <rect>
        9 21 1 1</rect></_>
    <_>
      <rect>
        10 5 1 1</rect></_>
    <_>
      <rect>
        10 7 2 2</rect></_>
    <_>
      <rect>
        10 9 2 3</rect></_>
    <_>
      <rect>
        10 11 1 1</rect></_>
    <_>
      <rect>
        10 11 2 2</rect></_>
    <_>
      <rect>
        10 18 1 1</rect></_>
    <_>
      <rect>
        10 20 1 1</rect></_>
    <_>
      <rect>
        11 2 1 1</rect></_>
    <_>
      <rect>
        11 9 2 2</rect></_>
    <_>
      <rect>
        11 21 1 1</rect></_>
    <_>
      <rect>
        12 0 4 3</rect></_>
    <_>
      <rect>
        12 0 4 6</rect></_>
    <_>
      <rect>
        12 0 4 7</rect></_>
    <_>
      <rect>
        12 6 4 6</rect></_>
    <_>
      <rect>
        12 8 1 2</rect></_>
    <_>
      <rect>
        12 8 2 3</rect></_>
    <_>
      <rect>
        12 9 2 2</rect></_>
    <_>
      <rect>
        12 11 4 4</rect></_>
    <_>
      <rect>
        12 12 2 2</rect></_>
    <_>
      <rect>
        12 13 1 1</rect></_>
    <_>
      <rect>
        12 14 1 1</rect></_>
    <_>
      <rect>
        12 19 1 1</rect></_>
    <_>
      <rect>
        12 21 1 1</rect></_>
    <_>
      <rect>
        13 10 1 2</rect></_>
    <_>
      <rect>
        13 11 1 1</rect></_>
    <_>
      <rect>
        13 16 1 1</rect></_>
    <_>
      <rect>
        13 18 1 1</rect></_>
    <_>
      <rect>
        14 0 2 1</rect></_>
    <_>
      <rect>
        14 2 1 1</rect></_>
    <_>
      <rect>
        14 3 1 1</rect></_>
    <_>
      <rect>
        14 4 1 1</rect></_>
    <_>
      <rect>
        14 8 1 1</rect></_>
    <_>
      <rect>
        14 9 1 1</rect></_>
    <_>
      <rect>
        14 17 1 1</rect></_>
    <_>
      <rect>
        14 19 1 1</rect></_>
    <_>
      <rect>
        15 0 2 1</rect></_>
    <_>
      <rect>
        15 0 3 5</rect></_>
    <_>
      <rect>
        15 0 3 6</rect></_>
    <_>
      <rect>
        15 0 3 8</rect></_>
    <_>
      <rect>
        15 1 3 7</rect></_>
    <_>
      <rect>
        15 4 1 2</rect></_>
    <_>
      <rect>
        15 5 1 1</rect></_>
    <_>
      <rect>
        15 6 1 1</rect></_>
    <_>
      <rect>
        15 7 1 1</rect></_>
    <_>
      <rect>
        15 9 3 4</rect></_>
    <_>
      <rect>
        15 11 1 1</rect></_>
    <_>
      <rect>
        15 11 3 4</rect></_>
    <_>
      <rect>
        15 13 1 1</rect></_>
    <_>
      <rect>
        15 16 1 1</rect></_>
    <_>
      <rect>
        15 18 1 1</rect></_>
    <_>
      <rect>
        16 6 1 1</rect></_>
    <_>
      <rect>
        16 7 2 1</rect></_>
    <_>
      <rect>
        16 8 1 1</rect></_>
    <_>
      <rect>
        16 13 1 1</rect></_>
    <_>
      <rect>
        16 15 1 1</rect></_>
    <_>
      <rect>
        16 19 1 1</rect></_>
    <_>
      <rect>
        17 0 2 1</rect></_>
    <_>
      <rect>
        17 9 1 1</rect></_>
    <_>
      <rect>
        17 12 1 1</rect></_>
    <_>
      <rect>
        17 15 1 1</rect></_>
    <_>
      <rect>
        17 16 1 1</rect></_>
    <_>
      <rect>
        17 19 1 1</rect></_>
    <_>
      <rect>
        17 21 1 1</rect></_>
    <_>
      <rect>
        18 0 2 8</rect></_>
    <_>
      <rect>
        18 1 2 2</rect></_>
    <_>
      <rect>
        18 2 2 3</rect></_>
    <_>
      <rect>
        18 6 2 6</rect></_>
    <_>
      <rect>
        18 8 1 1</rect></_>
    <_>
      <rect>
        18 14 1 1</rect></_>
    <_>
      <rect>
        18 15 1 1</rect></_>
    <_>
      <rect>
        18 17 1 1</rect></_>
    <_>
      <rect>
        19 0 1 1</rect></_>
    <_>
      <rect>
        19 19 1 1</rect></_>
    <_>
      <rect>
        19 21 1 1</rect></_>
    <_>
      <rect>
        20 0 1 1</rect></_>
    <_>
      <rect>
        20 1 1 1</rect></_>
    <_>
      <rect>
        20 9 1 1</rect></_>
    <_>
      <rect>
        20 13 1 1</rect></_>
    <_>
      <rect>
        20 21 1 1</rect></_>
    <_>
      <rect>
        21 0 1 1</rect></_>
    <_>
      <rect>
        21 1 1 1</rect></_>
    <_>
      <rect>
        21 2 1 1</rect></_>
    <_>
      <rect>
        21 3 1 1</rect></_>
    <_>
      <rect>
        21 3 1 2</rect></_>
    <_>
      <rect>
        21 4 1 1</rect></_>
    <_>
      <rect>
        21 4 1 3</rect></_>
    <_>
      <rect>
        21 4 1 5</rect></_>
    <_>
      <rect>
        21 13 1 2</rect></_>
    <_>
      <rect>
        21 16 1 2</rect></_>
    <_>
      <rect>
        21 17 1 1</rect></_>
    <_>
      <rect>
        21 18 1 2</rect></_>
    <_>
      <rect>
        21 20 1 1</rect></_>
    <_>
      <rect>
        21 21 1 1</rect></_></features></cascade>
</opencv_storage>
